473 128
41 0.65100604 1.38748 0.33507264 -2.1819818 -0.93285215 -0.81021756 1.6988732 -0.64479095 0.9371082 -1.3754171 -0.96993023 -0.61326104 -0.5991094 1.418433 -1.1616535 0.5131653 0.597811 1.6590914 -1.2013023 -1.8848912 -0.1895247 0.28209543 1.1301417 0.47703993 1.3369386 -2.2095394 0.050302297 -0.29361895 -0.8143626 2.0178533 1.085568 -0.45946568 1.906957 -0.77060336 -1.5466835 0.4520366 -0.9718669 -0.13205639 -0.41925478 -0.21433365 -1.8208634 -0.12325097 -0.9133612 -0.3699946 1.3803976 0.59212154 -1.5769563 -0.49322486 -1.9409469 0.8836542 -1.6118804 -1.5848385 -1.4280804 -1.3964814 0.3344926 -0.2611409 0.72389764 0.90845513 0.4015001 -0.18992072 0.63708514 0.6838143 0.30464828 -0.91698855 -0.50031304 0.430604 0.90869474 -2.2573419 2.2917376 -0.3689814 -0.7412018 -0.64267373 -0.86232144 1.242083 -1.2581668 2.0002773 1.7193879 0.038617853 -0.2813349 0.69683546 -0.44140247 0.24332272 1.1290483 0.85556924 0.6473743 -1.4638116 1.6113067 -1.9416838 1.6777871 1.1247054 -0.08364269 -0.6967045 0.9019853 0.30572167 0.5817882 1.8144989 0.79857844 0.5962076 1.0764554 2.3059227 1.6043435 -0.25369275 1.2212983 -0.17070307 0.16134608 -0.49091923 -0.9161861 0.72541004 1.1279906 0.6107004 0.77512 -0.04768079 0.9677585 0.39097407 0.2289334 0.6131994 0.53608817 0.9726199 -0.43404946 1.041726 1.1577777 -0.9848184 -1.1818941 -0.030782094 -0.45486233 -0.060970236 0.18719317 -0.19375268
232 0.5815754 1.2658347 1.7068121 0.8898034 0.5964055 -0.49573824 0.97850484 -3.0247438 -1.7290429 -1.8757238 -0.5986134 -1.121864 -1.3181708 -1.5571588 2.326855 -0.2094638 -0.64853144 -1.0040979 -1.472725 -0.86249083 -0.27667648 0.5299769 -1.3442563 -0.14686655 0.55595225 -0.19342576 -0.6099743 -2.0632415 -0.39340773 -0.2464563 -1.1484205 0.6129721 1.1703514 0.741605 -0.9931488 -0.6543659 -2.0730639 0.8405638 -1.8436574 0.046233594 1.5281844 -0.9678419 -1.4069778 0.20469595 2.2264094 1.4463732 0.70446754 0.54620075 -1.5469824 -0.2799106 -0.6528801 -0.578927 -0.8849055 2.2618341 0.4964289 -1.4869472 0.5772109 0.6388576 1.1745452 -0.87514895 -0.48883525 -0.075579 0.5234444 -1.217373 -0.31341264 -0.29848325 0.0123921195 -1.3671645 0.54576707 0.7335674 1.6807048 -1.0068471 0.90828377 0.63473254 -0.36626223 -0.8029808 0.2953893 1.3190242 0.6164233 -0.61807483 0.18586127 -0.031644665 1.3381921 0.2371602 -0.81647617 -1.516053 0.049215246 0.6812685 0.21034916 -0.47231874 -0.8446237 -1.3323286 1.8363744 -0.79700744 -1.1640533 -0.067877814 0.8908512 0.6300988 -0.3292442 0.99962115 0.05222141 -0.22972853 0.9413113 0.06422398 -0.49589166 1.3015733 -0.7094026 0.17279439 0.7129898 2.933736 -0.39389935 -0.6212481 1.6829755 0.60057056 -0.16765393 0.2412737 1.9474175 2.4315343 0.21586941 0.23080374 0.96179634 0.16344066 -0.5374955 0.4173233 0.3199296 -1.0766869 -0.09380157 2.492643
119 -0.12183005 0.68761474 1.0489187 -0.2111126 0.9618472 1.0251777 -0.36922374 0.71189976 -2.4062264 -0.25113195 0.055564914 0.5597266 1.0699086 0.18306544 -1.3942976 -1.5859263 -0.21695115 0.9862083 0.3723332 -0.3316222 -0.72503597 -0.7194691 0.12378555 -0.517196 -0.52020174 -2.2761865 0.119484745 1.0719509 0.2205572 1.0285645 0.46748763 -0.6146525 -0.3610573 -0.2868689 0.3240983 0.7972941 -1.3663709 0.46610862 -0.44282004 1.3782556 -0.34723055 0.69423556 -0.99076676 1.3883075 0.7513861 -1.3819435 -0.18067174 0.46972898 -1.1500839 0.8549983 0.3237831 -0.8172625 -0.12570474 0.6803862 -0.6969897 -0.834777 -0.48668125 0.6479046 1.0753742 -1.421973 -0.14847551 -1.7485017 0.935911 -0.38268426 -0.8388063 -1.6928077 -0.3654853 0.7863518 1.2749187 0.9970501 -0.052939482 -0.62820363 0.5160138 0.90876675 -1.159434 1.7525144 1.9578185 -1.1448553 0.8343863 1.8887653 -0.25086612 -0.4074101 0.22060034 -0.5732336 -0.55878115 0.9287161 0.7903406 0.20400451 0.7899386 0.76699924 -0.630308 -1.4882501 0.19459197 0.7463025 0.45678297 0.02296295 1.9614491 -0.71547884 1.268248 -2.029998 -0.9057557 0.8517999 1.7465423 1.1066107 -0.9846512 -0.6870311 0.16927843 0.55756533 -0.11397787 0.4969348 -0.7121339 -1.0877216 0.86725545 1.1379118 0.06661307 -2.2658467 0.74195224 1.7840436 1.831704 -0.26489234 -0.36170018 0.5306139 1.089491 -0.11673622 0.013068532 0.7831156 -0.5350466 1.966563
110 0.39590448 1.172352 1.4200289 0.24433707 0.047431342 1.8566757 0.13727765 1.273649 -1.3995192 -0.06271925 0.45963842 0.8076268 0.7627938 0.4453343 0.1909517 0.58664244 -0.48026803 -1.1136773 0.06514028 -0.8668244 0.21448478 -0.41386095 0.8329141 0.4911711 0.36111265 -1.471842 -0.057846814 0.73427486 0.44309866 -0.4416183 -0.3734581 -0.73488355 -0.2511431 -1.2176493 0.7419683 0.21335116 -0.21412787 -0.67871433 0.45857728 0.9645308 -0.18221018 1.0874627 -0.19188452 -0.5662008 0.7014097 -2.2726216 0.046917517 1.4905173 -1.6276722 0.8018485 0.7025535 0.6454095 0.87309813 1.0715312 -0.39695963 -0.3886178 1.4554731 0.49223244 0.52788526 -2.7449634 0.031209981 -0.9865312 1.1956211 0.5838077 -2.1647413 -1.1428434 -0.442089 0.3125662 -0.12625183 0.88769305 0.48155826 0.110404566 1.074509 0.36612353 -0.9097435 1.0677146 1.7619762 -0.6267579 0.23476368 2.6176963 -0.81734735 -0.20652944 0.67063963 0.5756446 0.4927466 2.211726 1.3271966 -0.9414113 0.7876704 1.4376441 -1.8958386 -1.47563 1.3673313 0.11815268 1.6279823 0.026386796 2.0696723 0.04321258 0.17981662 -0.7261272 -0.215032 0.47900417 2.0935047 0.29960227 -1.7144853 1.84228 -1.475137 -0.11839416 6.7016255e-05 1.7561 -1.5293546 -0.16134961 0.4438601 1.0050927 -0.6813429 -1.3073876 -0.1331416 -0.10884133 0.82474726 -0.911075 -0.18406677 -1.1936309 1.3569978 0.61919564 -0.74647605 -0.41038495 -0.37910768 2.2149796
104 0.9627456 -0.18759522 1.0621692 1.0851216 -0.6199535 0.3453866 -0.50636387 0.47248763 -1.8862829 0.35634002 -0.0074051362 1.2561381 0.27073932 0.30470055 -0.57437015 -0.14444202 -0.18118371 0.38460448 0.39634302 -0.21141806 -0.8419154 -0.042087153 0.7542576 -1.2369614 -0.08465113 -0.8983016 -0.35293427 -0.00880195 -0.8649117 0.32635686 0.072240904 -1.2565976 -0.7138162 0.22624479 0.49977064 0.74359435 0.12317315 0.24832028 0.07718252 1.3203722 -0.2564497 1.719299 -1.3242997 -0.7101098 1.2763073 -0.9508214 -0.06980994 0.23830405 -1.3724288 0.60747665 -0.967315 -0.09621129 0.6314388 0.5800922 -0.24541666 -0.7275095 0.1526975 -0.9051014 -0.33682305 -1.3121392 -0.83188444 -1.2737195 -0.71191144 1.0462118 -1.1158946 -0.74689925 0.56101394 -0.09760548 1.0719463 -0.12360807 0.47150314 1.0316098 1.646753 0.9131027 -1.2885422 1.4143703 1.4819472 -0.45632648 0.04794736 0.5530487 -0.06880809 -0.3289142 -0.1255065 -0.37456048 0.093656935 1.5011404 0.5428713 0.10761376 0.16635722 1.0779098 -0.55486226 -0.78103435 0.9808887 0.7878424 1.2368606 -0.46575335 0.42275697 -0.2110154 -0.19279477 -1.007714 -0.69787705 0.3285455 1.2233839 1.232976 -0.79459727 1.1005529 0.13977844 -0.079951406 -1.2293681 0.39194083 -1.2630397 0.38113698 0.16346471 0.9914086 0.3477502 -1.7756141 -0.06011645 0.9506239 1.2238401 -0.99808866 -0.57516575 0.14245716 -0.30595472 -0.29122743 -0.8186018 0.8818108 0.35852185 1.1216019
4 -0.75025386 1.1093508 -0.40611416 -1.0031475 -1.0171201 0.4949566 0.72125185 -1.1396255 -1.1780883 0.6275159 -0.067889504 0.8605465 2.0370715 0.19103426 1.5587988 -1.4948632 0.18969662 -1.3638642 -0.17550896 -0.15763853 0.5312717 0.019517297 -0.70364124 1.7813834 0.89060384 -0.10988098 -0.22381386 -0.28982472 -0.30469924 -0.43044624 2.0212338 -0.4485337 -1.3078924 0.8823579 0.36229378 0.15359826 -0.5447727 -0.35224587 0.15670487 -0.81698334 -0.5284932 -0.38409376 -0.85615295 1.3620087 1.4417647 -0.8579936 -0.9051198 0.36702463 -0.12602697 0.26253793 -1.333526 -0.119357064 -1.1771929 -0.8177568 -0.066013604 -1.5595104 -0.057848055 -0.5071153 -0.63441277 0.05290186 0.6586514 -1.4361926 1.8457873 0.49930936 -0.45709914 0.63543516 0.51428026 -0.47804266 0.031024897 1.1029284 0.67438024 0.24944296 -0.36119297 0.7165153 -0.9961854 0.5049653 -0.8506381 0.06252945 -0.102371655 0.058910202 -2.6207814 -0.3261332 1.6963617 0.8952525 -1.6085064 -1.5043734 0.47061783 0.06992823 -0.974391 0.30748418 2.4771972 0.18908091 -1.5256076 -0.3284907 -0.544464 -1.3004783 -0.59088016 -0.051780004 -0.10475109 0.16574378 0.257618 -1.1743147 -1.4143776 1.7888805 0.109016344 0.77410734 -1.103042 0.034420125 -0.20625785 1.0761858 0.072720155 0.05246377 0.7594873 0.10610029 -0.33525845 -0.09575821 -0.07106039 1.7491088 -1.1365651 -0.13433042 0.91302705 -0.6444106 1.6672745 -0.19043083 1.0640199 -0.8130099 -0.66829437 -0.31126878
182 -0.96946585 0.9085901 0.47377092 -0.9554145 1.0136507 1.2306076 1.1481854 0.186677 -1.7609973 -1.278135 1.4408292 0.6801347 0.3285662 1.0177321 1.5558261 -0.030778544 -0.47514686 0.49779692 0.26367038 -0.07873563 -1.1053758 -0.6288913 -1.2298477 -0.97400546 0.8766383 -1.0856632 -0.31384102 -1.8590746 1.2514005 0.5382696 -0.8955682 -0.58599687 0.36517715 -1.2248702 -0.52821296 0.23729467 1.9836527 0.28051463 0.02616697 -0.72172195 0.8394953 -0.18894985 -1.9757605 0.9841232 0.0028798883 0.37991038 -0.32775477 0.13497177 0.73538935 -0.126568 -0.51921743 0.2648416 0.28411222 -0.2307375 0.5820219 -0.5313999 0.921082 0.8893871 0.684362 -0.62576157 0.23146732 -1.3670262 -1.3878647 0.15782405 0.6513464 1.819352 -0.38493896 -0.40936399 1.395787 1.239461 1.14243 -0.24773304 -0.68912005 -0.23873985 -0.7126981 0.28101975 -0.04733515 -0.48512146 1.3061877 0.75596076 -0.6086513 0.73154414 -0.78785086 1.3812354 0.8364079 -2.5144556 -0.40090838 -0.9085117 -0.7054947 0.5537125 -1.4751492 -0.26422957 0.17370652 -0.35000086 0.23981802 -0.20596461 1.0881901 0.17436467 0.6291661 1.7423192 -0.64009094 -0.18010451 -0.2110433 1.433219 1.4049368 -0.4305131 1.5099652 -0.5473662 -0.5235808 1.7416099 -1.6057262 0.24842902 0.8517525 -0.418665 0.7595059 0.41644514 1.4150727 0.683073 -0.04015938 1.1715608 -0.4952433 -1.393782 0.09709178 -0.1934331 -0.34935883 0.0450311 -1.7293181 1.1003813
83 1.0747597 0.65455323 -0.97253394 -0.9852742 0.61727846 1.1161445 1.2670306 -0.65530294 -1.3558336 0.07630391 1.1095558 0.73830235 -0.05140339 0.1894348 0.88239354 0.76464415 -0.8844616 0.06959898 0.8110754 -0.98806363 0.010518977 0.806807 -1.6158965 0.5191131 0.022435674 -1.4128342 -1.4107726 0.13072957 -0.77564734 -0.6252411 -0.7019265 0.31564394 0.76104903 0.26092103 -0.6748297 -0.15430878 0.5670444 -0.6667477 -0.4735786 -0.52292573 0.23337978 0.8155411 -0.24607344 0.9113804 -0.019200314 0.5891659 0.20705542 -0.23636054 -0.118246205 -0.42280862 -0.4558127 -1.93313 -1.0710577 -0.57618546 -1.8688815 -1.0579897 -0.6640584 1.5220554 1.4225051 -1.5875765 0.31153187 0.30614954 0.25917366 0.42158306 -0.8066707 0.85911363 -1.1069764 -1.5400836 -0.41949108 0.23877193 0.32690027 0.6229801 -0.4002295 1.3687137 -1.3996809 1.2985667 0.061943874 0.47646913 0.14047322 0.8093014 0.44390216 -0.22351061 0.0071603497 -0.05137871 0.5339764 -1.179518 -0.1733002 0.32840797 -0.6754925 -0.27473843 0.8298684 0.033814166 0.88047427 -0.39776292 0.79429907 -0.6611666 0.5702902 -1.5489106 -0.5577062 0.74731714 -0.25802565 0.84413195 -0.16614476 -0.008217399 -0.56550586 1.1885519 0.9058997 1.1609898 0.63964015 0.4063347 1.1367142 -0.87923735 -0.68257743 -0.04034338 0.34909794 -0.66484123 0.31794676 0.022002917 -1.4376928 -0.59517795 0.069536895 -0.12488502 -0.22845535 -0.72305447 0.06719309 0.05498225 0.5846398 0.7544507
170 0.127529 -0.20221886 1.1641389 0.10500173 1.1234312 -0.4413552 1.1168957 0.487428 -1.2391161 -0.83029455 -0.8356242 -0.31377068 1.3915292 0.47894883 1.8957331 -1.2226559 -0.09531604 0.6367531 -1.1289821 -0.3815026 -1.7093565 -0.50839216 -0.7041165 -0.13558161 0.67757416 -0.53376234 -1.5150999 1.0884868 -0.65204644 0.9947233 -0.007126948 -0.58816415 0.8060398 -0.32420883 -0.8255674 0.012662054 0.11758887 -0.008908026 -1.0710757 0.2730514 0.27902144 -1.7361375 -0.19726081 0.38277137 0.8416835 -1.3188487 0.8137033 0.37834144 -0.5101644 1.0660516 -1.7777634 -0.22334096 -0.16138501 1.4384569 -2.0981545 -1.2253506 1.3163831 -0.13656737 0.9590855 -0.4380376 -0.68740547 0.9814817 0.637407 1.3846912 -1.3480935 0.32517686 -1.171018 -0.7249575 -0.9863995 0.46300668 0.67231554 -0.069869675 0.10032738 0.011823062 0.19694744 2.0082915 -0.7534893 0.6817361 0.5584352 0.83798045 0.10751284 0.61918825 0.7749044 -0.11757523 -0.5915817 0.34758836 0.43305355 -1.779592 -0.40268442 -0.68462354 0.06911368 -1.1086378 -0.8662727 0.87597036 0.52367944 0.62725496 0.88987774 -0.85535365 0.8187607 -0.20514701 -0.34986815 0.64287424 0.82954377 1.6943507 1.028085 0.25935164 -0.18241774 -0.3757106 0.9403138 3.5047581 -0.6182122 0.16807123 -0.560481 0.27424857 -0.25568274 -0.17646268 1.413491 0.64950293 -1.4875181 -1.4961262 -0.7231736 0.0357491 -0.05793292 -1.9346654 0.663721 -1.9632169 0.2951005 0.21773832
228 1.1551231 -0.0808224 0.44058603 0.44273207 0.71734196 -0.2353496 1.3692489 -2.1587057 -1.7613379 -0.48067275 -0.36217308 -1.8231246 -0.72965205 -1.9945098 1.6514652 -0.8016868 -0.6295504 0.26423672 -0.13626416 -0.6992594 0.07333989 0.6992782 -0.9892174 -0.46922478 0.13591321 0.09475003 -0.31974432 -0.74909484 0.048520844 -0.6283663 -2.1003008 0.5503173 0.027253898 0.7933197 -1.5101205 -0.57442313 -1.5969694 0.54053277 -1.813602 -0.46816272 1.6014047 -0.48270425 -0.48209807 0.1454689 0.9283125 1.5537524 -0.373387 0.57388955 -1.464361 -0.25616765 0.3218957 0.56694555 -1.0917076 1.1587527 -0.027775621 -0.84508324 -0.14286822 -0.567016 0.50216156 -0.1304415 0.2755719 -0.81990165 0.63556576 -0.75456285 -0.21566571 0.23806056 0.66076165 -0.4239461 0.7550767 0.18156573 0.31348196 -0.29314262 1.0697193 -0.057822302 0.039611124 -0.09909802 0.25796092 0.78978676 0.2752729 -0.19495709 -1.0188506 0.022649271 0.44944924 0.08028032 -0.6421002 -1.3418934 -0.0046489993 0.32595688 -0.6210573 0.16037971 -0.3277303 -1.2016697 1.7933091 -1.2038465 -1.4517583 0.6901356 -0.4103218 0.89020705 1.0255299 0.50074655 0.32676166 0.13581903 0.9207616 -0.15662126 -0.17075475 0.903063 -0.61135817 1.0486413 0.28185022 1.0777842 -1.0687863 -0.110167526 0.7670061 0.36244336 -0.13145798 -0.7664108 1.2661555 1.9406742 -0.35519904 0.3171833 0.13121143 0.33235285 0.26060802 0.4901695 -0.22637752 -0.4366103 -0.31009603 1.6339414
224 1.332362 0.785093 1.3355656 0.48296 1.0524131 1.3897138 0.4903686 -0.63354003 -0.05152457 -0.33625484 -0.44502196 0.003027231 -1.3375158 -0.67032254 1.2280151 -0.49475506 -0.9389538 -0.06919366 1.1949542 -1.0007132 -0.8974635 -0.44023782 -1.634119 0.414928 0.9498888 -2.199792 -0.13362353 -0.18872976 1.129532 -0.25330916 0.21031047 -1.7221141 0.19319065 0.8334776 -2.1759477 -1.3764541 -1.4710963 0.85870975 -1.3357384 0.28451014 -0.3931919 -0.79765594 -2.2207797 -0.036191072 0.5265731 0.18712422 -0.2712685 1.2194843 0.11271552 1.7989383 -0.2989446 -0.9073893 -0.49638277 0.40240794 0.38653904 -0.72260475 0.018275399 0.39564264 1.7163178 -0.812889 0.494952 -0.12872504 -0.057795923 -0.7879387 -2.135977 2.39866 -1.0444498 1.2800385 -1.1815038 -0.6069079 1.544239 0.24763405 0.16005838 -1.0698555 -0.43056798 0.64966875 1.0262984 -0.19830549 0.7142023 0.40928084 -1.2538925 -1.8200221 1.6141269 1.2857809 0.9426533 -0.4524064 0.88165474 -1.4670366 -0.16394435 1.3920082 -0.05938533 0.24571355 0.7738069 0.9656014 -1.3512992 -0.14634971 0.66279805 0.28226292 -0.7395966 -1.2676663 0.4424049 -1.078047 -0.5717442 0.73311865 -1.5172441 0.85339123 1.005093 1.1902359 0.41621503 0.65543884 1.2095672 0.61382174 0.7728976 0.45811212 -0.83673626 0.17337364 -0.51761055 -0.00030824143 0.4191198 -1.6934067 -0.44181788 -0.28087342 0.8198577 -1.9821786 -0.26041746 0.6171725 -0.06451395 0.11699184
222 -0.43837938 1.1324697 1.4722415 -0.7632439 0.33186054 0.89842194 0.58823764 -0.6902921 0.030728068 -1.1976316 -1.0318167 -0.7210369 0.17888841 -1.2250179 1.5354431 -0.9144025 -0.0653039 -0.61214274 1.8072705 -1.4895827 -1.9878007 -0.9937822 -1.3430294 -1.1365855 0.6530145 -3.151555 1.4015943 0.09099267 1.3172874 1.6155584 -0.6250728 -0.5218855 1.1702962 -0.40353 -2.3369973 -0.78113073 -0.31228393 -1.3610363 -1.0052674 0.07314609 -0.07392434 0.16078892 -1.3824303 0.33090502 0.27340093 0.027784882 0.4545848 1.5419004 -0.3331963 1.2660937 -1.3482728 -0.13158841 -0.81384045 0.5418005 0.70208 -0.36485216 -0.0024614246 -0.67023134 2.4282167 -0.48695275 1.1272488 0.13910548 0.7860148 -0.024492836 -0.9188063 1.2380456 -1.2805221 0.76649374 -0.38654205 -0.45900726 0.40524697 -0.9924173 -1.2664711 -0.9999205 -0.5087339 0.5874784 0.20769735 -1.0619646 0.23393859 0.2749448 -0.6588678 -1.9550854 0.62364465 -0.47303537 0.048340317 -1.3560886 0.5242693 -0.7613229 -0.48332155 2.197569 -0.86210734 0.1466521 2.0101492 -0.6462984 -1.7420393 -0.20533113 1.5428048 0.7745478 -0.3854466 -1.4616038 0.52244073 -0.08774128 -0.31521735 1.4591364 -2.35126 -0.3054952 1.7881162 0.2970331 0.49734175 -0.6191571 0.69301414 0.18869787 0.6627575 1.4073064 0.7199415 0.6708447 -0.17151117 -0.48250735 0.3307011 -0.891844 -0.31670603 -0.59024763 0.90846735 -1.0699571 -0.37543726 1.1310911 0.8378459 1.8206397
19 -0.68601775 -0.34708813 -0.17423004 -1.0331581 -0.87505186 0.27168903 0.87978905 -0.480697 -1.077217 0.400374 0.6401986 -0.29474866 0.38969582 -0.84031004 -0.49469426 0.8780055 1.5233165 -0.11460161 0.33087274 0.26413545 -0.14876752 -2.0995731 -1.7998793 -0.5902268 1.3453255 -0.91234463 0.17348269 -0.576593 0.54983145 -2.4145825 -0.44707984 -0.8609965 0.5606356 -0.97094923 -1.6332865 0.913266 0.07114473 0.34985667 -1.2571387 -0.17844234 -1.8306514 -0.05893083 -0.7247644 0.4040717 0.8397539 -0.056664106 0.5396696 -0.44199055 0.13124245 0.55777884 0.24690723 0.106640376 -0.15102682 -0.24300483 -1.6372705 -0.11596968 0.22710948 -0.9358696 1.2849982 -1.0229768 -0.034576282 0.7735819 0.95535123 0.0949978 -0.58542985 -0.3519762 1.6112329 -0.9357621 -0.21379715 0.24474688 -1.425183 -1.4756018 -0.1811817 -0.5809226 -0.48371816 -0.11693373 -0.68274266 -0.13142726 -0.1896055 0.87883025 -1.3718563 0.46259156 0.67541116 1.5961742 -0.2495851 0.9023927 1.2057209 0.44828826 -0.21784385 -1.1393266 -0.44269675 0.20058106 0.6077999 -0.19428761 -0.9531597 0.4692322 1.1205615 -0.27356386 -0.41066772 0.4175141 -0.06184877 0.11149567 -0.378703 0.59138316 0.3894011 -1.560996 0.4349313 0.49930277 -1.1058761 1.5545652 -0.9568069 -0.781993 0.1389248 1.681991 1.2752069 -0.36368814 -0.45720306 1.1083652 -0.67699754 0.059406094 0.74883485 0.52619606 0.17280363 1.0244225 -2.1929483 1.7143103 -0.8840788 -0.7130787
134 0.35787943 1.318331 -0.4029885 -0.8273596 0.31435767 1.4465518 -0.50208664 -1.3007745 -2.0756695 -0.46636894 -0.20753224 1.713149 1.0296124 0.3483409 0.43519902 0.41345933 -1.4425149 0.99222976 -0.9241098 -2.2368033 2.0082495 0.21784256 -0.26557046 -1.5313106 0.45623395 1.1177658 -0.25047383 0.26401687 -1.7495364 0.28065792 -1.4667203 0.14647076 -0.09562772 -0.87604624 -2.5093431 -1.6659275 -0.7679712 0.3924692 -0.5024842 0.8932493 -1.2108952 0.44084743 -0.56925833 -1.7451073 0.42026767 0.17406514 0.07996068 0.5265352 1.3227652 0.5986279 -0.46518573 0.12374742 -1.2197782 -0.8938033 -1.1303923 0.90743303 -0.27071816 1.3919843 -1.6193267 -0.72523445 -1.2235967 1.259666 0.3883435 -0.37022123 -0.88948786 2.4634213 0.054458097 1.2044013 0.28047305 0.5064037 0.8928713 -0.109668165 0.3891137 -1.3397485 1.3081206 0.97001207 -0.8373422 0.25265816 -0.26477778 1.7593626 -0.15111586 -0.5065024 -0.89445263 -0.8041046 -0.41064382 1.275119 0.49523634 -2.5614555 -0.09427824 -0.29284555 -0.59900945 -0.1689146 -0.085326046 -0.13010474 0.51148385 -1.0106806 0.7466254 -0.26182127 0.5292014 -0.46717432 0.7828572 2.4995677 0.23677741 -0.3110678 -0.5092069 0.39500657 1.04948 1.3810128 -0.72042286 2.3686671 0.8864393 0.052862287 0.20726919 0.45670778 0.26150632 0.6894295 1.0065266 -0.74935204 -0.60106605 0.28352734 -0.22967504 0.22724192 -0.022696046 2.4231744 -0.9639211 -1.2279934 0.82756317 2.0475996
129 1.0680238 0.6856326 0.2011905 -1.9969877 -0.4428963 2.2929952 -0.5005418 -2.2314072 -1.9907258 -0.67027444 -1.5310663 1.5375618 -0.12729064 0.090158425 0.8194932 0.50690895 -0.54427373 0.24902892 0.6495832 -0.5584809 0.7385243 0.19088854 -0.7234777 -0.42052627 -0.587398 0.37300292 -0.38233873 0.13568226 -1.6846615 1.5872823 -0.41946998 -0.1380439 -0.30535582 -1.5526079 -2.1875231 -1.8046538 0.54601985 0.7287936 0.15983985 -0.2920393 -0.91532075 -0.7025109 -0.004146421 -0.60462606 1.8171906 0.11564335 0.49106678 0.6342525 0.5495559 2.0140488 -0.27187732 1.1748564 -1.4097106 -0.97167224 1.1030564 1.3004111 0.04433129 0.24189982 -0.7840271 0.23459835 -0.5436986 0.3314599 1.4999282 0.6963245 -1.1710461 2.3470147 -0.07717223 1.0133818 -0.10922935 -0.44217154 0.48244432 0.4135341 -0.20552307 0.470043 1.045266 0.5998974 0.5273548 0.1297147 -0.61936945 0.37448135 -0.84977704 0.74652404 -0.5974807 0.04147369 -0.7944734 0.36935705 -0.49587995 -2.0397005 -0.5248477 -0.48678973 0.7590041 -0.02852584 0.7893207 -1.020588 0.6422845 -0.72300935 0.18316457 -0.9600712 -1.0802909 -0.29485565 1.0798652 2.383159 -0.22459348 -0.3914888 0.43581998 -0.49957472 0.44911224 0.6973288 0.6507875 2.459383 0.69462603 0.7511678 1.0008811 0.87599355 0.51877934 0.034202255 -0.14201038 -0.1340409 0.274303 0.29767072 0.49085638 0.09955784 0.4691355 1.1765709 -0.8345328 -0.5008314 1.1708404 0.9253264
414 0.45904592 0.16391064 -0.33428887 -0.8998055 0.17050293 0.62436515 0.2910299 -1.281824 -0.60746163 -0.7281882 -2.653531 0.5603565 -0.43103927 0.06381219 0.3663595 0.88581795 -0.61827534 0.57688403 0.21626464 -2.4149024 2.2236853 0.7202328 -0.5648574 -0.22874732 1.3607752 -0.26435602 1.0115058 -0.95730203 -1.3921443 -0.6465303 -0.47948208 -1.4828001 -0.710662 -1.7401662 -0.7849005 -0.34244505 -0.38663134 1.7843199 -1.4203304 -0.5276475 -1.28458 -0.07068619 -0.94304043 1.6068416 -0.81820214 0.7819173 0.25694916 1.9243339 0.21316855 1.7121922 -1.3260211 1.2689303 -0.6755388 -0.83397526 0.29470104 2.2213194 -0.36157423 1.2073145 -1.3882204 -1.5755148 -0.25969815 0.15565984 0.6891101 -2.0731866 -1.5686803 1.0480485 -1.220731 0.7733517 0.3918412 -0.13432914 1.5659126 -1.1329235 1.5685326 -0.6380671 0.9601057 2.0751686 -1.6798695 -0.71337944 0.27047116 1.2774265 -1.2129612 -0.5416123 -0.3001567 -2.184857 0.53134847 -0.5360636 0.44319776 -1.2665448 -0.1549282 0.4688072 -0.89683574 -1.0746005 -0.50004965 -0.20498587 -0.20895167 -1.1324446 0.8252653 -1.5570434 -0.9975947 -0.67112076 -1.9622973 0.37374446 0.13373452 0.3574925 -1.142809 0.7231991 -0.4582349 -0.5103503 0.5609276 2.1527274 -0.5948545 0.1861566 -0.047084752 1.1959382 -0.6744022 1.7050943 0.70706594 -0.7297012 0.6532342 0.048734076 -0.088979505 -0.108805984 0.9997663 2.2560644 -1.7082818 0.063727476 0.24271847 -0.45705792
220 0.6860557 1.125134 0.87442607 -1.0462213 0.2391573 0.7656214 1.566113 -1.2168406 0.120028675 -1.3980514 -0.5559981 0.08855728 -0.36741966 -0.8780724 2.5358117 -0.6490771 -0.36654434 -0.20356801 0.99993545 -1.2667046 -1.4699541 -1.319337 -1.3789152 -0.5321625 0.09412108 -1.3712469 0.43645537 -0.9047832 1.5109264 0.52558684 0.7551826 -0.45564777 0.40962154 0.6994708 -1.6416023 -1.2116822 0.52420795 -0.31088573 -2.0727623 0.6511852 -1.2890435 0.08300204 -1.4008148 -0.4541374 0.7914915 -1.0152057 0.49311846 1.7356179 -0.3285487 0.96986353 -1.2575539 -0.34562021 -0.8362739 1.1360832 -0.11222344 -1.0630053 -0.5346258 1.1680177 1.4063965 -1.5137899 0.65069824 -0.08012469 -0.4118048 -0.90945804 -1.6527967 -0.4101434 0.38995326 -0.42207956 -1.2350634 -1.3867403 2.2435668 -0.10770318 -0.41066754 -1.0384519 1.3076892 0.73978823 1.4874454 -0.8564148 0.9593511 -0.11711491 -0.7591296 -0.6172448 0.98553485 0.6386717 1.1278995 -0.25648597 0.18188342 -1.6616826 -0.5565968 0.4890785 -0.49956182 0.45910943 1.3784724 0.103406645 -1.4800104 -0.3457449 -0.037060395 0.5328617 0.6394998 -0.7658622 0.67724717 -0.2396211 -2.0949883 0.7708364 -0.4777112 -0.06704698 0.74524564 0.07445499 -0.011521755 0.24274215 1.323211 0.69479144 0.85672057 1.6133019 -0.71832865 -0.6156209 0.08928712 -1.676441 -0.7569866 -1.7230996 0.20051244 -0.07206701 0.867729 -0.65297025 -0.16372034 1.226407 0.22418039 0.654913
58 -0.9886294 1.1410604 -0.26426852 -0.04063235 0.5912908 0.30381128 0.15723166 -0.8962696 -0.8512541 -0.5840867 0.49111256 -0.9203151 -0.7869139 1.0735788 -0.7213078 -0.39713937 -1.2676439 0.9162411 0.9792321 0.20539804 -1.0457834 -1.1458441 -1.3232317 -0.62062716 0.5418889 -0.5446266 1.2238867 -0.3808631 -0.0038483602 0.47826785 -0.5718911 -1.442348 1.7756565 0.801512 -0.46194375 0.400866 -1.144136 1.0754462 -1.6103599 2.2329745 -0.4441393 -0.68716747 -0.46386617 0.8721901 -0.41430598 -0.33236936 0.47422007 0.110234305 -0.27879554 0.7377971 0.33132526 -0.035920266 0.4611995 0.10527239 -0.58845323 0.6786111 -0.6057124 0.42429104 0.64074624 -0.74410397 -0.3638288 0.9215251 0.24232338 1.5868342 0.18991756 0.07837748 -1.0897427 -2.0371106 -0.99258703 -0.19153033 1.8930163 -0.32066295 -1.9031917 0.70286655 0.07901141 -0.22404832 0.56464344 0.043945573 -0.027138509 0.086576074 -2.43581 -0.225564 0.3248177 0.015818117 0.30793545 -0.15154907 0.49318844 -1.7529905 -0.4413675 -0.07886809 0.7015883 -0.77507937 0.40037808 -0.18546376 -0.52209246 0.08526024 0.6699147 0.29749972 -0.56356674 0.38732472 -0.020612365 0.5203957 1.081338 -0.9678868 -0.6432408 -0.23143372 -0.9445021 0.4957221 1.1648746 0.40325996 -1.13463 -0.52880144 0.12927297 0.25105095 1.177087 -1.2457504 0.41255262 -0.6820832 -0.04904154 1.4694829 -0.656427 -0.29838157 1.4624766 -0.4534739 -1.3935354 -1.185907 1.0372394 1.6439294
215 1.8162116 1.0668421 0.30999815 0.9200797 -0.87116766 0.35203022 -0.07618995 -0.017839687 -2.078067 0.43625486 0.26126 1.8935045 -0.49362883 0.12948419 -0.7094039 1.404933 -0.36038524 0.0684158 1.4986064 -0.3647845 -0.23906007 0.2085226 -0.5885301 -1.1114192 -0.4906915 0.035313495 -1.1950155 -0.8882591 -2.0485218 0.9997929 -0.20726936 -1.481885 -1.1107972 0.52564716 0.50653076 1.6256127 0.13380228 1.2376391 -0.6932181 1.6331613 -0.26759598 0.93291 -2.4034505 -0.8895406 1.3911365 -0.67203873 -0.5040624 -0.92596245 -1.0623201 0.8356211 -0.99623865 -1.0808667 0.49430734 -0.31425002 -0.5826761 -0.54064494 -0.4514442 -0.8372719 -0.7382948 -0.6942479 -0.88509977 -1.3815675 -0.4192221 2.1667898 -0.64450973 0.16587888 1.0216607 -0.89210147 1.6987923 -0.19164655 0.45870197 0.78484464 1.474912 0.45274267 -0.5345177 2.2548625 2.0629263 -0.49419284 0.6266165 -0.09230851 -0.47395372 -0.3516935 0.14316443 -0.60396665 -0.8814808 1.4554781 1.6340213 -0.65573794 -0.026646094 0.49795526 -0.43888646 -0.6466302 0.17876308 1.5779623 0.42212856 -1.3806916 1.100834 0.4411851 -1.1133139 -0.42961448 -0.8619257 0.7895795 0.49765626 1.4175887 -1.1031388 1.813608 0.079364635 -0.73015857 0.06342845 1.5162932 -1.3018118 -0.1647517 0.6206505 1.5170853 1.2176836 -1.2500292 0.8213257 0.6703907 0.36605176 -1.6988947 -1.139336 -1.0027559 -0.48372898 -0.11405955 -0.40741208 0.8315402 -0.049255934 1.225959
292 -0.24371997 0.69174033 0.7830061 -0.87907267 0.047717143 -0.36595258 1.5256927 -0.39445662 0.8935816 0.6347719 -0.1512375 -0.86112726 -1.1071696 -0.13783118 -1.1392874 -0.023418311 0.49218175 1.4967421 -0.41656142 -0.3157001 0.65974253 0.17185298 1.4953828 0.13526917 1.1418704 -1.8316939 -0.31791717 -0.9924767 -0.54451007 0.73965776 0.03938873 0.6074436 1.498396 -0.0776134 -0.46132797 -0.40551874 -0.3030974 0.21578406 -1.521869 -0.29017982 -1.6557666 -0.7469746 0.62378234 -0.7081807 1.1108993 -0.20328447 -0.15164316 0.55309004 -2.3311746 0.15335812 -0.67210406 -0.7192933 -0.036119536 -0.40895802 0.5874915 -0.29284537 -0.067893736 -0.058490433 0.5914663 1.1296697 -0.009178259 0.45757532 -1.0948778 0.7867855 -0.9575006 0.8495199 0.69789284 -0.93115884 2.1566885 0.0573279 -0.7003971 -0.88827074 -0.787039 0.61464256 -1.2092342 1.1126802 1.6746515 -0.45262286 0.33754283 0.2224023 -0.7791318 0.25238645 1.3227642 0.15720111 -0.5639142 -0.71274674 0.86331874 -2.040208 1.125864 0.49071467 -0.22932991 1.3370532 -0.30310726 -0.48411876 0.59353834 -0.16917582 0.6172695 0.6020968 0.37870103 1.3635975 0.36800086 -0.45327252 0.43473414 1.2022108 -0.441012 -0.32708135 -0.5152407 0.64800125 0.54474473 0.60869825 0.03463392 -0.50077325 -0.60470605 0.17479691 -0.0112544345 1.6356704 1.4844869 0.22462982 -1.034575 0.6346394 0.58885074 -0.6020106 -0.475136 -0.8782997 -0.2728457 0.81968063 0.1386987 0.17145422
251 -1.036672 1.4373914 -0.53528804 -1.1269115 -0.2957023 1.1095933 0.36809888 -1.0602129 -0.732908 0.54513377 0.39038968 0.86702937 1.3354161 0.53879493 2.08455 -0.95591694 -0.094376706 -0.60639983 1.2539071 -0.6715933 -0.0616917 -0.44455862 -0.16335516 0.9491043 0.84882915 -1.4636178 -0.9678292 -0.9846086 -1.2323205 0.617209 1.2813052 -0.44118038 -0.7009831 0.15971063 0.5402267 0.48499054 -0.36053905 -0.51820403 0.4295528 0.6627208 0.12056024 0.09983764 -0.7873492 2.129033 1.5414443 -1.090749 -0.96513647 1.2866747 0.20527998 -0.41772917 -1.4681234 -0.030044595 -0.45513722 -0.37898785 -0.9387016 -0.5321338 -1.0969446 -0.31567314 -0.778137 -0.52889955 0.46194232 -0.6641905 2.5778162 1.2011416 -0.3492777 -0.2903712 1.3694335 0.023666052 0.31984353 0.8828685 0.95846677 0.46855745 -0.850309 0.10178501 -1.9138514 -0.24022777 -0.5872306 -0.86536825 0.30160636 0.2511133 -2.9101977 0.7033022 1.2604192 0.9075818 -0.48661715 -1.7563637 0.38897565 -0.12064318 -1.2351044 -0.08174218 1.4958991 0.19158013 0.009099231 -1.2722286 -0.64448756 -1.3700802 -0.736997 0.99703145 0.08290343 1.2429284 -0.058965635 -1.4584931 -1.3945256 2.1299682 -0.8655861 0.20028287 -1.1596184 0.14117649 0.24286023 1.6381563 -0.07039604 -0.9687273 0.17521328 0.870946 0.22952878 -0.53505933 0.12186723 1.2127773 -0.6719998 -0.9457746 1.0525289 -0.8045484 2.1501358 0.75628805 0.9310703 -2.0117748 -0.1830812 -0.45442724
98 1.5604193 -0.76757187 0.064937524 0.8473046 -1.3689171 -0.41125754 -0.4490545 0.39966798 -2.29683 -0.15502828 -1.0072259 0.04205328 0.32856083 -0.0074879397 1.1183902 0.25200894 -0.9093184 0.83847934 -0.26833552 -0.30270547 -1.1449705 0.093970194 0.5549904 -0.7956267 1.0058033 -1.0665778 -0.51660323 -1.4496151 -1.2725779 -1.4444273 0.5310971 -1.7477169 0.44297266 -0.42649037 -1.0123354 0.9146946 0.9053338 1.357682 0.23176926 1.3470736 -0.08217703 1.8829552 -2.090313 -0.9455769 1.2272794 -0.26388547 -0.19988957 -0.2040783 -1.6568683 -0.41472661 -1.1318144 -0.1739399 -0.63774544 0.77236134 -1.0834152 -0.47033343 0.15693988 -0.93021315 -0.35175642 -2.2078607 -1.1075836 -0.90340936 -0.8001195 0.91239345 -1.1875225 -0.56106746 0.65673053 -0.6070025 1.5166734 -0.9485442 1.7269975 1.2986017 0.31425288 1.5459087 -1.1535822 2.3444211 0.27672273 -0.25914025 -0.4490266 0.81827253 -1.1803894 -1.0255814 0.8187893 -0.07682754 0.6504369 1.605691 -0.5658521 0.0141471755 -0.06185828 1.4812098 -1.0071329 -0.960766 2.0271072 -0.22499935 1.350156 -1.1103228 -0.32253015 -0.5976174 0.166982 -0.7264834 -0.94403 0.54678893 0.98766416 1.4744912 -0.11244187 1.2008926 0.5707205 0.3194332 -1.097541 -0.109793775 -1.2438146 0.9295432 0.55024934 1.8409534 -0.059601907 -2.1740963 0.34153548 0.60337526 0.62522775 -1.5819901 -0.1449304 1.6001953 -0.23007789 0.051193025 -2.1331718 0.2347937 0.51346207 -0.037026267
429 0.21206878 0.79059845 -0.066464365 -2.1531298 1.3219423 1.1311857 1.3277963 -0.9969573 -1.1122088 -1.1443963 -2.6199262 0.43370745 0.5043816 -0.053166468 -0.045822673 0.8505004 0.4162702 1.5759702 0.8936854 -1.6179258 1.2430044 -0.15968436 -0.5672557 -0.24282192 -0.38944602 -1.251927 0.53907794 -0.2543969 -1.3774155 -0.57885075 -0.86880046 -0.544333 -0.22473922 -0.21231203 -1.3798637 -0.47004986 0.30208874 -0.226994 0.07136102 0.13987267 -0.59539366 0.24376719 -0.16392726 1.3285041 0.34478223 -0.27638164 0.3895565 0.49752134 -0.8646754 1.1576818 0.07872966 0.10372773 -1.2991712 -0.7105922 0.5931824 1.1313455 -0.5780193 0.2625535 -1.2311212 -1.2048509 -1.0580474 0.058458894 -0.11414867 -0.76168025 -0.49776137 1.121078 -0.5587833 1.7951225 -1.0109465 0.8504421 0.11991652 -0.5502154 0.41035646 -1.4599948 1.547196 0.24106584 -1.2527721 -0.22681297 -1.1674455 1.2012283 -1.4154756 -0.78563106 0.056452245 -1.6132995 0.19525509 -0.629591 0.3585582 -1.353261 -0.32176828 -1.0890234 -0.31103042 0.5291383 -0.30175468 -0.44058588 1.5413827 -1.3218373 0.7067466 -1.6636862 -0.15178986 0.087091275 -1.2070397 0.60993457 0.6392801 1.2346537 -0.74622774 0.76673365 0.61646485 0.13899232 0.47019723 1.5646801 -0.9167332 -0.50439686 -1.7533563 -0.12934867 0.017551435 0.9827299 -0.1800536 -0.75179046 0.011730365 -0.41700703 -0.2799679 0.2912541 0.9754709 1.0475098 0.08303549 -0.29307106 0.20943692 -0.43140635
166 1.1972775 0.45169818 0.69196314 1.1258314 0.35092437 -0.12911539 0.6548591 -0.7135622 -1.2914109 -1.1960864 -0.7233155 -0.7500825 1.0952258 0.72898227 2.0325768 -1.7010264 -0.21624303 -1.2078972 0.41143656 -0.81476915 -1.5191268 -1.0485108 -0.32679734 -0.11532132 0.8256715 -0.18163717 -1.5068283 1.5023103 -0.9660487 0.9979061 0.5549718 -1.4163864 0.5826399 -0.31531575 -0.52808964 0.3542881 -0.44142675 0.16340804 -1.1691023 -0.31807584 -0.03105572 -1.9110355 0.33126697 0.36102027 -0.006709935 -0.46424133 0.09418351 -0.36816934 -1.2186724 0.16147879 -0.87249607 -0.71880525 0.47154784 1.8543162 -1.4996673 -0.13597496 0.05294321 -1.1207145 0.541624 0.12114886 -0.44539723 -0.01551753 1.0314885 -1.048673 -0.76996815 -0.2529826 -0.6804753 -0.59973127 -1.8908148 1.4388978 0.6614422 -0.5634451 0.703404 -0.45358908 0.9004624 0.89579564 -1.4313973 -0.15764354 1.6008285 1.113594 -0.59540725 0.64414907 0.32764086 0.4880522 -0.34623018 -0.20147754 0.6583695 -1.4674991 -0.27115783 -0.9414942 0.28412604 -0.8583428 -0.31533888 0.719611 -1.2827389 -0.283254 1.265818 -0.41234827 1.3693174 0.43310443 -0.3612446 1.0523217 1.033391 1.3306205 -0.037718054 -1.1422608 -0.32429355 0.24855855 0.06748759 2.9901319 -0.33213845 -0.23261623 -1.7624255 0.6042344 0.35213146 0.25873202 0.35804182 -0.0021929857 -1.9979376 -1.1798264 -0.9886166 -0.43425173 0.36049277 -1.5287125 0.3311183 -1.2131274 0.6447446 0.2301418
254 0.09893245 0.93711674 -0.3501452 -0.8359876 -0.30532774 0.28327608 -0.037818152 -0.71192664 -0.6138791 0.47339565 -0.3146764 -0.02043291 1.8371668 0.14205089 1.0299457 -0.45285577 0.5961169 -1.0538113 -0.04075152 0.2666756 -0.040611885 -0.016725464 -1.082699 1.1850584 0.544998 0.07393109 0.45898116 -0.001872683 0.46852952 -0.59409785 1.7172693 -0.30957046 -1.2500201 1.416185 -0.20441994 0.3248147 -0.21978228 -0.52893776 -0.058378417 -0.62731016 -1.4206125 -0.27165252 -0.65565985 1.2860607 0.5822193 0.14389674 -1.3359656 -0.2195205 -0.61950487 0.11247348 -0.9611381 -0.44826135 -1.302193 -0.86491936 0.22843842 -1.3665615 0.11626116 -0.16461268 -0.34648615 0.48242024 1.190108 -0.8247825 0.8262613 0.34506157 -0.006344595 0.9468545 0.32633454 -0.63832957 0.42440656 1.0825034 0.2361092 0.09058735 -0.27363902 1.1556432 -0.2737963 0.42317393 0.09185929 0.6922544 -1.2293795 -0.8526525 -1.9321016 -0.8483424 0.7040337 0.25787523 -1.766228 -0.41021276 0.5613031 -0.3429045 -0.43430695 0.3755274 1.9558995 0.5008719 -1.6113316 -0.48016363 -0.48628855 -1.5977511 -0.33932373 -0.943038 0.38291654 -0.051056556 -0.2680614 0.0536965 -1.3418747 1.4615638 0.34736976 0.8609824 -1.1124291 0.5701832 0.31162328 0.51662475 -0.17786482 0.15431009 0.6936808 -0.22657552 0.1229593 0.07446601 -0.6728121 1.5703081 -0.16185752 0.18149991 -0.20905519 -0.008716769 1.1539602 -0.28939793 0.98190653 -1.2032139 0.10818185 -0.3770916
408 0.72351205 0.14363366 -0.31723717 -1.3299056 0.6473315 0.6442431 0.6182253 -0.34656307 -0.011930094 -1.3008184 -1.5189488 0.8185931 1.4803501 -0.59211415 0.119301416 1.8642178 -0.5749197 -0.25801477 0.24947737 -0.5646143 1.0465912 -0.7335741 -1.6447082 0.4987363 1.017209 -0.14398423 0.2946513 -0.0766186 -1.7514882 0.350487 -0.7086246 0.9912478 1.491926 -1.2405697 -0.32283327 -0.271651 -0.11834443 -0.5745947 -0.33989877 -0.31800717 -0.6535499 -1.0081966 0.4255843 0.3447641 0.34840605 1.4305923 1.1946713 1.1384158 -0.5314425 0.17085364 -1.0847961 1.603901 -1.0852193 -1.1558002 0.26217657 1.3403445 -2.0590684 1.800012 -1.9358858 -1.3855025 0.37303293 0.49505788 0.45306084 -2.0356514 -1.1237727 1.141033 -1.2422738 0.67361003 0.5366646 0.16611885 1.2961502 -1.6587943 -0.04292322 0.11185257 0.69532615 0.90715533 -1.1129841 0.7275924 0.66202295 1.34809 -1.5813482 -0.39154828 -0.639756 -1.9004768 -1.1433059 -0.050619118 -0.9246896 -1.6399796 0.5417133 -0.46095803 -0.13706921 -0.58469933 0.90272343 0.1838815 -0.31941074 -0.9000636 1.1058933 -1.1967236 -1.4366257 0.372637 -1.1055678 1.0626452 0.26499578 0.9321198 -0.4532532 0.5404823 -0.048517898 0.46147114 0.3539128 2.49495 -1.116445 -0.14058194 -0.41623405 0.6180117 1.0198879 0.20020732 -0.81461185 0.27866316 0.5825283 -0.18559526 0.0424059 1.133387 1.1530861 0.50505817 -0.5394525 0.34017685 0.7295049 -0.17010683
52 -0.24557412 1.947338 -0.51757085 -0.84478265 0.5599794 -1.1181699 1.0224425 0.62170297 0.4315112 -0.1718493 -1.2091824 0.014113513 -0.03950395 -0.0688899 -1.533956 -0.14111316 -0.415783 1.2795345 0.19181877 -1.6105012 0.37130162 -0.036870405 0.44427273 -0.033836626 -0.49405926 -2.1754036 -1.3775221 0.29415217 -0.6453512 0.19699013 0.4901048 -0.49795428 1.526777 0.29174063 -1.1265677 -1.2468537 -0.51622975 -1.2153865 -1.1204853 -0.051028028 -0.40677908 -0.9466045 -0.891503 0.08669645 0.42085057 1.2320166 -0.8095926 -1.0957019 -1.7536077 0.037951946 -0.28695592 -0.81502736 -0.75243676 -0.9412215 0.045821052 -0.2773255 1.8994293 -1.2602899 0.19726089 -0.38128158 0.93691754 0.37797046 1.2531881 1.6124247 -1.3941703 1.0388651 0.93814546 -1.1985776 2.280329 -0.20791167 0.7194545 -0.0487217 -0.17305435 1.905305 0.18034804 1.1781769 1.2282307 -0.2923425 -0.018681338 0.29215407 -0.7332605 -0.06343558 0.9832646 -0.22839355 -0.26547456 -1.4202363 0.17828088 -2.129281 0.7707028 1.1176023 -1.0397556 0.8892897 -0.8871436 0.6716869 1.5747004 0.88933897 0.52629936 0.8370696 0.35144362 1.8989942 1.323615 -0.06779054 1.1859392 0.3212593 -0.7944982 -0.7256144 0.340157 0.8066892 -0.2021574 0.40255904 -0.09517778 0.38261566 1.2508779 0.18750736 0.27655894 1.422651 1.8915393 0.6832898 -0.694123 1.1528764 1.0712296 -0.39496 -1.1444005 -1.0727323 -0.08083277 0.55927426 -0.016195782 -0.23830934
27 -1.0770143 0.1276218 0.20145242 -0.5231443 -0.5913551 0.5892081 0.7291785 -0.33527112 -2.1561213 -1.1756635 -0.6145475 0.090158835 1.2200663 -0.31732515 -0.75430465 1.4649988 1.9418987 -0.7320236 -0.15829103 -0.6140945 -0.68892336 -2.1336749 -1.4384693 -1.2722547 1.0137523 -0.7136404 0.0066784597 -1.981787 0.70062846 -1.9692512 0.463639 -0.5649221 0.7868824 -0.6541179 -1.0124946 0.8704348 -1.0917423 0.6007822 -1.7868799 -0.85052234 -0.93041265 0.5135602 -0.46832368 0.52890277 0.27820617 -0.022324301 0.25327992 0.043314036 0.054122865 0.46884418 0.11677282 -0.6175443 -0.6546951 0.13661051 -0.9054378 0.40186992 0.00572874 -0.9420218 0.95035356 -2.3321273 0.01793864 0.71207446 0.30253902 -0.38469905 -0.9028523 -0.7053311 1.7304983 -2.1409724 0.31157678 0.8334382 -1.4078293 0.330165 -0.3417358 -0.1924918 -0.87049675 -0.5668161 0.23746532 0.46367633 -0.38555792 -0.1276078 -1.4559363 0.5530339 1.4921154 1.3239764 0.14754772 -0.66131294 2.544589 0.95188 -0.45682785 -0.71392405 -0.6358924 -0.4800296 0.6841827 -0.1647191 -0.5514468 -0.08809762 1.3973864 0.458119 -0.29523245 0.13370405 0.77526146 0.19782676 -0.28445876 -0.08924658 0.6601942 -1.4731674 0.41343397 0.26512346 -0.6712067 1.0397887 -1.796973 -0.71670204 -0.01533198 2.1385 1.5715927 -0.3789284 -0.04799012 0.6131811 -1.1580278 0.9658855 0.9025213 1.0611553 0.44071198 1.2725517 -2.6567168 1.5764099 -1.0319337 0.03967167
70 -0.24100731 0.6561915 -1.0068572 -0.8666458 -0.042391922 1.6316549 1.1917528 -1.3657936 -2.6891398 0.08342583 1.2640187 0.46148765 -1.6929682 0.32111865 0.3270798 1.0280033 -1.1106502 0.8487535 1.2483783 -1.4000105 -0.34016117 0.64440805 -1.7490932 0.87725 -0.92267793 -2.311856 -1.6687751 -0.9208177 -1.3152524 -0.41155106 -0.06729848 -0.50643784 1.043074 0.26355556 -2.2093236 -0.7359743 0.6308582 -0.4487125 -1.1493961 -1.2390022 -0.94924855 1.3031834 -0.54178345 0.13407846 -0.32111424 -0.031169366 0.31965116 -0.8635234 -0.9327392 0.1887475 -0.1302079 -1.6690708 -1.7092752 -0.110686846 -2.1925144 -1.2642738 -1.0179256 1.0221801 2.3594244 -1.817631 0.29479358 -0.25458157 0.26219577 0.30269074 -1.0874194 0.014969526 -1.0491586 -2.1552134 0.15567347 0.8094085 0.95818835 1.4186089 -0.48117155 1.1866102 -0.7163794 1.0624971 1.4340594 0.05551992 -0.6169315 1.0930321 0.48345286 -0.8171989 -0.14213994 0.13848308 0.24058521 -0.90819335 -0.45611852 1.0203336 -0.70925796 -0.28556588 0.9807652 -0.20717886 1.6302817 -0.47805956 0.32122493 -0.22495002 1.6258147 -1.2704113 0.4922549 0.07752821 -0.49200547 1.4883074 0.39816996 0.14244223 0.0242233 1.327817 1.0642284 1.5365328 1.5636479 0.41860947 1.6097611 -1.0560101 0.22990833 -0.6713777 0.12942529 -1.1803268 -0.08870545 -0.45753163 -0.8458735 -0.6438565 1.7922965 -0.4548051 0.05418312 -0.95729727 0.44600466 -0.7778887 0.4842508 -0.2617144
63 -0.9808033 1.5938259 0.07606056 0.08176373 0.5006587 0.5064644 0.35991058 -1.120168 -0.71918416 -0.5961211 0.55606097 -0.6553079 -0.37829676 0.9029682 -1.2330317 -0.5810906 -1.1872865 1.1078254 0.84786296 0.81382287 -0.91961956 -1.1850741 -1.7014799 -0.7056317 0.98307997 -0.9829224 0.9154513 0.33214557 -0.039168406 0.91762555 0.43730587 -1.0128683 0.9404248 1.2040381 -0.06411453 0.49530378 -1.5472331 1.21561 -0.87943 2.4787836 -0.99377996 -0.97314173 -0.47361395 0.656821 -0.38188875 0.08583023 0.45014036 -0.059453547 0.2350878 1.1198827 -0.015701612 0.1766273 0.46513757 0.36660898 -1.0104294 0.26674885 -0.005786534 0.797359 0.22439598 -0.62267387 -0.26150268 1.3262258 -0.26945212 1.0153301 -0.23854338 -0.35613963 -0.91954833 -2.272607 -1.102655 0.00986127 1.6599667 -0.5278125 -1.5333755 0.12332044 0.1486506 -0.19620581 -0.07924148 0.18716273 -0.4627976 -0.54164314 -3.3528464 -0.11401528 0.28234088 0.15214705 -0.007842083 -0.9041817 0.2788684 -1.7207276 -0.84766227 -0.7173475 0.9386764 -0.44015807 0.23246159 -0.20010024 -0.3371297 0.01431239 0.9472281 0.4962045 -0.9280177 0.076996714 -0.16891038 1.0033425 1.3323303 -0.6422647 -0.6105298 0.9825567 -1.1212368 0.8044575 1.3721476 1.6173018 -1.3658907 -0.2592909 0.43767264 -0.37459946 0.30362645 -1.242277 0.16645664 -0.00043806277 -0.20069842 1.186753 -1.2081856 -1.1038443 1.6001964 0.11713379 -1.6173086 -0.46241903 1.4817203 1.8010025
160 1.6829326 0.50418156 1.0555929 0.45784828 -0.9729087 -0.22081923 0.67116547 -0.9685693 -0.7802971 -1.6770394 -0.4532805 -1.641103 0.6299483 0.37023833 1.5722747 -1.6885157 -0.46747822 -1.4505199 1.4467673 -1.2214081 -1.867187 -1.2870135 -0.733792 -0.93040746 1.1258409 -0.69337577 -0.049712695 0.7317525 -1.7693 -0.6353277 0.1005357 -1.7072065 0.45564854 0.3088512 -0.4602944 0.70069736 -0.60500145 -0.031979986 -1.4885138 0.6219277 -0.3584837 -1.9161353 0.06864401 1.0177526 0.3736147 0.013196932 0.5225526 -1.7159774 -1.1711785 1.1149203 0.096188 -0.8788892 0.29610413 2.240083 -1.0823083 -0.730529 -1.1017983 -0.6303453 0.37828743 -0.0109869195 0.5718998 -0.14962119 1.5206627 -1.1637907 -1.2318366 0.38683277 -1.5722526 0.32006428 -1.2911769 1.3607596 0.9070013 -0.12144215 1.0260388 0.5174323 1.1548852 0.40215942 0.13695462 -0.5429707 1.687589 0.14351887 -0.82150793 -0.33386442 -0.06322506 0.37105513 -1.156439 -0.532049 1.2328653 -0.9290526 -1.3260143 -0.59324086 0.97203356 -0.5961053 0.8213056 0.054487523 -1.1281719 -1.4014736 2.007064 0.23122713 1.2354779 0.1330792 -0.485726 1.2363969 0.79190916 0.90466815 0.0360102 -0.5170884 -0.16019998 0.3461681 0.29158607 2.5119205 -0.7241104 0.2205678 -1.370382 0.74271446 -0.21938133 -0.34248924 -0.85746294 0.023296978 -1.5638124 -1.0888507 -0.011927202 -0.6946735 0.8582326 -1.3502775 -0.0680141 -0.52622163 0.79537684 0.24825072
186 0.18437602 0.35245502 -0.04300871 -1.0330948 0.14802977 1.6551007 -0.08416115 -0.7348412 -1.0444125 -0.4859679 -1.4193417 1.6016303 0.33053356 0.13947967 0.37970558 1.013411 -0.33737206 0.4301773 -0.0041423785 -0.70310926 1.8090876 0.21308318 -0.32020432 -0.98889065 -0.16851652 0.98150396 -0.15798229 -0.38870195 -1.7414656 0.4569517 -0.51832426 0.4471261 -0.33960742 -1.0264795 -1.648892 -0.88455904 0.19645074 0.41136464 0.48905692 0.6794573 -0.45818025 0.033350356 0.43611106 -1.0063025 0.7020933 -0.044482615 0.40160537 0.88117474 1.3966161 0.65946627 -0.15473723 0.75041837 -1.0744365 -1.2979608 0.448782 1.5042875 -0.54015267 0.9192308 -1.6477317 -0.1455406 -0.45559287 1.1129292 1.0495795 -0.34565106 -0.61875194 1.6757921 -0.6221235 1.2559797 -0.443803 0.033043765 0.5256752 0.09198196 0.40140635 -0.7014611 1.6242836 -0.038180474 -0.47222856 0.048805375 -0.66009265 0.5768508 -0.59630287 0.598165 -1.2051994 -1.2165099 -0.5532499 0.3273401 -0.6395513 -1.6394485 0.02955646 -0.57285684 -0.04394605 0.3515008 -0.2287406 -0.87296516 0.32067 -0.9919425 0.8097282 -0.1385485 -0.42197302 -0.75159967 0.67231613 1.6710534 -0.31027123 -0.33114743 0.07532851 0.37460363 0.3030631 0.46973595 -0.079772905 1.9556046 0.54264116 0.24234477 0.2151326 -0.05951176 0.12239705 0.68659854 0.111357905 -0.7949458 0.10572479 0.19516166 -0.22855681 0.12590015 0.19896978 1.2808402 -0.42708695 -0.68816847 0.8987372 0.7812155
244 0.075969875 0.04564766 0.21798927 -1.0515587 1.4572252 1.5989189 0.36556736 -0.5959543 -1.5228034 0.59252346 -1.2063441 1.9388468 -0.11615579 1.4946012 0.4830377 0.36241916 -0.0037785782 -0.1888821 1.0632511 -0.3035828 1.3313817 0.46698081 -0.7323741 -1.569178 -0.38327155 0.4462782 -0.66086674 -2.1124291 -1.6244954 0.5473966 -0.3446089 1.0695477 -0.29006758 -0.1697114 -2.5010064 0.12550779 -0.48489958 0.49621707 0.5766666 1.2726909 -0.5589527 -0.020863703 -0.23131491 -1.0293854 0.80725396 -0.28930494 -0.06310387 1.4815379 1.8635162 0.15208614 -0.506618 -0.2527325 -1.0610459 -1.2236384 0.24569847 0.8375245 -0.074215785 1.050408 -0.87501365 -0.29850668 0.65959966 1.729622 1.993595 0.27549988 -0.7817593 1.011886 0.09854956 0.9934133 -1.2233667 -0.0844032 0.8015057 -0.1682268 0.838351 -0.28435722 1.5066545 0.09764785 -0.28530028 -0.47276327 -1.017236 0.3662155 -1.2807609 1.1401789 -1.2574037 -1.4024405 -0.7920051 -0.62097913 -1.1258036 -1.4465917 -0.5512633 -0.2605644 -0.89579034 0.32983768 1.0359674 -1.1652241 0.58552593 -0.7334127 2.0678701 0.13850354 -0.4482416 -1.9318644 0.44141528 1.4661682 -0.40135556 1.2141067 -0.09721835 0.86724097 -0.60151565 1.2785679 -0.54530895 2.9608843 0.80635846 -0.057352398 0.09784573 0.36258492 0.17783962 -0.2760064 0.79328936 0.355197 -1.0693556 0.04209553 0.27281973 -0.4480145 -0.057015643 -0.010611355 0.07278564 -0.4356315 0.46931407 1.4005517
33 0.33546832 1.2312075 1.6532261 -2.1031125 -0.4575398 0.5585234 1.853815 0.16180976 -0.43489382 -1.4243673 0.013879816 -0.4585 -1.4656084 0.5310971 -2.2032554 0.2033247 -0.5393721 1.5175953 -0.52952945 -1.3934516 -0.48915017 -0.17963473 1.1690516 0.07268922 0.69711363 -1.6544579 1.0855522 -0.27984244 -1.494385 1.8269097 1.0590018 0.08952009 0.98065567 0.28056577 -1.9809068 -0.3483005 0.45260257 -1.2641183 -1.1412927 -0.8029876 -0.27736372 -0.71364707 0.06601498 -0.81625277 0.42194784 0.7112492 -0.42373464 0.81830835 -1.0069759 0.5464655 -0.80699384 -0.4799381 -0.73626834 -2.1778524 -0.0915467 0.7142685 1.5434479 -0.7175623 -0.6459039 0.1897491 -0.1761254 0.42230254 -0.09039579 -0.14429146 -0.8687582 0.86682224 0.37544477 -1.0422716 1.90921 -1.2973951 -0.10851592 -1.8135703 0.09866062 -0.54577833 -0.4056372 0.6715536 1.5090656 -1.840635 0.5180895 -0.07415902 -0.5832624 0.8361852 0.98327494 -0.97446847 -0.36340198 -2.0197337 0.78205943 -3.0346909 1.3161858 -0.55524546 -0.70719266 0.061989363 -0.23019344 0.23803155 0.88673085 1.1614796 0.47762734 0.81868964 0.49275172 1.3371011 -0.17958048 -0.9447598 1.5415952 -0.6535528 0.1672102 -0.8926495 0.3302401 -0.87621427 0.8448578 1.6857929 -0.89448595 -0.51431096 0.1704932 0.94328654 -0.60386837 0.7693487 1.5921516 1.5653864 -1.4680876 0.562763 0.511733 -0.32429463 -1.9332713 0.30411494 -0.91557777 -0.4395727 1.1920052 -0.5476004
360 -1.3308727 -0.14429082 -0.059213426 -0.6016746 0.30875042 0.18066765 1.2077852 -0.4336433 -0.5013707 1.056919 -0.10476233 -0.7131739 0.020104274 -0.5508655 -0.12309552 -0.29758155 -0.06343554 0.542388 0.84382343 -0.23930621 0.3651601 -0.9938966 0.16553536 0.45242918 0.57726854 -1.5583539 -0.22201583 -0.9800564 -0.5616485 1.1813735 -0.6925814 0.47604793 0.98314285 0.5367542 -0.17273231 -1.1372749 -0.383594 1.143931 -1.5722035 0.44638386 -1.2968369 -2.0440414 -0.5471241 -0.70465136 2.1177034 -0.3311702 1.5589764 1.7354645 -1.8890948 1.0263606 -0.6166063 -0.38469952 0.38408336 0.3290542 0.122228555 0.2191376 -1.1497164 -0.017052334 0.48760074 0.47309542 -0.3191423 0.28220847 -1.2357166 0.80167615 -0.33032912 0.4411651 -0.1584016 -0.26076585 1.4418914 0.5627342 -0.9236528 -0.2927717 -0.5639221 0.43868157 -1.1585746 1.1124249 1.3859719 -0.6743968 -0.33460128 0.09846505 -1.5563747 -1.0961696 1.227892 -0.7943919 0.0078755 -0.8247359 -0.30943152 -1.5724739 1.1824028 0.40194154 -1.0466983 1.7117088 -0.76131636 -0.32892093 0.71403056 -2.125699 0.834412 0.45820197 0.56064063 0.5850702 -0.90181017 0.07824962 0.60788333 2.129771 0.3951353 0.31072327 -0.27788004 1.4821569 0.4364853 0.95241 -1.0757631 -0.7684942 -0.46098572 1.1866217 -0.39698565 1.3606403 2.7282767 -0.87611 -1.446981 0.75650185 -0.15641865 0.57955235 0.7984802 -0.036629874 -1.2347122 0.70604235 0.08178724 1.7741766
201 1.0334333 0.39358565 -0.3899772 -1.3193077 -0.49949595 -0.69685495 1.2072906 -1.4771203 -0.83159614 -0.19989456 0.8622827 -0.76380557 -1.2770504 -0.4638895 -0.584176 -1.2383938 -0.06574688 0.1987869 0.066114135 0.29944456 -1.2251556 -2.522319 -2.5083544 0.120232426 0.25017887 -1.0004139 0.6278127 -0.25147626 -1.0195597 -1.3876549 0.31360358 -0.773044 0.19825827 0.30971736 -1.918515 1.3506613 0.6850529 0.5213804 -0.652716 0.08487668 -1.5436513 0.28792495 -2.1752644 0.40739068 2.322103 0.41238576 -0.52261406 0.22264479 -0.19431575 0.83712566 -0.6990552 0.020208629 1.1828251 0.25115833 -1.4381253 -1.0332754 1.458614 0.31940794 1.1162298 -1.1120988 0.4570805 1.101211 -0.24481304 0.4522766 0.010582291 -0.65785146 1.1970786 -0.8077938 -0.64492065 -0.11141144 -1.5389198 -1.698404 -0.74110657 -0.2052655 -0.7397846 0.44188574 -0.7670843 -0.40969482 0.4729473 0.31011158 -0.028079612 -0.9226467 1.1619499 0.23427354 -0.91787875 0.45128477 0.31828302 0.050347593 -1.3478521 -1.1510174 -0.77754074 0.06706141 0.3325518 -1.4917883 -0.88066906 0.17215888 1.4079663 0.40916002 0.021452945 0.5535398 -0.8549681 1.1568207 -0.5731996 1.0788524 0.3677911 -1.5972795 -0.05819088 0.08908461 -0.63347065 1.6534481 0.07295703 -1.0621892 -0.6873633 0.73745555 0.2666001 0.4925806 0.31134525 2.268231 -0.26958236 -0.68092394 0.14893469 0.42832848 0.33555576 2.0513854 -1.3281705 1.2818123 -0.7827969 0.45956424
151 -0.9813941 1.4969766 0.24016236 -1.5616018 1.5124576 1.0249096 2.2620175 0.3121865 -2.0110867 -1.146061 1.2978227 -0.1403798 1.301617 0.9158483 1.1148908 0.97485757 0.1651219 0.07253702 1.594804 -0.00059888535 -1.2374358 -0.67508835 -0.98061067 -0.5718585 0.34121165 -1.2001662 -0.337231 -2.079897 0.9254342 0.110312924 -1.5315151 0.5920579 0.85746014 -1.2748855 -0.24136052 -0.16006674 1.3409619 -0.31498834 0.046685547 -0.34104845 1.2037821 0.10163671 -0.88300425 1.2581491 0.38267538 0.39210233 -0.4545899 -0.29117402 0.02697886 0.04397188 -0.67653435 0.9229027 0.9506695 0.057854086 0.19564798 -0.9270898 0.57980084 0.39798743 -0.07009495 0.2261668 0.56490713 -0.009794504 -0.91714716 -0.744677 0.17457974 0.97273 -0.560476 -0.4911889 0.51272047 0.7529076 1.5671555 -0.684322 -0.47069213 -0.48231277 -1.6574353 -0.15091161 -0.252933 -0.60281926 1.4428487 -0.23155265 -0.52403307 0.8208064 -0.52792823 0.5338836 1.0346954 -2.0191088 -0.54103625 -1.41011 -1.143274 0.5394492 -1.2223694 -0.26843753 0.17372023 -1.2966248 -0.26784188 -1.3199375 0.6156073 0.43418163 0.7516506 1.0783993 -1.5015134 0.016794136 -0.2653538 1.3011458 0.8785016 -0.30813327 0.68185776 -0.0013987455 -1.2448963 2.4799905 -1.1110218 0.6043321 0.7775222 -0.52321583 0.46877107 0.50825965 1.6141347 1.8847523 -0.85649484 1.332547 -0.89091575 -1.6196955 -0.1360298 -0.1632753 0.23346289 0.35562629 -1.6797594 0.9300127
81 0.68340755 0.50455374 -1.9430603 -2.3856182 1.5515196 1.6411113 1.0909462 -0.3245008 -1.2716637 -0.23972483 0.5187266 1.2266107 1.3449316 0.25896734 0.61283576 0.9715937 -1.0430181 -0.5031024 0.782788 -0.7072848 0.020235306 -0.010322706 -1.7509674 0.27184585 0.528772 -1.2983086 -1.6786631 0.13039578 -1.4640156 -1.2061532 -0.6343462 -0.7981879 0.6988311 0.22724405 -0.30734137 0.6096484 1.449476 -1.404433 0.64489734 -0.19613709 0.0011397159 0.38017693 -1.2638973 1.6672226 -0.19877332 -0.39922157 -0.54891425 0.025627712 -1.1198645 -0.47067624 -0.718052 -1.5893252 -0.6241123 0.20278573 -2.3209558 -1.2033023 -0.6395536 2.1096294 1.3007795 -1.8346144 -0.011691312 0.9161417 0.6627422 1.2719119 -0.8686941 0.70056665 -1.32181 -1.9456562 -0.6695211 0.7906309 -0.028963272 0.8099113 -0.8602245 1.1281046 -0.93055254 1.0541903 -0.64319324 0.99104804 -0.48591328 0.35803798 1.3627956 -1.0084547 0.4883423 0.62504405 0.17989077 -0.97808814 0.5315492 0.18948889 -1.0106214 -0.42836794 0.55088025 -0.7531553 1.0405115 -0.7211482 0.33537814 -1.1914424 0.15577935 -1.551572 -0.026843177 0.7536385 -0.40437326 -0.2966597 -0.64114386 -0.059247367 -0.7930795 1.0538454 0.63398224 0.52903897 1.3615292 0.4450318 0.92195255 -0.72696716 -0.7064412 0.075897984 0.21697156 -0.5169577 1.2816571 1.0139174 -1.0924172 0.7552854 0.569202 -0.6010825 0.076182894 0.07546028 -0.088014595 -0.7164453 1.0638382 1.4744147
155 -0.27465183 0.34104818 0.96095073 -0.30948862 0.55784446 0.95424825 0.16720511 0.16500951 -2.9598641 -1.583139 0.8485879 0.77584773 -0.6569314 0.92272496 1.6259379 -1.618239 0.027189175 0.29463866 -1.0451556 -1.2965733 -0.08113725 -0.44152078 -0.44951677 -0.8173128 0.1520021 -1.9266701 0.1838389 -2.1699407 0.8505061 1.1281865 0.90652895 -1.5520173 1.0546288 -1.3372813 -1.2748299 0.04811553 0.80945814 -0.7874963 0.5304412 -0.23769237 -0.84168285 0.37422237 -2.7663283 0.10714593 -0.26287395 -0.25978646 -0.06870022 0.30986807 0.7032502 0.97372115 -0.5151456 -0.5835512 -0.8040434 0.09983733 1.0129826 -0.48568812 0.43381277 0.6982163 1.305283 -1.1775006 -0.45989484 -1.977298 -0.81473446 0.9666226 0.2767385 2.06817 -0.593134 -0.29851866 1.3336978 1.3421214 -0.52936214 -0.25157842 -1.0429932 0.39031518 0.42028767 0.17564814 0.5880295 -0.8901706 0.07260641 1.7198044 -2.076865 -1.1585277 -0.9985133 1.7086803 -0.11129978 -1.4912719 -0.685111 -0.5242608 0.05128257 0.47981238 -0.90486276 0.17857026 0.18580785 -0.26636392 0.9621229 0.32775053 1.016264 0.15533613 -0.613887 1.9938219 0.20094596 -0.6839343 0.4235161 2.0210044 0.052849755 0.5424825 1.2030246 -0.06257834 0.49438494 0.7927333 -0.8706414 -0.20423777 0.67990535 0.060477275 2.530588 -0.16148506 1.1510415 -0.9839305 1.1240602 0.23548102 1.0973759 -0.9671161 0.18369499 0.13101967 -0.78550786 -0.83697546 -0.8572889 1.4281158
116 0.084865145 1.2868255 1.4341942 -0.5396259 -0.058917176 1.2366586 0.7078209 0.9047912 -0.6061322 -0.30102673 0.7902027 0.5023113 0.6301119 0.22907898 1.0712491 1.0391793 -0.53695834 -1.6756388 -0.022574443 -0.90372187 0.3409316 -0.5712557 0.67195296 0.3271849 0.7527433 -0.95744693 -0.43877593 0.102146946 0.73396266 -0.3705183 -0.11628334 -0.4066023 0.4300553 -0.9769961 0.19488846 0.03706148 -0.00336897 -1.1902462 -0.19178723 0.5463737 -0.21114083 0.63181317 -0.11212632 -0.67085266 0.2226597 -1.8343287 0.12940495 1.1938872 -1.6844944 0.61751646 0.8507125 0.16682328 0.9539533 1.3240677 -0.3019464 -0.18177204 1.7468164 0.21180855 0.8738687 -2.1294317 0.31890798 0.08864267 0.7804173 0.7903942 -1.6227399 -0.6107595 -0.18812744 -0.5828851 -0.7839283 0.64102155 0.60740143 0.2959594 -0.17650819 0.079142876 -0.84101784 0.19572805 0.767979 0.24460715 0.44960994 2.0560317 -1.0291741 -0.23553908 1.2380326 0.7471064 0.70620084 1.2202798 1.304517 -1.4845166 0.4062643 1.2808282 -1.6859101 -1.1044782 1.3150882 0.04436934 0.7736434 0.1451135 1.4533027 0.5390313 -0.111422524 0.27799827 0.6608789 0.20450896 1.4968092 -0.09836331 -1.0080825 2.1825285 -1.2863873 -0.25097367 0.27464765 2.0661006 -1.3424252 -0.04391134 -0.37738243 0.83100206 -0.14939849 0.04558918 0.10380269 -0.46828833 -0.14749452 -0.3809397 -0.2909712 -1.5234874 0.8516765 0.25143313 -0.66028893 -0.46949208 -0.20217417 1.904898
85 0.7241078 -0.5287326 0.4712108 1.2284464 -0.1375932 1.4873332 0.11575647 -0.61967015 -1.304363 0.6472497 -0.5896807 1.5687225 1.9196507 -0.014586337 -0.08470171 -1.6421621 0.65973693 0.35318655 0.2885971 -0.8531724 -1.002364 0.37817773 0.073479556 -1.5970768 -0.5755057 -0.3861274 0.2646144 0.61566323 -0.17429361 0.1668923 0.05997653 -1.023503 -0.5831303 0.4884033 -0.64771175 0.03797782 -0.37762088 -0.8025394 0.46076322 0.11250371 -0.45779163 2.2890804 -2.281945 -1.5585549 1.574091 -0.03798976 -0.1745601 -0.011383207 -1.2892275 0.13670944 -1.7444365 0.24102886 -0.40140602 0.59871274 -0.66316205 -1.9836341 0.7085061 -1.0220139 0.4168423 -1.1271327 -1.0018758 -1.9336734 -0.2681268 1.0191451 -2.1128674 0.52043605 0.7003586 -0.55873406 0.7817415 0.648954 0.33800152 1.421256 2.5632813 0.83996767 -0.88716274 2.1336763 1.5826819 0.4514911 -0.431895 0.04938469 -0.36143607 -0.32521436 -0.6912997 -0.5378933 -0.06907608 0.8972106 0.45576835 0.10155454 -0.7975481 0.9014776 0.4921179 -1.1318121 0.902965 0.4564894 -0.2596375 4.9644535e-05 0.49908605 -0.02457872 0.5859612 -0.020483918 -1.2388823 0.5933361 0.34592766 1.7118483 -0.679284 1.5537001 1.3213209 0.44150075 -1.9182376 0.6896456 -0.5544278 1.147679 0.40262908 0.62834847 0.19055127 -1.5137813 -0.48985755 1.7268646 0.8936804 -0.2143516 0.06754662 -0.17641588 -0.962902 0.22944985 -1.288434 1.3694235 0.5533479 1.1574695
468 -0.05758247 0.91969705 0.26691547 -1.234785 0.06925838 -0.9486506 1.1390867 0.3991991 0.9683571 -0.1385078 -0.61055195 -0.82644516 -0.9078257 0.63008624 -1.4957361 0.2397649 0.027001422 1.2745204 -0.5798088 -0.9737683 0.1548188 0.42089596 1.4114598 0.23534477 0.27209058 -1.4839324 -0.2190972 -0.10554111 -0.6794549 1.1580386 0.83435345 0.102384776 1.3810167 -0.102533236 -0.61009175 -0.585121 -0.22262436 -0.60288423 -0.5222243 -0.5261052 -0.74983 -0.3817412 0.09653893 -0.5040295 0.4662544 0.68976134 -0.70098406 -0.3127387 -1.540698 -0.2931356 -0.20503572 -0.75312793 -0.33715555 -1.0871754 0.5261829 0.08136354 0.738829 -0.1084822 -0.119896874 0.45326042 0.46430555 0.4726555 0.016940948 0.48881325 -0.56164885 0.3901811 0.9116972 -0.8744669 1.8750767 -0.6910863 -0.55769986 -0.44615504 -0.34204856 0.9554228 -0.5283927 0.77744865 1.5876492 -0.5920121 0.11025059 0.26159862 0.038485207 0.3378273 0.7600204 -0.1608792 -0.12991415 -1.003767 0.6520705 -1.6102756 1.2663844 0.64704674 -0.44866064 0.504257 -0.35832605 0.12432263 0.81549734 1.1140555 -0.022349622 0.8989476 0.3885791 1.5017408 0.79875255 -0.614589 0.70861864 -0.48972628 -0.08833823 -0.84774566 -0.29539567 0.27136973 0.6275551 0.05242753 0.24408785 0.16439533 0.31468695 -0.1145394 -0.4390351 1.4090152 0.87079495 0.54002446 -0.5420805 0.88278 0.8878838 -0.4008455 -1.3279841 -0.5818948 -0.13664167 0.29123673 0.4466682 -0.6186979
125 -0.5575985 0.58200717 1.1178368 -0.22166939 -1.2535625 1.8399671 1.4388827 0.42678976 -1.5132848 -1.0774453 -1.461012 1.4556417 0.6505855 -1.1601422 0.86323005 1.2305146 0.38171518 1.0473517 -0.8742608 -0.5790589 1.2289567 -0.3886249 -0.43524665 -1.3407114 0.5203567 -0.21854661 -0.70587355 -0.051053077 -1.4902682 -0.19052719 0.25022793 -0.37659606 0.21044376 -1.2860546 -1.5407382 -0.48657694 0.87877524 0.33431312 -0.3001906 1.924031 0.24443898 0.5772178 0.9364018 -1.0675058 1.7393242 -0.44262838 0.61231035 1.1188885 1.0832388 0.8202455 -0.5587613 -0.017601259 -1.3583463 -2.0374577 -0.4154473 0.63373554 -0.08624952 0.4954131 -1.1528867 -0.92186916 -0.7222754 1.4193248 1.2967969 0.15812823 -1.2703305 1.4320765 -1.7521363 -0.8482337 -0.05175326 0.027081205 -0.04001783 0.66979367 0.7406025 -0.12821777 0.9815627 -0.14617427 1.0238496 -0.17117779 -0.22644334 0.13020249 -1.0906782 1.4079849 -0.68327826 -1.4468619 -0.62994957 0.65557384 -0.18708037 -1.9574137 0.47955602 -0.08078413 1.1060069 0.69329536 -1.3137796 -1.4123127 -1.0394889 -1.0226096 1.564055 1.2190454 0.29525867 -0.5507036 1.4370018 1.7363135 -0.33605304 -1.1309717 0.5900215 1.0450277 0.35728616 0.16292539 -0.06906318 2.3681316 -0.06034439 0.3961374 0.691638 -0.68426067 -0.2337134 1.1300933 0.6251294 -1.1193244 0.1978153 0.25944313 -1.2654974 0.038405433 -0.19457585 0.49651286 -1.582956 -0.34106892 1.3354228 1.6895902
466 0.35825402 0.0744922 -0.28811106 -1.0117618 0.49478135 0.900118 0.24976584 -0.421453 -0.1953631 -0.90410566 -1.6231375 0.7301572 0.2514143 -0.275343 -0.014434355 1.3617964 -0.32878795 0.44141993 0.08297787 -0.80375755 1.7405578 -0.08888032 -0.4457207 -0.244374 0.27372783 0.45275453 0.44824404 -0.26987475 -1.5850933 -0.1969712 -0.41015333 0.23433746 -0.16285445 -0.74775475 -0.7057526 -0.4184264 0.0943925 0.16569223 0.10327328 0.1450364 -0.5187962 0.036534376 0.28579122 0.008552776 0.058728196 0.24344395 0.59865344 0.93157697 0.27246255 0.4111476 -0.13527513 1.037638 -0.74026656 -0.7355809 0.45253807 1.5858995 -1.0838733 1.0916088 -1.579522 -0.6413617 -0.22387922 0.48569494 0.42253357 -1.2800349 -0.74611664 0.89594126 -0.83807594 1.3265133 -0.15506124 0.18761456 0.7693438 -0.60385734 0.47854295 -0.9818407 1.2634856 0.25427637 -1.068417 0.074658036 -0.32834378 0.9830702 -0.6656055 -0.20096207 -0.83463067 -1.5225263 -0.081194505 -0.10361447 -0.41092736 -0.9969074 0.3330638 -0.61023515 -0.41770244 0.05777454 -0.42448118 -0.41903514 0.39869642 -0.92241645 0.5009503 -0.75063026 -0.5633196 -0.15372448 -0.5184642 0.5687774 -0.021798369 0.22084913 -0.50297225 0.6265555 0.22172557 -0.2810061 0.26292577 1.1924368 -0.25800782 -0.1752348 -0.38145283 0.12250065 0.005575004 0.8328578 -0.28987917 -0.78914183 0.62378746 -0.18972705 -0.24609578 0.3207118 0.698621 1.3485161 -0.23067556 -0.32317892 0.6909535 -0.39553103
94 -0.5267767 -0.14256732 2.1084096 1.1272784 -0.9589169 0.09558319 0.42487028 -0.4908926 -1.9921763 -0.5227574 -0.14817002 1.4600997 -0.4969406 -0.27448025 0.21142831 0.089010976 0.00809621 -0.013046136 0.33834523 -0.93809295 -1.0093622 -0.71804345 -0.62610704 -2.5167549 -0.4368187 -0.8114843 -0.61508924 -0.2004146 -0.6775983 -0.36090648 -0.66203463 -1.7196958 -0.50636697 0.97106385 0.23808645 -0.36975423 0.9810636 1.0156364 0.18129167 0.64611983 -0.6556605 1.6104167 -1.8062181 0.5577592 1.9650193 -0.9854627 0.8443339 1.4096556 -1.295841 1.4838433 -1.0509374 -0.41350976 0.6021558 -0.48271212 0.45681298 -0.74591887 -0.7014222 -0.7664272 -0.30359125 -1.0081276 -1.475355 -0.5370475 -1.9600393 0.35469297 -1.2425538 -0.09412356 -0.053633988 0.5625224 0.80937654 0.49908978 0.8396228 1.1500092 1.9924946 0.5002127 -1.9711194 0.54028684 0.058168184 -0.4468458 -0.120849706 0.78225344 -0.8014627 0.89786184 -0.51726925 -0.8769706 0.043675646 0.29666933 -0.4677402 0.23749089 0.23208125 -0.080603816 0.28766832 -0.47445095 1.4943676 0.5861514 1.0823781 -0.020641318 -0.36102086 -0.16558224 -0.56779236 -1.3509651 -0.57521874 0.42841408 0.59238696 1.2276397 -0.27305505 1.4673475 -0.0011327297 -0.011331073 -1.6421599 0.8177228 -1.5460576 0.05567341 -0.40001887 0.47740552 1.3837038 -1.5232482 -0.7767673 1.4488466 0.9158092 -0.45478556 -0.82134485 0.7659632 0.2814012 -1.3531804 -1.4420177 1.2725588 0.31526947 0.93293613
400 0.101429544 1.4707061 -0.64922535 -0.34739742 -0.13038482 0.49218088 -0.16334099 -1.010125 -1.7759932 -0.24706157 0.8334791 1.3152831 0.9739291 0.1268178 0.5067586 0.20444041 -1.3123304 0.6102366 -1.1724278 -1.5828019 1.1323433 -0.14332972 0.51176405 -0.11560291 0.091614634 0.26072305 -0.47237554 0.5515368 -0.86044353 -0.07719429 -1.4093628 0.6030572 -0.0057416838 -0.15536644 -1.2455692 -0.7978737 -1.018637 0.31354964 -0.45263976 1.1339368 -0.7735803 0.16836259 -1.2106909 -1.7001772 0.73198086 0.42625698 -0.3898779 0.23732986 0.6492733 0.3152597 -0.39421362 0.17789748 -0.74484044 -0.08209027 -0.994898 -0.20340513 0.4458246 0.6765994 -0.59822637 -0.9536484 -0.4102256 0.30391356 -0.50098675 -0.43902636 -1.0283486 1.7704889 0.4154141 0.2473271 0.5062847 0.814749 1.2175183 -0.0032770038 -0.6775127 -1.356309 0.8779829 0.80867547 -0.3413335 0.37150314 0.47471452 0.5704461 0.7693236 -0.44875294 -0.12848768 -0.07683714 -0.20495829 1.0210438 0.3535871 -2.0563655 -0.17302209 0.5009215 0.16080007 -0.49898264 0.01596597 0.3823633 0.21184053 -1.0108494 0.25230673 0.6367046 0.56875587 0.25482506 0.42599192 1.6229328 -0.5603837 -0.6666581 -0.20021947 0.12240176 0.40616298 1.0774146 -0.5102036 1.2601132 0.6389263 0.3946459 0.10511744 0.6542672 0.4064663 0.6461543 0.9992798 -0.45421916 -0.5525271 0.8350162 0.37785465 -0.22959155 0.30837756 2.1414244 -0.36646193 -1.279169 -0.03707753 2.1732926
8 0.8224381 1.8161943 -0.033436246 -1.085239 -0.44613877 0.2526594 1.3373426 -0.26236972 -0.5728292 0.33529764 -0.19769667 -0.74064153 1.1050111 0.34788612 1.3218794 -0.07889937 0.09231892 -0.6907545 -0.33915278 0.07120192 -0.79071355 0.653943 -1.3277453 1.2611772 1.0786653 0.289411 1.0780059 0.9442039 0.76497436 -1.116607 1.702662 -0.8219941 -1.4906394 0.4150204 -0.759204 0.43110427 0.2243455 -0.02062836 -0.9446465 -0.6314914 -1.1310132 0.2284984 -1.1375085 0.6145099 0.49870896 0.5697658 -1.9858906 -0.47318548 -0.51444113 0.3908506 -0.6516436 -0.5310991 -0.40828177 0.12334181 0.49146283 -1.4056016 0.72677326 -0.50465226 -0.55459106 0.48775524 1.5013547 -1.5620459 1.4410813 0.35497278 -0.28680572 0.06323656 -0.4212861 -0.7846989 0.9507811 0.699301 0.15118493 -0.16732976 0.40044436 1.5518519 0.09632194 0.80374104 0.47641718 0.42623317 -1.2031631 -0.68288696 -1.5289352 -1.5754718 0.15398493 -0.26220793 -1.5308913 -0.5840921 0.24395797 -1.4046952 0.3139655 0.60062253 0.760363 -0.18898135 -0.89869153 -0.9542435 -0.08437441 -0.8022035 0.40640223 -0.46048433 1.2708552 -0.37304357 -0.35870776 0.4157497 -2.2349079 1.8356714 0.15923057 1.0515808 -0.62731606 0.52792627 0.63483924 0.6247821 0.2186061 -0.27318174 1.015882 0.6556684 -0.04468547 -0.1898928 -0.77816826 1.6395205 -0.38395137 -0.44495362 -0.8801187 -0.24209708 0.46483073 -0.12549667 0.5419619 -1.4510837 0.89154166 -0.6904963
76 2.1101665 1.5578085 -0.5871585 -1.0399684 0.7638235 1.2001041 0.9734264 -1.051062 -2.6041687 -0.509965 0.4906363 1.4265621 -0.20717049 0.59780276 1.5134343 0.1591986 0.3989696 0.1633181 0.111338384 -0.39523357 -0.35756463 1.7732091 -1.2286769 0.6698325 -0.4035548 -1.0277499 -1.1028643 0.030008538 -0.7001431 -0.09602985 -0.8954432 1.6224995 1.324828 -0.72572386 -0.058142196 0.010795023 -0.23477396 -0.5904817 -0.11908526 0.3805548 0.8266474 0.13729444 0.43041447 1.3010013 0.1341794 0.94457 0.24947797 -0.10216447 0.043186992 -0.5161235 -1.9501742 -2.4560485 -1.1112841 -0.8872083 -0.9396153 -0.6477993 -1.4385191 1.3778057 1.4350638 -2.2111747 0.2821226 0.41818252 0.44130793 -0.13919555 -1.3834594 1.4877179 -0.2093901 -1.6292325 -0.5784076 -0.44231588 -0.38918766 0.57448655 0.10607527 1.331606 -2.179774 0.7402592 0.13810202 0.28177947 0.09056893 1.1116356 -0.106850244 0.860498 0.08235527 -0.22687894 0.41841346 -1.3032708 -0.9199855 1.0749041 -0.68444824 -0.37700263 1.2384224 -0.03729657 0.6944902 -0.19729006 1.4898025 -1.5431379 0.7004801 -2.1256793 -0.825321 1.3418559 0.5978988 1.3557608 0.1449574 0.3714846 -1.2971178 1.3569237 0.71556556 0.82081455 -0.72184813 1.6300306 1.069707 -1.5294034 -1.137542 -0.08516755 -0.20384699 -0.18643393 -0.8047647 -0.16698004 -1.3922759 -0.8322931 -0.12752154 -0.6787303 0.1801714 -0.90334266 -0.11996925 0.67497814 0.047570936 1.1355152
158 0.8170483 -0.09405234 0.9311681 0.75862134 0.69025385 -0.52909446 0.80214804 -0.049510803 -1.1081716 -1.0385581 -0.79168767 -0.6044075 1.2927212 0.6488236 2.0526733 -1.5526768 -0.027665773 -0.36492023 -0.37650174 -0.61276895 -1.6109776 -0.54400355 -0.23461612 -0.18493314 0.8942397 -0.2623769 -1.6635015 1.3414278 -0.8858117 1.0509752 0.59028757 -1.0221868 0.6886777 -0.34235704 -0.56800306 0.24389718 0.028871609 -0.11050933 -1.0952682 -0.2981422 0.15430424 -1.9724776 0.12298898 0.069569826 0.29469398 -0.7764566 0.5475758 -0.23622128 -0.89779407 0.4048158 -1.5209562 -0.5677611 0.1326139 1.7178291 -1.8080739 -0.77407014 0.5451911 -0.70659226 0.7240433 0.051370185 -0.52735305 0.4851394 0.57009536 0.011840065 -0.9784418 0.032364666 -1.0590423 -0.4152951 -1.3476166 1.1410861 0.5061219 -0.474578 0.50301576 -0.24344313 0.6077089 1.3537874 -1.0966263 0.23191074 1.33799 0.85235226 0.18281128 0.7362719 0.46903226 0.054710794 -0.6268067 -0.16096158 0.54334736 -1.4136516 -0.36803138 -0.9567505 0.20234221 -0.89652014 -0.7947848 0.77556777 -0.4113094 0.05364193 1.1662997 -0.749521 1.1732332 0.21563041 -0.51077193 0.9633847 0.84715533 1.6339486 0.7450435 -0.61682314 -0.15645508 -0.28079307 0.570281 3.2008672 -0.25186226 -0.033421297 -1.3695605 0.19990385 -0.010173151 0.42783934 0.90640336 0.36995882 -1.9446048 -1.4745098 -0.9002081 -0.18665268 -0.22105052 -1.9967705 0.88289344 -1.6799543 0.49702713 -0.13322662
66 0.7799771 -0.43416238 0.6964109 -0.4964759 0.34412196 0.3256615 2.0293987 -0.86752504 -0.08490295 -0.5941234 1.5045761 0.22229739 0.4108121 0.63894916 0.39782727 1.3268352 -2.0206962 -0.7685932 1.4308661 -1.224637 -0.6965297 0.4196597 -1.9806467 0.41794088 -0.24993715 -1.6246645 -1.173911 -0.24023923 0.5777659 -0.42632285 -0.8552216 -0.24385165 0.83993864 0.88274133 -1.1384112 -1.2062023 -0.33835357 -0.9272298 -1.4336089 -0.026935432 0.18165249 0.5456466 -0.8627724 0.7285299 1.7236239 0.53700036 0.21560891 0.56895053 0.24928428 -0.96424884 -0.8430345 -1.5312686 -1.1758982 -0.6395559 -1.7719964 -1.0244741 0.22041261 2.1851778 1.8206321 -1.794779 0.8310157 0.53513503 0.21686676 0.2585248 -0.8589375 0.9703285 -1.7642063 -2.150194 -0.6262618 0.5528529 0.36192113 -0.05944211 0.10553218 0.91596466 -0.9797259 1.7114409 1.1349182 0.7106466 1.0701826 0.21920827 0.014942845 -0.51626277 -0.00602917 -0.25430715 1.2278028 -0.6518682 -0.049439263 -0.47669524 -0.56703246 0.3755301 1.1724602 0.3313225 0.82170606 -0.93207556 0.31783664 -0.16122179 0.36850291 -0.9529411 -0.6473192 0.41577768 -0.07733188 0.8512079 0.78625286 -0.60076314 -1.142414 2.1301577 1.0056118 0.9026937 0.05917634 -0.14770257 0.9137493 -1.2737247 -1.5580481 0.48001435 1.0043434 -0.9360641 1.5378467 -0.92171186 -1.891759 -0.71023256 -1.3150024 0.6983888 -0.88807136 -1.0266387 -0.92596453 -0.3089321 0.8391963 0.92033917
23 -0.3947254 -1.2212244 0.96722424 -0.4548198 -0.26431444 0.71378845 0.9321534 -0.92686075 0.10026262 0.51593566 0.1747715 -0.60079485 0.21610022 -1.7882487 -0.56601906 0.9294465 0.46104708 -0.57753557 0.24084798 0.7603422 0.6515768 -1.1584054 -0.8427062 -1.096534 2.0466626 -0.76384807 0.7074173 -0.5087884 0.9541098 -2.4336197 -0.4271928 -2.0123444 0.5049492 -0.88159704 -1.2822566 0.17085485 0.24360332 0.5113257 -1.0596646 0.22040428 -2.1190212 -0.8787237 0.2049421 -0.17592712 0.42092532 0.5240667 0.51696485 -0.8062293 -1.1537409 0.99978817 0.28724003 -0.07474297 -0.2710291 -0.38805103 -1.9475465 0.7536419 -0.07555966 -1.4141467 0.7972352 -0.6107781 -1.2836474 -0.17708471 1.7501988 0.74127936 -1.190391 -0.06427648 0.49629033 -0.561083 -1.0324465 -0.064852074 -1.1341035 -1.5582939 -0.18191235 -0.95458335 -0.18486325 0.1887909 -0.88639206 0.31542736 -0.44344884 2.2738583 -2.1879113 0.49296513 -0.11757321 1.4994012 -0.8134903 0.9602167 1.548527 0.3666773 0.460978 -0.5997379 -0.7566113 0.57434744 0.49637917 0.052507114 -1.4314103 0.11476062 0.9863927 -0.39690733 0.047138773 0.44645444 -0.80053705 0.19813663 -0.44906732 0.95922303 0.7624831 -0.40532452 0.21304719 0.56129944 -0.7496515 1.7043388 -0.9334034 -0.28096086 -0.07010957 1.1725876 0.83775115 -0.07909327 -0.79656184 1.6033835 -0.5082235 0.67014533 0.8201526 -0.078490525 0.56213075 -0.18299885 -1.2818575 0.9487412 -1.212369 -0.3340831
297 -0.28531194 2.05726 -0.63132656 -0.6664669 1.1939248 -0.9094716 0.48876187 0.65668565 -0.46487147 -0.61229336 -1.0290794 0.4137559 0.5672004 -0.22117458 -0.7972976 -0.47682747 -0.85419744 0.7284708 0.6716682 -1.627289 0.044470746 -0.10094824 -0.55030286 -0.021904794 -1.0087008 -1.8819487 -1.1904856 0.80186576 -0.69740283 -0.13918386 0.7331265 -0.76713294 0.90879995 0.84564996 -1.2965763 -1.4511317 -0.41674504 -1.5547714 -0.8867376 0.19335404 0.48630688 -0.860455 -1.3058944 0.6875045 0.063141964 1.4191664 -0.66281104 -1.0432727 -1.0778208 0.0062805014 0.17159088 0.0065982705 -0.778351 -0.88220614 -0.22985686 -0.41100144 1.8595352 -1.3479174 0.043591652 -1.048574 1.0298213 -0.095853396 1.9521542 1.6682746 -1.2593117 0.80166554 0.48180515 -0.41507658 1.519718 -0.4103935 1.4910245 0.28466094 0.40829107 1.821661 0.60698384 0.91954714 0.7584985 -0.65147376 0.044880457 0.26724946 -0.9229302 -0.25563768 0.5574009 -0.85824496 -0.32999554 -1.4573852 -0.17998932 -1.7684938 0.17088927 1.0931325 -1.0249463 0.28672954 -1.0624871 0.8422619 1.2605498 0.59749013 0.51869833 0.4871212 0.057498913 1.0346074 0.76339346 0.18950886 0.9089058 0.29286727 -0.8669831 -0.34703565 0.86598825 0.5872897 -0.397449 0.6000305 -0.52596116 0.5984033 1.7249767 0.14848165 0.23962243 0.78537077 1.5570269 1.0901095 -0.34222975 0.77940154 0.8359725 0.11804389 -0.62438715 -1.0562109 0.07807483 0.25958005 0.11623548 -0.08476728
38 -0.33757526 0.97182274 0.52850384 -2.1662476 1.271392 -0.8229385 2.1382413 0.20249519 -1.0099607 0.1427144 -0.80813646 -2.14338 -1.160958 1.4511962 -0.28368583 0.24690983 -0.8468268 0.9861557 -0.14200255 -1.2754081 -0.7327473 0.45518652 0.88623446 0.07374424 0.3391216 -2.0961416 -0.4016863 -0.57429814 -1.031445 1.3958284 0.99887687 -0.47794497 1.5602293 -0.043611642 -0.7168036 -1.4020339 0.009434967 -0.26076332 -0.7562174 -1.0683525 -0.62709445 0.0021026474 -0.4705314 0.058722638 1.185536 0.77277124 -0.27812892 0.41287076 -2.202033 -1.4522542 0.5718404 -0.8644297 -0.07336098 -0.6894438 0.36674815 -0.31719384 -0.27654454 0.8705855 -0.2678547 -0.75739366 0.6453765 0.07467625 0.4076076 1.2707452 -1.1158011 -0.020489726 1.1655272 -0.51011956 1.2633476 -0.83831 -0.75799847 -0.14978123 0.21060474 1.5506234 -1.018472 0.7044549 2.8030043 -1.1169957 0.52350086 1.3753841 -0.20903006 0.13812515 0.6689976 -0.739236 -0.6510006 -0.90956646 0.85221106 -1.4780151 0.9736472 0.92053115 -0.374854 -0.14648627 -0.22947648 -0.90493053 0.3504497 0.8066731 -0.4924022 1.2144471 -0.064315245 1.0749863 -0.0683414 -0.67571926 0.31913665 -1.4145789 -0.0015858638 -1.1478266 -0.5594344 0.83876497 1.288877 1.0933807 -0.42855674 0.63874775 0.0009376943 -0.20371379 -1.7495589 1.6398945 0.55000794 0.9489179 -0.50485617 0.77236867 0.82096666 -0.0012219559 -1.0224597 -0.74235797 -0.55546963 0.09041025 1.2731209 -0.06455233
425 0.5182061 0.20513201 -0.08478097 -1.204061 0.9360074 1.8884664 0.64981246 -0.74774534 -1.1475624 -1.9903121 -0.67219037 0.42085233 -0.66921383 -0.34875092 0.35317385 1.7706513 -1.104291 0.33501562 -0.07179042 -0.4295807 2.0341935 -1.096866 -1.0128633 -0.6983754 1.152652 0.7630357 0.6212908 -1.0836816 -2.5404887 -0.5848629 0.295907 -0.21683888 -0.60385144 0.03617952 -1.3540635 -0.27353758 0.30946258 0.36982375 -0.26067504 0.70317143 -1.0797644 0.48307848 -0.65059686 -0.6314675 0.8694959 -0.8958149 0.7192125 1.4823679 -0.43093598 0.031305563 0.26497424 1.4134316 -0.54951006 0.43984783 0.1936371 1.4389229 -1.7246037 1.8767322 -0.89625645 -0.88558286 0.34081924 -0.08977863 0.7957977 -1.0053462 -1.8976575 0.70329833 -0.8938002 1.1100898 0.6071188 0.9496368 2.134165 -0.670039 0.19221017 -1.5360712 0.62555575 0.33378997 -0.6133374 0.004752338 -0.16421409 2.2424052 -1.1299251 -0.21022746 -1.2100341 -0.57939476 0.48593473 -1.2492312 -0.3762078 -1.1108056 1.0327804 -0.9279399 -1.2098728 -0.04988694 -1.4093246 -1.3696353 0.9881823 -1.2428713 0.75240993 -0.2681821 0.042673264 0.8740735 -0.19942746 -0.41040227 -0.17948714 1.0545125 -0.8969902 1.2403964 0.79316676 -1.5383562 0.7023274 1.1854672 -0.5782752 -1.0524349 0.5475781 0.64225066 0.13463046 0.40577286 -0.024023008 -0.72651356 1.2766165 -0.6112642 -0.54466826 -0.62301046 1.5194468 2.0266378 0.08555039 -1.1652337 1.3454722 -0.47701657
188 -1.2834071 1.1459575 0.13483885 -1.0910141 1.51923 0.2961919 0.63382816 0.5462352 -1.6745666 -0.92949164 -0.12563483 -0.45667893 0.4784371 0.054057635 -0.8371101 -1.3207318 0.5105841 1.2763513 0.9230903 -0.34471375 -0.45469093 -0.6566778 -0.3833576 0.6076859 -0.611991 -2.0522866 -0.20080146 0.20554125 0.6003083 0.874557 0.54377776 0.1759742 -0.78182566 -0.5287942 0.19814107 0.5940502 -0.9602217 0.47210205 -0.31477568 0.6543904 0.08814861 -0.6765914 -0.48556855 1.7681329 0.3838013 -1.2374752 -0.298327 0.1070612 -0.18830703 0.20361686 0.06043719 -0.3373776 -1.3730544 0.77713144 -0.054596845 -0.0962227 -0.6540391 0.4528306 1.2973716 -0.7501228 0.5694364 -1.9076058 1.1459498 -0.82495624 -0.2624452 -0.6734801 -0.32205886 0.3112311 1.1153256 0.5184037 0.13940774 -1.6524031 0.45329645 0.65978247 -0.2786788 1.1680685 0.65811795 -0.98789865 0.88825506 1.652002 -0.8921709 0.64429736 0.520672 -0.33812484 -1.3306837 -0.7075738 0.23401867 -0.3691689 0.34125873 0.3596649 -0.72754943 -0.8750002 -0.87492347 -0.14478476 -0.26565832 0.45068505 2.1560626 -0.77240604 1.9239236 -1.1119452 -0.97811204 0.5717735 0.67283183 1.0135429 -0.59316844 -1.8225447 0.1598591 0.5819443 0.93975484 0.50600046 -0.6685729 -0.93178475 1.2454562 0.93315953 -0.49565554 -1.172519 1.1666293 1.2830653 0.8933616 0.46718162 -0.11589873 1.1066597 1.016353 0.5970543 0.664963 0.09512212 -0.2241468 1.0087014
193 -1.1697192 -0.15192363 -0.80067325 -0.9991044 -0.7980642 0.22712444 1.5513682 -0.8173056 -1.1502537 0.668782 0.65324086 -0.4203993 0.93852675 -0.5613427 0.35277522 1.2009326 2.143998 -0.06802059 0.49210986 -0.4777227 0.023188017 -1.8787459 -1.9361784 -0.43393552 0.48167613 -0.89798754 -0.9349701 0.061154317 0.9719248 -1.5255942 -1.3010707 -0.032922115 0.3213319 -1.1494371 -1.4649922 0.116525546 -0.1468227 -0.27510616 -0.84943074 0.06767494 -1.7874361 0.80463654 -1.2940868 0.6425033 0.7983026 -1.1409667 0.9858901 0.050979488 0.6726066 1.7501857 -0.050557833 0.3971719 -0.85654724 -0.117957145 -1.487054 -0.28761894 -0.5827488 -0.5478286 1.9256959 -0.17744316 0.17516862 -0.036823045 1.4071026 -0.6911057 -0.6497493 0.14430751 2.3346984 -0.29037008 0.98215514 0.23803411 -0.67181927 -1.8061714 0.42477122 -0.23756081 -0.024758806 0.20409042 -0.39797726 -0.10958481 -0.16528176 0.90645534 -0.7349223 -0.20737694 0.36621574 1.5686074 -0.19571315 0.9065279 0.16109416 -0.5693251 -0.04579223 -1.4462088 -0.6956647 -0.052427962 1.1383812 -0.34658933 -0.17112789 0.27320087 1.0719846 -0.48992842 -0.1088603 0.3918605 0.562258 -0.54983425 -0.7860965 1.270616 -0.20878595 -1.5973258 0.32642776 0.9566594 -0.6719806 1.7332561 -1.2944045 -0.91502947 0.8625215 1.9788619 1.239518 -0.46870714 0.0657557 -0.18913744 -0.042069208 -0.33916876 -0.0639457 0.5316312 -0.64068556 0.87292403 -1.3016694 1.7370876 -0.18480094 -0.93150276
13 -0.18265367 0.71900785 -0.494268 -0.2248562 0.6999135 1.1387143 -0.97919697 -0.73436767 -1.1704504 -0.27176362 -0.18579362 0.18743232 0.76635975 0.005246023 0.9885471 -0.6314068 -0.6419706 -0.7687587 -0.4300686 0.8569041 -0.07396432 -0.72036445 -0.76040566 -0.36322632 1.1392885 0.13617095 0.84521246 -0.5989023 0.72960377 -0.5056176 1.8774042 -0.6548427 -0.5248305 1.7057961 -1.2438316 -0.2005133 -0.18882178 -1.169572 -0.41135937 0.02368041 -1.3636642 -0.17374845 -0.60348177 1.9830927 0.11928254 0.3443599 -0.7898501 -0.19213489 -0.8561845 0.13168001 -0.66078275 -0.37702072 -1.5366482 -1.7160283 0.25838044 -1.5982399 0.08813529 -0.2180104 0.27946934 0.80919296 0.6362181 -0.34370604 -0.34347972 0.0936229 -0.5774408 1.7513174 0.87251675 -0.97010374 0.338439 0.9571844 -0.08458724 -0.28347403 0.0061743497 1.3772802 -0.18550205 0.015237637 0.47843418 0.22230762 -1.1418548 -1.3623992 -2.121759 -0.70638347 0.20139173 -0.1503037 -1.6631765 0.18765321 1.1479282 -0.7037153 -0.804632 0.0023077803 1.721646 -0.0982732 -1.1044823 0.057297487 -1.2900051 -1.4924153 -0.5136906 -1.2671242 0.24247555 -0.19075163 -0.51899 1.0769036 -0.41603577 1.2533431 0.80786395 0.910953 -0.7536342 0.58345306 0.5501235 0.9853027 -0.4506718 1.0599239 0.44643337 -0.7544482 0.2373514 0.5032467 -0.40627003 1.4846033 0.07945043 0.24768713 -0.5523525 0.102786325 0.83519185 -0.49382368 0.63756615 -0.7131398 -0.4710552 0.1754572
335 -1.3688161 -0.08571292 0.4993205 -0.42735198 1.3895365 1.3085443 0.82943094 -0.53611004 -0.7921146 -0.9747089 1.5689163 1.1202935 0.60266423 0.51511055 1.2065843 0.8396883 -0.889235 0.79196495 -0.5080454 0.03547724 -0.62173754 -0.43343377 -1.6269432 -1.2154083 1.9508811 0.24872956 0.058254823 -1.1153462 0.9455882 0.39732122 -0.6551174 -0.44445413 -0.36553434 -0.92596686 -0.5907323 0.27903497 1.4758501 1.3103741 -0.7613516 -0.41736466 1.2291831 0.028923867 -1.2167302 0.05331301 -0.109595194 0.35453153 -0.39796743 0.5159458 0.8675299 -0.20740604 -0.5677247 -0.17580745 0.48975068 -0.15891512 0.33301994 0.103666134 0.763025 1.6202971 0.3467605 -1.0563754 0.7860534 -1.3729644 -1.0615922 0.4298777 0.5976276 1.6155053 0.047753308 -0.59708387 1.154346 1.3704262 1.240363 0.08502109 -0.06521259 0.38798878 -0.78540903 0.55746543 -0.017057864 -0.5082816 0.87002414 0.7993486 -0.906703 1.4491911 -0.8382674 0.66707855 -0.25287715 -2.362029 0.21454534 -1.7745314 -0.15138549 -0.2716258 -0.6180659 -0.63348216 -0.5008216 0.23065968 0.08674116 0.10815173 1.4646658 -0.17382509 1.5458356 1.1141851 0.06799524 0.42989424 -0.26820314 0.41217652 1.6530423 -0.7085132 1.050487 -0.6757135 0.17444241 1.9913179 -1.3635166 0.17315437 0.42295387 -0.44717014 -0.103854775 0.23909174 0.84915245 0.6316033 -0.34711072 1.4750165 -0.5013899 -0.5903117 0.6255602 0.08542133 -0.03800645 -0.11631672 -1.3132908 0.8522654
418 0.47110483 -0.10221966 -0.19499601 0.5105158 0.17401277 -0.32208323 0.059157886 -0.87040544 -0.37298894 -0.12393406 -1.4834052 0.08504126 -0.6015275 0.2208574 0.70712274 -0.038659573 -0.7274242 -0.12021728 0.08822979 -1.9817317 1.2922343 0.8328805 -0.29027787 -0.13182892 1.4976434 -0.33938766 0.68669087 -0.897476 -0.65054727 -0.33271974 -0.2938767 -1.6821607 -0.4199054 -1.4415301 0.0378043 -0.15935388 -0.46288142 1.8728884 -2.0427969 -0.49747416 -0.67243606 -0.09531398 -0.98484296 1.8656076 -0.89307857 1.089496 0.2744388 1.4908001 0.09985279 1.2185138 -1.5668856 0.6181062 -0.17293295 -0.20397036 -0.51679987 0.95519227 0.2732276 0.8000629 -0.16965875 -1.3370385 -0.068058535 0.050359298 0.58996916 -1.5798948 -1.3528905 0.17063577 -1.149602 -0.20380217 0.42757142 -0.63376725 1.6268167 -0.6070546 1.7553767 0.23489706 -0.16960141 2.2602718 -1.2199452 -0.67647463 0.75299406 0.61962116 -0.6393182 -0.10046661 0.26495403 -1.6162255 0.5036331 -0.6834988 0.29626197 -0.66718847 -0.58175474 1.0801086 -1.027071 -1.6919956 -0.2648612 0.034736104 -0.85533214 -0.35004118 0.5132121 -1.0413506 -0.9204912 -0.8286787 -1.6734359 0.29279733 0.20359911 -0.07371756 -0.9336391 0.5797318 -0.71368814 -0.39403144 0.2881835 1.793435 -0.3646699 0.5166454 0.63809806 1.1849626 -0.5643055 0.8572393 1.2340367 -0.27192783 0.52461493 0.2899393 0.07489151 -0.32334816 0.26397657 1.3933802 -1.8396866 0.27069286 0.25453237 -0.16347596
206 -0.6169711 0.53568083 -0.67368484 -0.55861896 -0.18135983 -0.3863541 0.08407796 -1.361717 -0.632206 -1.4230736 0.9675643 -0.070925675 -0.64111364 1.2292259 -0.5065118 -0.08765618 -0.715849 0.37687966 0.8879085 0.37842497 -1.129074 -1.2331806 -0.96484005 -0.08188727 1.2059894 -0.64830434 0.17199317 -0.72719187 0.111556545 -0.15227528 -1.096403 -1.4871366 1.2570624 0.5689891 -0.7323687 0.75194174 -0.7816655 0.45589194 -1.15669 1.6216521 -0.098323636 -0.6291206 -0.39109322 0.73300695 -0.46045965 -0.52921605 -0.27442703 -0.2356555 -0.897024 0.62325704 0.68041307 0.055209666 0.36981335 -0.76677525 0.27528465 0.42592335 -0.9734847 0.02727102 0.4753387 -1.3395623 -0.4953073 0.8134954 0.5453421 1.3882371 0.3427778 0.17494522 -1.1125062 -1.4218116 0.14079429 -0.31048355 1.6980218 -0.42696738 -1.5030184 0.679375 0.3066916 0.00840648 0.4309521 -0.16755044 0.21651717 -0.30737865 -1.6532845 -0.41186592 0.12977608 -0.5931942 0.27526796 0.27155492 -0.08695621 -1.5072315 -0.17711243 0.41539755 0.17054799 -1.5214666 0.101308614 -0.45854118 -0.9731215 0.049733516 0.40311837 -0.1815729 -0.22787698 0.843413 0.54851305 0.5432964 0.24942426 -0.014399856 -0.09069338 -0.18296352 -0.6739413 1.1118214 0.95710063 -0.25692695 -0.48440072 -0.5742028 0.08727549 -0.025428403 1.7396178 -1.5314851 0.27969837 -0.42304948 -0.14557818 1.3979161 -0.20963557 0.09568104 1.1870552 -0.30681282 -1.0445325 -1.04558 0.48808733 1.0295299
272 -1.1995939 0.46617594 -0.08209579 -1.9671724 0.053885352 0.22135055 1.1811788 -1.7317963 -1.3455259 0.3664121 -0.110522605 0.78227884 0.94894 -0.17556679 0.4133588 -1.801438 -0.18031234 -0.113538876 0.15862957 -0.5100937 -0.58850867 -0.1278187 -0.15748586 0.9898387 -0.10705355 0.23990126 0.9259683 -1.0173953 -0.06546502 -0.94749904 0.64641774 -0.60679436 0.10331717 1.4972543 -0.43843633 0.088897936 -1.5999149 -0.3429351 -0.42423967 -1.2838701 0.39640465 -0.8278912 -1.4470731 0.43620095 1.9422898 -0.71516657 -1.1182351 0.84107006 -0.6627936 1.7702193 -0.7005133 0.60546464 -0.84102935 -0.606543 -0.6299631 -1.8691831 -0.10326261 0.16933627 -0.69447416 -1.3048348 0.5894282 -0.74142396 1.0984088 0.35125074 -0.7179292 0.18563847 -0.82147187 -0.5354219 -1.2133597 1.6368904 0.69447315 -0.60837775 -1.6220919 -0.23212054 -1.1953214 0.14970613 -0.4544882 -0.11644738 1.309768 0.71456546 -2.1486926 0.03491167 2.4598148 0.09654398 -0.24904335 -0.5590663 0.8604107 -0.12206976 -0.199947 1.0505 1.5747929 -0.018024037 -0.2161878 0.6261392 -0.14475976 -0.1958765 0.09626665 0.30046842 0.013158252 0.25844982 0.6547799 -0.5053928 -0.07943424 0.4945716 -0.13516758 0.91398966 -0.4510445 0.7403115 0.10608305 -0.09817551 -1.1697508 0.27992395 0.6590088 0.34477615 -0.81625533 -0.2086134 0.98756653 0.20251346 -2.170676 0.5692254 0.65385276 -0.67745405 1.175093 -0.9499404 0.58424497 0.88099456 -1.686783 0.56574
470 -0.19055828 -0.2073954 -0.23445003 -0.84460086 -0.767882 0.05350424 0.5128429 -0.47231635 -0.83736026 0.4722559 0.73445976 -0.60253 -0.36566776 -0.3466866 -0.4043301 0.23031054 0.9527672 0.23035939 0.03685241 0.58676755 -0.36127162 -1.8947511 -1.2776495 0.12057934 0.85354966 -0.6489051 0.2905718 -0.06059614 -0.32130542 -1.7953736 0.06291531 -0.38347825 0.008549192 -0.15364185 -1.5603353 0.903213 0.6490372 0.12174168 -0.48880473 0.0906056 -1.2742548 0.013317267 -0.9589866 0.30328152 1.12829 0.007876253 0.17946291 -0.116569586 0.19589797 0.29896912 0.16460934 -0.19650452 0.6053547 -0.34626204 -1.5136374 -0.47039282 0.7728897 -0.012301984 0.42779994 -0.84740865 0.20838141 1.2359399 0.2869679 0.38871095 -0.023641331 -0.6074926 1.1582695 -0.53353953 -0.51707965 -0.0127143245 -1.419706 -1.3995692 -0.46020314 -0.6005611 -0.280069 -0.20710714 -0.51329273 -0.41696316 0.34529072 0.27663904 -0.4011483 0.39375547 0.38078326 0.4984147 0.06648405 1.1258262 0.32450375 -0.009040073 -0.49185255 -0.9456034 -0.44478247 -0.12976538 0.51936746 -0.46943414 -0.82562554 0.38863817 0.4352947 0.070993945 -0.6294161 0.29439038 -0.44881266 0.43547735 -0.4670632 0.4384444 0.55020183 -1.1991009 0.20523147 0.17583336 -0.99757695 0.76399773 -0.46820953 -0.56758624 -0.46405885 1.14933 0.6205732 -0.28004405 -0.49631697 1.1861268 -0.15773629 -0.060404114 0.35780078 0.36029726 0.25754985 1.4690368 -1.3016742 1.5602986 -0.9840876 -0.3337841
440 0.4490401 0.69582117 1.1206135 -0.1596854 0.4646749 0.8002301 0.48006576 -0.5220416 0.66585857 -0.791471 -0.61605936 -0.28796652 -0.61613536 -1.0321681 1.56579 -0.6325249 -0.35323575 -0.45880604 1.3108938 -0.9962553 -1.3919972 -0.7603886 -1.1185942 -0.38004214 0.26566377 -1.8627734 0.7222948 -0.13193984 1.5670158 0.6993915 0.1075267 -0.6174644 0.4636308 0.37409374 -1.6485592 -1.1399014 -0.3649994 -0.37452093 -1.1069397 0.26590198 -0.3131849 -0.06692951 -1.2758925 -0.26161432 0.14733079 -0.24893016 0.29136595 1.3954815 0.12426709 1.1403764 -0.6951641 -0.32393923 -0.4836696 0.7505154 0.5609662 -0.508983 -0.2692661 0.19891305 1.7664351 -0.57472193 0.7755686 0.024791509 -0.07003296 -0.72612995 -1.2050784 0.8250843 -0.6553167 0.88222814 -1.0971279 -1.0447929 1.1423297 -0.16213818 -0.5370957 -1.2272455 0.2501566 0.29036957 0.7883979 -0.70100206 0.56795675 -0.0743154 -0.35202026 -1.5160688 0.8953855 0.41802183 0.82537353 -0.49177524 0.3516159 -0.8342112 -0.30796945 1.374312 -0.4906005 0.44529665 1.3669853 0.23456848 -1.5871848 -0.08665592 0.3835579 0.6336928 -0.23132946 -1.3812336 0.64241785 -0.64728653 -1.132041 0.6377933 -1.4627994 0.030823275 1.247284 0.33719322 0.24283722 -0.6719093 1.338356 0.5850123 0.68092424 0.9551944 -0.39407548 0.1586238 -0.48556685 -1.080343 0.20551662 -1.4842974 -0.20740464 -0.21179162 0.6908253 -1.2611418 -0.038904727 1.1211106 0.3434316 0.60158783
11 0.9365258 2.0767944 0.33073437 -1.0997964 -0.45321152 0.3737802 2.1560202 -0.1431335 -0.57658917 0.26726192 -0.014350321 -1.0577279 0.39603576 0.52637374 1.1365657 -0.15583588 -0.3772662 -0.283127 -0.25327462 -0.41859445 -1.1432128 0.6930646 -1.0907043 1.0305461 1.3416659 -0.16972028 0.8899039 1.2261654 0.56860787 -0.97097826 1.3505789 -1.140994 -1.1591344 -0.3063529 -0.948719 0.4093397 0.1838995 0.20415771 -1.4652672 -0.40103766 -0.6039524 0.4064349 -1.2571766 0.16975749 0.5775674 0.3931482 -1.7933149 -0.17500035 -0.4040995 0.46063358 -0.479829 -0.5912668 0.0803917 0.7475605 0.3173265 -1.2510213 0.9063299 -0.67608666 -0.48594454 0.07988276 1.4008749 -1.8663453 1.5885974 0.48465973 -0.34173396 -0.2762516 -0.6535053 -0.8722877 1.0712514 0.46686313 0.31620064 -0.39700404 0.68873185 1.3017616 0.06876769 0.8726271 0.59109896 -0.14073776 -0.50538117 -0.22983612 -1.1529107 -1.4980378 -0.09257193 -0.4551053 -1.0164835 -0.9298811 0.040923487 -1.9298296 0.44912794 0.54862 0.0041028736 -0.71290565 -0.39999998 -0.99172 0.11722421 -0.3801967 0.9760546 -0.207273 1.4902279 -0.3001374 -0.33846998 0.5695051 -2.207042 1.9003829 -0.24825288 1.0379959 -0.39290407 0.508115 0.658448 1.0111531 0.24196263 -0.54318464 0.9850093 1.200053 0.036223214 -0.35133436 -0.4165283 1.6236327 -0.5064519 -0.68082196 -1.0261601 -0.35628277 0.18749605 0.11803782 0.19230096 -1.154804 1.2096031 -0.5854421
178 -0.114896394 0.34124842 -0.54383063 -1.7364179 -0.9270033 0.265581 0.06494531 0.36649662 -1.4874569 0.5627999 0.8223554 0.8820576 0.45667168 -0.5863291 -0.18226363 0.085212395 0.8481153 0.79993296 0.92727596 0.058887184 0.08147643 -1.269486 -2.1940544 -0.16025834 1.404147 -1.1342766 0.54374087 -0.29145426 0.15100452 -2.257062 -0.9950122 -0.6880385 0.9448923 -1.4760507 -1.6825023 1.3873631 -0.10507604 0.6892031 -1.7098536 -0.35590807 -1.4813026 -0.7276127 -0.57291144 0.47838807 0.9388048 0.3969612 0.43665257 -0.777316 0.25313443 -1.1347462 0.22198856 1.0324484 -0.6396137 -0.059832405 -0.45922604 -1.019925 0.20100263 -0.9912047 1.4747157 -0.8765445 0.6293781 0.8396468 0.5348279 -0.19173211 -0.6170148 0.47144893 0.700815 -0.43361813 -0.04865124 0.5063211 -0.2662293 -1.3196559 0.2933319 -0.13950141 -0.7361855 0.4190672 -0.91579545 -0.60517263 -0.34751377 0.67228705 -1.8488691 0.5466451 1.0413052 1.8409853 -0.37672496 0.8223839 1.024527 0.96723896 -0.13976267 -0.6455521 1.0695199 0.71373796 -0.30129808 0.32425267 -0.55768126 0.8706039 1.2889063 -1.2506454 -0.5950222 0.16260812 -0.054026563 0.068051144 0.99152964 0.24411385 -0.7683088 -1.0762926 0.86235285 0.44520378 -1.347435 1.9118026 0.17833185 -0.86745495 0.8692264 0.93895227 1.2726579 -0.6703171 -0.2992819 1.2455951 -1.1784033 -1.1439792 1.2590582 0.4979659 0.48036647 0.37807488 -2.973683 0.8816358 0.289856 -0.9615856
278 1.0129187 0.98271024 -0.22063741 -0.46365273 -0.37495595 -0.33004928 -0.33571413 -1.5627072 -1.406617 -0.9943468 -1.2670611 0.41543242 3.0244863 -0.2284227 2.1386037 -0.10710279 1.8694828 -1.2215636 -0.47773412 -0.041720405 -0.24066411 -0.37457946 -2.4332876 1.8079242 -0.14800826 0.18407364 -0.4667022 -0.5692153 0.930071 0.1853282 -0.17805775 0.41864613 -1.248641 1.3087776 -1.0505666 -0.76330745 -0.08890277 0.28112945 0.06947134 -0.6594462 -2.1007936 -0.63903224 -1.264634 1.037551 -0.2225373 0.5836403 -1.8391742 -0.595883 -0.83148295 1.2553663 -1.8864757 0.62889725 -1.5847192 -0.31186336 -0.16195723 -0.7404053 0.00826323 0.5722389 0.36393765 0.030064361 0.35037118 0.1409483 0.34437522 -0.030915726 -1.1939814 1.1717104 -0.17996217 -0.18202396 0.20691028 0.77969885 0.63433707 0.7752857 -0.03934862 2.0492327 0.092685886 0.73150945 0.31458855 1.5141157 -1.6981108 -0.45649424 -1.5588899 -0.68432474 0.9067425 0.8528028 -1.5710876 -0.1055727 0.72873276 -0.37259433 0.13430814 0.7984487 1.078777 0.1761942 -1.4040946 -1.1491458 0.04647589 -1.4958326 0.045011222 -0.19561389 0.26973218 -0.3917 -0.21341193 -0.31301758 -0.076681584 1.2152399 0.7613351 0.46333155 -0.8733288 0.67142975 0.54662865 0.7707141 -0.4489026 0.18298182 0.7927308 -0.52844 -0.3895994 0.082330555 -0.68032986 1.023642 -0.4199351 0.70763975 -0.64829355 -0.30084708 0.87828624 -0.6421974 1.0908256 -1.8908726 -0.6016872 0.24700151
139 1.3258604 0.30923277 0.16200653 -0.46991768 0.56297696 0.23538487 1.1482797 -1.4893951 -1.7720536 0.13932642 -0.05924444 -1.6667448 -0.029891878 -1.8969365 1.1602176 -0.44756487 -0.25818914 0.5156875 0.5209454 -1.9713427 -0.44781408 0.6090564 -0.24732865 -0.42267594 0.29099837 -0.006436728 -0.19994228 -0.27712417 -0.07602898 -0.39173585 -1.6045707 0.79845345 0.46507525 0.11304056 -1.6822797 -0.49774086 -0.85969913 0.18791959 -1.842753 -0.38844678 1.425736 -1.0324013 0.054516215 0.39192587 0.65142095 1.0772548 -0.51020616 1.0447977 -1.367379 0.13777505 0.46461806 0.91344935 -0.59039915 0.38644493 0.21546568 -0.19858277 0.14839993 -1.5505283 -0.25860682 -1.1696993 0.003936162 -1.4592177 1.3374647 -0.26036364 -0.39490697 0.51141584 1.1923642 0.71561855 0.8698804 -0.16470742 -0.57416874 0.1876941 0.7528162 -1.2140306 -0.51956373 0.60303324 -0.3943508 0.8175351 0.9134125 -0.3516551 -1.5044174 0.5472543 0.47573355 0.73109317 -0.9983473 -1.0129595 -0.68303126 -0.33719614 -2.1090086 0.1446797 -0.951691 -1.2546895 2.184549 -0.7872592 -1.1725215 0.22304827 -0.7976113 0.9856102 1.3282162 0.69477695 -0.92781436 1.1031034 0.757033 0.34991023 -0.83785474 0.23955284 0.14950581 0.84885573 -0.42126656 0.78811246 -0.6156824 0.17970784 0.17772892 -0.13476126 -0.63252175 0.12845504 1.4246093 1.1668081 -1.7280189 -0.088599205 -0.20156176 0.11889762 1.2475505 0.6835384 -1.1402067 0.92782223 -0.5748338 2.0402503
74 1.686604 1.1114236 -1.0334268 -0.07877986 0.461962 0.9514795 1.2019695 -0.277621 -0.98303235 0.8254394 1.428113 0.26096573 -0.119955696 -0.5090733 1.5736921 0.09453069 -0.8614606 0.48357415 0.6519963 -1.2991208 0.5360283 0.7231108 -1.5215764 0.15791328 0.9560514 -1.269639 -1.2097809 0.9227125 -0.68901366 -0.617437 -0.9256004 0.630887 0.18775854 0.66428226 -0.32269722 0.25344518 0.6651624 0.09558984 -0.8589004 -0.81742054 0.62033594 1.2349153 0.13343419 0.6886094 -0.64218885 1.1948574 0.57958645 -0.3540467 0.31653816 0.06438171 0.62736785 -1.9553934 -0.75190306 -0.6828977 -1.8927888 -1.2878933 -0.26227596 0.83097535 0.75486803 -0.82652885 0.1211483 -0.25320885 -0.14132912 0.39141136 -0.46305114 0.9611221 -1.1574128 -0.39784664 -0.27612272 -0.113726474 1.1621482 0.27975866 -0.60240245 1.8191566 -1.7685723 1.9327252 -0.753122 0.24075356 0.633229 1.2878994 -0.21245673 -0.024405973 -0.058900822 -0.3081188 0.46455792 -1.5312253 0.25296515 -0.58489585 -0.51345414 -0.19403584 0.12928289 0.25673285 0.6534359 0.15007862 1.0266099 -0.35846642 0.5949514 -1.4561877 -1.0841362 0.78012437 -0.80547684 0.95605445 -0.6618881 0.49873286 -0.06429979 0.541389 0.800256 1.750498 0.79845965 0.5038638 0.6215976 -0.008230349 -0.14075114 0.3043795 0.54158026 -0.8037098 0.042256676 0.6178484 -1.6055166 -1.3246589 -0.54255444 0.11219605 -0.06530023 -0.8782528 0.56243116 0.71937793 0.45120597 1.0363687
469 0.3881127 -0.11815002 0.9961745 0.74491507 0.15562743 0.8335559 -0.84709054 1.3595401 -1.2134429 0.34412158 0.21457033 0.7330609 0.3901595 0.13042526 -0.82156146 -0.30392876 0.010916179 0.024719365 0.3347473 0.12868047 -0.23467346 -0.0065114405 1.0407232 -0.30704126 -0.6348859 -1.0481174 -0.37430996 0.5695155 0.22440849 -0.016488452 0.17257123 -0.49778995 -0.8212266 -0.4734725 1.1794271 0.45555717 0.07358098 -0.17711097 0.65935373 1.0361714 0.2854366 1.1625688 -0.20404518 -0.04516785 0.3384603 -1.5437121 0.07215038 0.62566423 -0.7876022 0.30598807 0.5360751 -0.03896706 0.62368083 0.8801048 -0.05623839 -0.48863783 0.093724355 -0.09525675 0.25641006 -1.3853852 -0.4360481 -1.4742755 0.4233841 0.23930615 -0.99853593 -1.5216888 -0.03613272 1.0706797 0.679568 0.31069204 -0.121930026 0.2200168 1.3049979 0.6348425 -0.8737691 0.9366745 1.5153421 -0.72201526 0.17655708 1.5435661 0.10473052 -0.13828704 -0.0012953576 -0.049831305 0.24941042 1.6469157 0.40456364 0.4490124 0.6148107 0.84851927 -1.1973714 -0.7987375 0.79900503 0.55351216 1.2973424 0.1383598 1.2128143 -0.14003146 0.55612767 -1.3266317 -0.75455403 0.29285824 1.6369983 0.6926628 -0.81738603 0.29169044 -0.27680364 -0.32770628 -0.72143096 0.046986807 -0.93646324 -0.080440894 0.3381968 0.817266 -0.40895554 -1.6880256 0.09284053 0.73402226 1.311648 -0.8900576 -0.090524785 0.16265595 0.49164718 0.17664218 -0.29578608 0.37067223 -0.42736465 1.3160944
107 1.0417022 -0.6974891 1.4316924 0.53552204 0.80276054 1.410213 -0.6723177 0.79340094 -2.2149692 0.19620481 -0.43504053 0.5226621 -0.12388572 -0.13660505 0.064335845 -0.5674933 0.31824034 0.29860544 0.7317599 0.10027915 -0.42279142 0.27136466 0.8561797 -0.73008525 -0.58880365 -1.9745022 -1.6415771 -0.2755879 0.062577784 -0.9259431 0.119662955 -0.74326295 -1.1205866 -0.59937745 0.48005515 -0.50328016 1.1264 -0.78732306 0.27067503 0.7259792 0.71816504 0.7206554 -0.11069168 0.22056928 0.8123629 -1.3802379 0.46347195 1.4332137 -0.56674355 0.40731725 0.11895215 -0.3485732 -0.064067386 1.4712981 0.03861866 -1.1591723 -0.30713323 -0.3999793 0.663746 -2.0810685 -0.7372268 -1.7207603 1.2940153 -0.11090228 -2.196478 -1.051176 -0.07712997 1.8002253 0.6304738 0.21363983 0.03585738 -0.1709804 2.2722406 0.9500241 -0.7582422 1.2934809 1.62674 -0.72276 -0.027212096 2.2980685 -0.6834661 0.115196116 0.11145999 0.5046996 0.80516416 0.9422881 -0.022213127 -0.010128689 0.07809052 0.66475147 -1.6798532 -0.059977084 1.7953413 -0.07013943 1.8235515 0.21892838 2.0598898 -0.13158464 1.2013422 -0.8604032 -1.2187481 0.4970947 2.1455517 1.9014949 -0.403896 -0.5014759 0.21862714 -0.32521182 -1.6822356 1.3263896 -1.0852611 0.58229256 0.124112695 1.5065138 -0.952567 -1.6115689 0.9686972 1.5207446 0.25870734 -1.4089184 0.9872016 0.65887797 0.50677574 0.24920669 -0.8567671 -0.09067807 -0.5405946 1.8880678
198 -0.34789193 -0.43073308 0.23644912 -0.91363406 -0.9265862 1.1356812 0.5000621 -0.89341706 -2.0121868 0.20869742 0.16181588 -0.99644685 -0.36443287 0.5581622 0.017865475 0.7883399 0.789914 0.5083726 0.068448074 0.8857528 -0.67097175 -2.067287 -1.490798 0.51719534 1.3834362 -0.76096916 0.269038 0.5444299 -0.59872633 -1.8691533 0.31269586 -0.49329215 -0.29000136 0.27619115 -2.715667 0.7813515 1.0885074 0.06573226 -0.2239913 1.0126469 -1.3975474 -0.026834993 -1.707636 0.20746051 1.8195933 0.1921387 0.13682866 0.03628612 -0.121968314 0.44113478 0.06662622 -1.2555822 0.6129963 -0.57274336 -2.3352284 -0.92028177 1.1684378 1.4410021 0.18669622 -1.6843262 0.29268223 1.4999892 0.5587759 0.7427342 -0.663582 -0.5878859 0.66844714 -1.1382899 -0.4897656 -0.053346474 -0.19030476 -0.9883752 -0.78329283 -0.7334912 -0.22526991 -0.13099933 0.2257538 -0.4783998 0.9425222 0.19950484 -0.4915363 1.0060875 -0.042189334 0.07155348 1.067831 1.0665456 0.34297568 -1.1288729 -0.4442354 -0.6755484 -0.49523237 -1.2670931 1.0307211 -0.6387482 -1.105082 0.27633283 0.21647811 0.41010553 -1.0802977 0.03179613 -0.30872953 0.83259124 -0.3397157 0.5101353 0.81930953 0.21475373 -0.035446607 0.30394992 -0.7629478 0.3983288 -0.8420076 -0.3638627 -0.2743098 1.8708313 0.841593 -1.3455381 -1.0960665 1.5440496 0.05726268 -0.16165987 0.07759949 -0.16466157 0.81925315 1.4004503 -1.6817238 1.1764789 -0.9889691 0.5706447
