473 128
41 -1.648762 -1.2117059 -0.2831997 0.16667905 2.0471985 -1.6988759 -0.37721714 -1.5093788 -1.0360202 0.06292603 -0.1041012 -3.570072 -1.2988749 -0.84299576 -1.4965092 -0.01324737 -0.14164947 -0.47159448 -0.9508074 -0.46877372 -0.99607015 0.08663747 -0.99847436 0.320952 -0.21211515 -0.9974562 1.503713 -0.8237943 0.4060865 -0.9318727 -0.52254313 0.96897006 1.4005827 0.22194813 0.93648416 -0.77553153 -1.6664487 0.90259737 -0.8295928 -0.16699463 1.4315606 0.061530896 -0.75924945 -0.098724514 -0.14191706 -0.0725399 0.55155665 -0.8762072 0.67335093 -0.33452666 0.17381075 -0.98838824 0.8727811 -0.9360718 0.71373 -0.25666323 -0.54951495 -1.6461134 0.816355 0.63851345 -0.27118793 0.7757498 -2.3953898 -0.20323443 -1.4310924 -0.8798074 -0.9463622 -0.17716546 -0.26437277 0.35317945 -0.39708012 -1.3297073 0.09060959 0.06051464 0.5555249 1.2427711 -0.981432 -2.284704 1.4262418 0.67088956 -0.39072517 1.1993473 0.26136097 1.5372943 -1.3234742 0.33689377 0.62496597 0.24568108 -0.43159154 0.24253881 -1.2231615 -0.26273894 0.14781001 0.8987304 0.38420436 0.21189918 -1.0438488 -0.5842905 -1.208876 -0.96984476 -0.49377477 -0.37808555 2.4149013 -0.08183061 -0.3955033 0.9521099 -0.14976154 -0.09579956 0.04878774 1.355452 0.093489975 -0.24589613 -0.16164415 -1.8365904 -0.78955716 1.8376932 -1.7853358 -2.234575 -1.4940368 -1.0984726 0.64961374 1.9408808 -0.97642136 0.76805454 -0.027649073 0.49535397 -2.4172544 1.3266575
232 -2.3599226 -1.8316371 0.4047581 -0.058425564 0.19266246 -1.1813745 -1.2819827 0.08555008 -0.33425048 -0.2729837 0.7985342 -1.2101479 1.9176447 -0.89352185 1.5894204 0.14927432 -0.4266801 0.9974473 0.3628 1.0119188 -0.882411 0.4961807 0.91326493 -0.18596654 0.35335857 -0.25972056 -0.009675173 -0.6565933 1.4740732 0.56718564 0.057208143 -0.33881336 0.25956365 1.3601092 -0.13067701 -0.5937549 -0.41344285 -0.9323951 -0.010736827 -0.59315157 0.8759651 -1.3668944 -0.6545016 -0.07816694 -1.6273719 1.3931987 -1.2557223 -1.051954 -1.9513682 -1.7871863 0.2451139 1.0114964 1.6064105 -0.026109992 -0.08190756 0.8262391 -0.21945955 -1.4873606 1.1136042 1.1262537 -0.21195169 -2.33567 -0.44920412 2.2217343 2.15418 -0.2466286 -2.019028 -0.66576743 1.924394 -0.19219871 0.9335131 -0.11033659 -2.5191982 0.35694626 -1.1489886 -1.982086 0.18293957 -1.2230221 0.6169198 -1.3784915 1.5835843 0.57696825 1.3547037 0.01204761 -0.59604615 0.611039 0.036862966 -0.34767932 -2.791295 -0.5021752 0.18292083 -0.47913235 -0.9774257 1.7046753 -2.0913897 -0.23999485 -0.9619175 0.4522174 0.4289015 0.9745564 0.8480932 0.5566154 0.78686494 0.89609945 0.045808952 0.16491772 0.59129447 1.3467426 0.9396616 1.1403114 0.21973567 -1.2329701 -2.0078406 -1.4057481 -0.7052877 -0.15840578 -0.27364913 -0.6763538 -0.61483645 -1.4103192 -0.17557335 -0.5046083 -2.1898465 -1.5858551 -0.3021693 -0.25098088 1.1268221 1.0655628
119 -0.93086374 -0.82631093 -0.6309435 1.652757 -1.4089459 -1.5464369 0.2551065 -1.1207132 0.44187328 -0.44626108 -0.7877616 -1.809116 -0.19093256 1.7040256 -1.0456076 0.9621133 -1.237989 2.9983063 1.7860856 0.011931543 -1.49073 0.7734475 -1.0791415 0.61956215 -0.2364431 1.2166365 2.6150055 0.11247692 1.2223527 1.1467954 -0.5224222 -1.3361236 0.025883397 -0.404814 -1.8668413 -0.42668697 -0.14592496 0.31668052 0.00582158 0.18600062 0.75640565 -0.9061213 1.2768719 -0.7639418 -0.56831676 -0.121241994 0.28544834 0.07407881 -0.2591869 0.018251529 0.061940096 0.056553964 0.1370147 0.57741785 0.50685364 0.2014886 -0.509029 -0.6084212 1.0245364 0.9270884 -0.06974661 0.23072568 0.49167442 -1.105668 -1.0418398 0.11762723 -1.5405645 -1.7997922 1.0339358 0.18305433 1.0180527 -0.19978239 1.7290788 0.26633537 -0.6160628 1.2099046 0.13912721 0.7769232 -0.15502661 -1.821224 -0.49389404 0.617565 0.3899603 -0.00478986 -0.4174698 1.0623219 0.68717057 -0.38622677 0.11587051 0.8749302 -1.1161733 0.26340425 -2.6893888 0.51561934 -0.83949333 1.0649436 2.4039395 -1.1589603 1.5308088 -0.39990497 -0.8880185 -0.5904629 -0.116817005 0.9493904 0.0795389 -1.5266498 -1.4111562 -0.21478109 -1.3664865 -0.33972934 -0.8187132 -1.1895825 -0.5965454 -1.0009674 0.78564173 -0.22304836 0.06214412 -0.12279114 0.050197624 -1.30201 -1.4080731 0.013631332 0.84536874 -0.19123632 -0.6490431 -0.6752724 -0.088505864 2.0742977
110 -0.19886637 0.24386261 0.8304648 1.0062319 -1.7455807 -1.2839526 0.1700046 -0.5910306 1.1697187 0.25578976 -0.62498313 -2.470504 0.82282186 -0.5326626 -0.037494276 0.780367 -1.40393 1.8459679 1.4365125 -1.1599286 -1.8011596 0.53632724 -1.0480173 0.3773504 1.500985 0.99849904 1.2051681 -0.47006074 -0.34984455 0.79316324 -0.420802 -0.9302292 -1.2449664 -0.4885603 -1.8210835 -0.7260989 0.92157495 0.5004794 -0.15678717 0.47776744 2.354282 -1.4361042 0.015581592 0.13294111 0.8865924 -0.37961698 0.7014277 -1.1362134 0.37991205 -0.6337119 0.31683153 0.28196055 -0.18172048 1.5194924 1.2605102 -0.60166454 0.08969041 -0.9483296 1.7092385 0.92605495 -0.32329994 -0.17349099 0.18176648 -1.9610196 -0.041634616 -0.2183168 -2.26013 -0.83930457 0.9705943 -0.22464518 0.75135463 1.2809887 0.28317824 -0.82907915 0.02776084 1.036562 -0.2382652 0.32218894 1.5719972 -0.9632244 1.7459738 1.0233718 1.7280881 -0.3049626 -0.20530744 1.3794918 0.145974 -1.114438 -0.6995609 0.6733259 -0.5477378 -0.0068269535 -2.206235 0.19627132 -0.84920293 1.5608399 2.0061336 -0.28074065 1.5842336 -1.1390581 -0.045761563 -0.15489276 -0.22817345 -0.6569354 -0.79383653 -1.1569219 -0.82558537 -0.036564264 0.2440719 -0.38628447 -0.78401566 -0.7667561 -0.6752673 -1.4289991 0.6363454 0.623739 -0.04873915 1.5169365 -0.0077640475 -1.5642587 -1.6286372 -0.14107707 1.1921194 -0.12501843 -0.031708088 0.61654073 0.9021448 2.452325
104 0.38501367 0.31975543 0.2167356 -0.116855875 -2.6216745 -0.9036236 -0.93050957 0.26404667 0.13589606 -0.011349138 -0.23574296 -1.0560335 0.6718968 -0.8397086 -0.8740217 0.2682197 -1.4199959 1.2521632 0.7978301 -0.05172536 -1.7383819 0.66487616 -1.116782 -0.19849901 0.8129179 0.8756517 1.5205656 -0.4542991 0.05685409 -0.18785843 -0.44405925 -1.6471885 0.3050682 -1.0457592 -1.3307942 -0.23801005 0.18217294 -0.32009318 0.27476758 -0.3487502 2.025481 -1.0160629 -0.51964384 0.083216004 1.0584499 0.26159433 0.4438433 0.18771033 -0.95255744 -0.21512467 0.9273409 -0.49007782 -0.36362618 0.28317213 0.55032027 0.16871414 0.74106425 -0.59770906 -0.14701894 1.0989624 -1.0033094 -0.718349 0.044841364 -0.607336 -0.20552254 -0.06915244 -0.7573303 -1.5487349 0.33362705 0.2591767 1.0325004 0.45168376 1.355661 -1.3947588 1.5381087 0.650988 -0.9357634 0.5612372 -0.0104607465 -0.7329273 0.52075505 -0.512044 0.34061775 -0.36883587 -0.69427276 1.2823831 -0.5931809 -0.9740413 -0.38903293 -0.25869521 -0.41203237 -0.5023184 -1.1127113 0.21276654 -0.1774163 0.39274412 2.2171547 -0.45361286 1.2438434 -0.9307856 -0.1078652 0.64229363 -0.10205542 0.517726 0.15088408 -0.850544 -1.0586829 -1.2410855 -0.15964712 -0.6633985 -0.9483512 -0.12577023 0.1313428 -0.2529825 0.32868108 -0.72633976 -0.8163101 -0.36234933 0.09412803 -0.3258074 -1.6314651 -0.3915652 1.2842962 -0.48743212 -0.5676055 -0.9530465 -0.05018899 2.6231227
4 -1.3761643 -0.5624064 -1.0786253 2.0997453 0.55745465 0.31220555 0.71255124 -1.6037616 -0.5824625 -0.54933727 -1.0680468 0.14839064 -0.72324026 0.64789504 0.19562323 1.2442636 -0.45268843 -1.2437742 -1.3607954 0.22295974 -1.2460879 0.88050693 -0.5764422 -0.7566839 0.6537906 -0.26603872 0.60187495 0.80458087 1.6331844 -1.1394154 1.118725 -0.55077416 0.7752599 -0.4570542 -0.86948776 0.5690962 1.743228 -0.011866155 -0.40420485 0.91430503 2.2041047 -0.35720238 0.86732966 -0.47207448 -1.2529261 -1.649423 -0.07916629 0.6198025 -0.3918751 -1.053901 1.4519665 2.36362 -1.0582676 1.875011 -0.7336342 1.6624094 -0.9793539 -0.243921 0.16850306 1.3026824 -1.2966944 -0.61790925 -0.32899654 0.2946265 -0.23326449 -1.1947497 -0.39022166 -1.1129166 -0.5502437 0.8914049 -0.52298146 -0.98034185 0.57845426 -1.3234562 1.244078 -2.3540065 -0.599923 -0.467082 1.7355534 -0.0066914363 -0.019558547 1.4091985 -0.024334121 -1.0056958 0.58306164 0.2558828 -0.7466866 0.78546625 -1.9976287 -1.3571869 0.8879355 -0.4911151 0.07248708 -0.7200062 -0.7837482 -0.40626946 -1.0861272 0.113942705 -1.0660435 -0.28714105 -0.08559568 1.022808 -0.48599875 -0.44410625 -0.4875928 0.50661397 -0.042521607 1.1177459 -0.6528491 -0.52380663 -0.2033816 -0.35848898 1.1707805 -0.37708336 -0.11504889 -0.76177216 0.53630203 -0.2755699 1.4990869 0.58736837 -0.09180259 -0.5918397 -1.1462517 0.062824205 0.81078386 1.1574289 0.253765 -0.25217485
182 -0.92127913 0.79874504 -0.16675875 0.17324446 -0.31590992 -0.26629248 0.28754577 -0.901644 -0.10991247 -0.66414195 -0.04069719 -0.7437572 0.503012 -1.1415888 0.88149637 0.9529021 -0.41073033 0.21875842 -0.7402144 0.042940386 0.5794862 -0.3358386 -0.05569388 0.2140289 0.21732986 0.6344863 0.5974672 -0.5878527 1.8879219 -0.6177887 -1.8759791 0.029048031 0.43353754 -0.31707886 -0.39265168 -0.5483737 1.0744566 0.23850834 -1.2221259 -0.23839991 0.006055418 0.6905239 1.4655141 -0.9591542 -1.3422225 0.5921767 -0.28849056 -0.31735718 0.31791097 -0.0650981 1.7391156 -0.1543123 1.9799687 -1.2175306 2.10261 0.092602275 -0.7624907 -0.6185261 -0.06531705 -0.27689508 -0.6876052 0.1694705 1.6086504 -0.19068095 0.09226042 -0.11859323 -0.0185424 0.6156601 1.0666552 -0.34361863 -0.30789238 -1.738642 -1.2050208 -0.12232829 -0.42908043 0.53735834 -3.1812675 0.53122896 0.17153041 -0.9781096 1.1636852 -0.34294683 -0.09989858 -1.5951613 -1.8458301 0.5527574 2.75327 -1.3043112 -2.737698 1.0510622 0.46206746 -1.3038986 -1.7902037 0.5560993 0.5194875 -0.028260985 0.5866276 0.6482702 -0.21905209 -1.1340926 -0.62417096 1.4634004 0.9750511 -0.31450877 0.7429818 -0.43292284 -0.51035464 0.29300645 -0.22882286 0.8652859 0.72618836 -0.6247891 -1.0540606 0.17855062 -0.27089518 1.2813991 1.0089021 -1.0842365 0.2914055 0.5437146 -0.7741577 2.780853 -0.9567637 -0.58082676 0.33402967 0.51560295 -1.0276401 -0.7438742
220 -0.83511573 -1.1221288 1.3327279 0.9901217 1.6257137 -0.81642544 0.6667552 0.43761423 0.099929206 -0.41165197 -0.6743687 -0.8994072 0.80635035 -1.0701933 -0.40158412 0.91317165 -1.8808473 -0.8392085 -0.68038905 1.6930144 -1.1730475 -0.38324073 -0.4823945 -0.44622323 -0.4219712 -0.609996 -0.7415825 0.9312413 0.20600323 0.32036433 -0.17211078 -0.70314884 -0.9482125 -1.5062062 -0.090683 -0.20942128 -0.31806576 -1.79724 -0.24100146 0.3066465 1.3060428 0.31265584 -0.59034526 -0.2776322 0.1798316 -2.0063272 -0.5666011 -0.5359116 -0.3233575 -0.09814057 0.7261634 -0.4163954 1.8465024 -0.71041507 -1.0455526 1.0773245 -0.34030887 -0.5664631 -0.7186368 0.14914547 -0.14000496 1.3900245 -0.38279667 -0.6629201 -0.9619419 0.21402702 -1.7748 -0.25651592 0.7607162 -0.13974339 1.8240336 1.117858 0.8472445 0.26659778 -0.19279325 0.4948858 0.19980383 -0.42121172 -1.3546053 -0.7193919 -0.09507357 -0.16897662 -0.5280243 -1.5172857 -2.040421 1.4017743 0.61939836 -0.13126059 -2.1926835 0.9504985 0.62302357 -0.51034117 0.5964367 1.7184633 -0.80193067 0.1670711 0.07698515 -0.78872955 -0.5093954 -0.44721034 1.538571 -0.17421992 1.480463 -0.23233901 0.82766217 -1.7891794 -0.04527551 1.4219823 -0.025108743 -0.12861164 1.1540427 -2.129434 -1.8662357 -1.0199829 0.030144645 0.45336017 0.21861161 1.8464341 0.4890462 -0.6274989 -1.7146097 0.43536085 -0.6163338 1.9139029 -0.44250175 -0.84468186 0.7336526 0.88729256
222 -0.7170312 -1.3995754 0.3998186 0.60896355 0.52483284 -1.9320905 -0.17467655 0.50590974 0.30486813 0.4407925 -0.8021607 -0.34189197 2.0751076 -0.573345 0.08687596 0.685188 -1.1875185 -1.6031228 -1.3461348 1.0133538 -1.6898521 -0.42054173 -0.6896201 -0.49083892 0.33645678 -1.3491993 -1.0688429 0.07949868 0.814293 1.4403323 -0.46646354 -0.24003574 -0.8137218 -1.9896703 1.6213702 0.30671576 0.0039422903 -1.6065629 -0.78636265 1.0810063 0.7311676 1.0844496 -0.88735485 0.3776314 0.12629801 -2.7472343 0.26754186 -0.22085099 0.46676305 0.83586484 1.0714866 0.20819737 1.6358865 -0.2919325 -0.82867616 0.13071004 -0.7172637 1.3429328 0.42855754 1.3912932 -0.6614105 0.6957074 0.67581177 -0.058996215 -1.7629206 0.66439885 -1.7530565 -1.2212305 1.112153 -0.19316334 0.42947152 0.6134827 0.2784898 0.047209974 0.4600644 -0.89265996 -1.9261429 -0.51725584 -1.2960732 -1.1758366 0.7822192 -0.20452021 -1.0461383 -1.605717 -1.9360399 0.847549 0.11566229 1.5135356 -2.6222782 0.20301652 0.32954895 -0.58375233 -0.17601413 1.0024936 -0.8200284 -0.08048694 1.0723994 -1.8612641 -0.792225 -0.9863635 1.7817565 -0.23272449 0.6650161 0.29465443 -0.19960155 -0.213003 -0.8480587 1.4376473 0.5306332 1.0080594 1.4956069 -2.2307706 -0.9610307 -1.3447248 0.44446662 0.07801619 -0.60592383 0.6986451 0.7665682 -0.6839372 -0.39531475 1.1931063 -0.93356395 1.0212747 -0.8192183 -1.0104316 0.14760956 0.76679045
129 -0.7278957 1.3803385 0.4485507 0.93790215 -1.9174039 -1.3543797 0.67250866 -0.16503482 -0.75592136 -0.033197757 -1.4615246 -0.69160324 -0.3164858 -0.029537845 -0.5054996 -0.20519091 1.2717984 -0.007016069 0.8413225 0.24046503 -0.5300168 1.3814267 0.20857827 -0.45334738 -1.0931189 -1.5030951 -0.26661515 -0.56327707 0.56779015 0.09651076 0.46803823 -1.255894 -0.8122193 -1.167408 -0.04957686 0.41829923 -0.9679202 0.09942668 0.4778614 -0.22119196 -1.5884948 0.24468744 2.8426743 0.015705371 -0.45427307 -1.1049923 0.02258938 0.17991795 0.34674644 -1.1557273 0.23153959 -1.7505047 -0.2692449 -0.21395013 0.73066235 -0.1834171 0.29240996 -0.036040965 1.3096431 -0.26425704 -1.0273851 0.55102175 0.28157288 -0.040327277 0.114006184 -1.3436785 -2.5958562 -0.18226801 1.3885758 -0.9767685 -0.55149335 0.7891319 -1.7368413 -0.10861572 0.21069746 -0.24123998 -0.7046507 -1.363996 -0.0188796 1.2333834 1.1276819 1.1849577 -0.79684365 -1.8360841 0.20418411 -0.5497663 0.5946205 -0.6975542 -1.715487 0.17554317 -1.7823231 -1.1866741 -0.6205869 -0.4894785 1.794465 -0.5751763 0.7708287 0.61792886 -1.3893381 -0.74164045 0.25735784 0.04533757 0.6957554 -0.3999437 0.45691428 -2.0518978 0.7909782 0.9482071 -0.19447115 0.8717648 -0.41671586 0.0071409913 0.111658305 0.408163 0.2948272 -0.59622985 -0.8708141 -0.054123826 0.013254766 -1.0748249 -1.1641804 0.09091709 1.0302002 0.8999074 0.9129762 1.3471794 -0.5317682 -0.3925897
170 -1.1683408 0.45373034 -0.48851076 0.53527814 0.87920266 -0.8318426 0.8918937 -0.38690764 -1.505554 -0.83540154 -0.8473325 -1.4505255 -0.100630626 0.26557413 0.46590456 0.68157655 -0.9531688 1.0995345 -0.36823964 -0.23486847 0.25424042 1.9513574 -1.1210424 0.27109763 0.85953176 -0.02191363 -0.96842194 0.70959437 1.4528438 1.4538428 1.6015471 -0.71082586 -0.32811955 0.12164561 0.37236547 -0.34534547 0.030768478 -0.06935891 0.44994795 0.034489512 -0.08238276 0.07060878 -0.8496868 1.6986926 0.13287574 -0.7702436 -0.30366543 0.85976744 -0.17096332 -1.3939744 0.30036187 -0.8278523 -0.3232547 -0.6783621 0.13334389 0.9550887 -0.13484527 -1.5018779 -0.7738154 0.84559524 -0.78971183 -0.66949713 0.64392084 0.39772624 -0.28337142 -1.9333134 0.5019222 0.5792302 0.97470665 -1.9693305 -0.46261606 0.84138083 -0.2877262 1.8225753 0.7293995 -1.8743534 -2.1475291 -0.8085975 0.5893412 -1.5009059 -1.338437 2.4544768 -1.3861587 0.6737622 -0.2516422 1.887319 0.9976626 -1.7497584 0.33652887 0.42394385 0.20372869 -0.89950067 -0.42492053 1.3239402 -0.10264204 -0.62989825 0.7633651 -0.13854492 -0.43674964 -3.6363368 -0.93963444 -0.7111809 0.17200574 -0.7253714 -0.10008266 -0.2264354 0.4651139 0.6281769 -0.6680352 0.27443418 0.540779 -1.1267862 -0.49607074 -0.51928467 0.012252467 0.027756548 1.3972546 -0.6074365 -0.9764877 -0.6213685 0.115925156 0.025799066 -0.26671174 -0.05690707 1.1995735 0.2804835 -0.34717613 1.0521348
228 -0.94401234 -1.2660984 -0.5173074 -0.49381536 -0.45716146 -0.025251113 -0.019001992 0.09412186 0.5910426 -0.21920948 0.50288326 -0.3852034 1.128435 -0.2697213 0.18814495 -0.33397654 -0.92869127 0.36760175 0.7963963 1.034395 -0.5485105 0.5383289 0.106755294 -0.23922448 0.23826462 0.146676 -0.13734658 -0.7633684 1.6209033 0.7071694 -0.77335536 -0.2304296 -0.21628517 1.1960624 0.07917333 0.7616856 0.13815986 -0.37442783 -0.21314774 0.9097952 -0.0522545 -0.6349003 -0.5160638 0.06274441 -1.4860519 0.8009399 -0.7949095 -1.1875181 -1.6464331 -1.38432 -1.1173002 0.6376636 1.3943493 -0.63005584 -0.37699193 0.04291217 -1.2257535 -1.0078106 1.3758165 0.89684033 -0.56249917 -0.43166408 -0.7884662 1.7930224 2.0727887 0.29724732 -1.2165633 -0.029410075 2.0237706 -0.8496718 0.9528311 -0.08474818 -1.0112649 -0.35351673 -1.16177 -1.1858164 -0.03954166 -0.89425164 0.64207673 -1.3312136 0.71715206 1.5921968 1.5465335 -0.1923076 0.077314615 1.6145887 0.15485804 0.18529902 -1.7261037 -0.4617318 -0.9638774 0.19283628 0.11321434 1.3225278 -0.7207634 -0.47796047 -0.8838885 1.115753 -0.008184443 0.23092003 0.31856337 1.017293 0.15125693 -0.21396233 -0.74929833 -0.14856473 0.56700855 0.9766261 -0.4953058 1.5309505 0.59384954 -0.80661654 -0.87104374 -0.61087126 -0.42880538 0.5399665 -1.1417708 -0.12674652 0.4356394 -0.9181448 -0.12116263 -0.2828988 -2.0810928 -1.912696 -0.6294122 -0.69601846 -0.28026122 1.0632731
83 -0.85213375 -0.015930617 -0.4991341 -0.78642637 -0.26828915 0.36710083 -0.74256176 -0.14281568 0.55493253 -1.0486968 -2.3519156 0.007302169 -0.0022407612 -0.06658809 0.1934829 -0.18477093 -0.5780681 1.0632634 -1.134633 0.84192735 0.010408085 0.17152034 0.9735247 -0.3970147 -0.17468789 0.68379045 0.8443028 -0.16094998 0.65206194 0.118667714 -1.1521947 1.2538749 -0.08510053 -1.6704507 -0.6738298 0.97677195 -1.1748885 1.0246212 0.06299752 1.5910387 -0.19807826 -1.4316002 0.42350215 0.51109254 -0.38962165 -0.45418584 -0.7786375 -0.026318483 -0.13095662 -0.63052964 0.15323763 0.23093432 -0.6441371 0.6177197 0.08067153 1.3236449 -1.5719287 1.3741169 0.66298026 0.55325 1.4164554 -0.65318805 -0.62321883 -1.2943676 -0.48054564 0.10844231 -0.47860116 -0.400269 0.22892821 -1.178872 0.5307995 -0.1242788 -0.48010996 2.5835817 0.40248576 -1.0526873 -0.56925833 -0.25336137 1.2276801 1.7768795 0.50253534 1.6966994 -0.14652151 -1.2121924 -2.354397 1.6279016 0.84626013 0.5662892 -1.3727382 1.1159599 0.35518628 0.356431 -0.7526008 0.029919034 -0.5419469 -1.1654768 0.9117055 0.33482617 -0.51643485 -0.9220244 0.21280654 -0.6523719 -0.34246945 1.5884293 0.25964984 -0.09407227 1.1353216 1.3965982 0.292839 -0.17443506 0.9409307 -2.1305368 -1.1764644 -0.44950026 -2.3550618 0.8239418 1.1769567 -0.48063117 -0.01933031 -0.83187854 -0.34173617 -0.30464882 -0.02114871 0.80459905 -0.46363017 0.6502527 -0.7905469 0.47523367
414 1.0928903 0.35810658 0.8347339 1.1803188 -0.7662126 -0.65468043 0.42143106 0.35939234 -0.36631042 -0.33218616 0.39680618 -3.0439458 0.08535392 0.6427785 1.6298479 0.5837628 -0.50129724 0.7330547 0.5329536 0.19442916 -0.35305598 0.59143484 0.3791883 -0.61490494 -1.2561677 -1.2008314 -0.751472 -0.46443155 1.2167996 0.7372964 1.2414817 -1.3356844 0.26570222 -1.4546099 -0.010828082 0.19253774 -0.66087663 1.3099853 0.77581525 -1.0680534 -0.2767898 0.69624084 0.9666451 -0.20364262 0.6139719 -0.7068789 -0.697822 -0.035859995 1.1163216 -1.8658181 0.8985443 -1.2824503 -0.1315147 0.74269533 -0.91759825 0.65348625 -0.024963288 0.10348445 0.21498716 0.07113945 1.0760679 -0.51670283 0.0020762202 0.6925756 -0.5146881 -1.156433 -0.28900602 0.40220502 2.827429 -0.86316645 0.13773653 1.5052997 -1.8823068 0.21709426 0.115602635 1.2803166 -0.49412706 -1.2648102 -0.664016 0.5567009 0.40085098 0.9101728 -0.21194197 -1.9021468 1.4592228 0.97390294 0.21409512 0.6007638 -2.8747633 0.9170605 -1.5896747 -0.8756548 -0.33578786 -1.8577744 -0.22331004 -0.48163652 -0.43092805 -0.90715915 0.4388741 -0.86485076 -0.027374025 0.19072594 -0.43788373 0.014385545 -0.2278464 -0.9691689 0.5846049 0.026298894 0.6633205 -0.22776712 0.46433684 -1.7034475 0.19773424 0.9474132 1.7591286 1.1114838 -1.9442688 -0.069785945 0.38572755 -0.7174247 -0.3351442 -1.2060305 -1.1172605 -0.0736501 0.3889178 -0.37222773 -1.9608837 -0.92281306
19 0.17942269 -1.548099 0.8357155 -0.022163577 0.031064939 -1.2949035 -0.95299613 0.22123833 -0.8362686 -1.1746962 -0.53596073 -0.66478163 -0.86119133 0.029823389 0.6832879 -1.417629 -0.22341532 0.07855641 1.5929905 0.6397923 -0.12606595 1.6529204 0.15228899 0.0012520498 -0.4746675 -0.9149448 -1.3697369 0.7481616 2.845034 -0.109941445 -0.40208936 0.36917868 -1.3736354 -0.28671488 -1.9019973 -1.7360736 -0.8148649 0.54777205 0.37967834 2.1695883 -1.509137 0.63550645 -0.20889017 0.51378 0.088222064 -0.17286068 1.1432489 1.22075 -0.39283115 0.17089005 -0.067507155 1.5185736 1.4573001 0.019383946 0.2175167 0.28042215 0.2657987 0.38662586 -0.15210184 -0.66628885 -0.7271712 0.83152294 0.875134 -0.3537646 -1.1240699 -1.6188271 -0.9885405 -0.28520966 0.55067295 0.027616296 0.4326721 1.0790503 0.18810818 -0.8733583 -0.8172065 -1.3497401 -0.7887468 -0.62546206 0.08292648 -0.022682754 -0.46854374 -0.26767573 -0.44799718 -0.2867284 -1.1824929 -0.22891876 -0.74767673 0.13064697 -0.56963223 0.89957494 0.6947823 0.1089665 -1.3455644 1.1786379 0.6808589 0.7389005 -0.8730593 0.31466523 0.30415297 0.15412524 -0.6495351 -1.359363 1.087028 0.99362093 0.1552402 0.47011274 -0.22599894 -1.2228701 1.4895248 -0.55928993 1.4123193 0.019540833 -0.9782213 -0.5349652 -0.81232786 -0.1511749 -0.24959148 0.26389387 1.635062 -0.6142039 0.5198231 -0.24959934 -1.2962288 -0.20338376 -0.16971827 0.8428637 -1.0314223 -0.112252414
292 -0.8873411 -0.87915105 -0.2707952 0.3485596 1.1071109 -0.3880765 -0.93792343 -0.61012834 -0.99409765 -0.8479715 -0.302414 -2.663895 0.47957918 -0.12526412 -0.5289388 -0.050488777 0.13488449 0.69753915 -0.25091723 -0.115657985 -0.8326072 0.33839142 -0.446105 0.6486488 -1.2409719 -2.0152183 0.18647245 0.45236352 -0.44857484 0.2766686 -0.7907644 -0.3659562 0.9266104 -0.21440008 0.85855484 -0.07416925 -1.7122492 1.4059501 -0.7188511 0.055589154 1.552303 0.27888435 -1.1117529 -0.47460377 0.06652739 -0.049218293 0.89340085 -1.0628633 -0.052094914 -0.25086957 -0.2550954 -0.39816967 1.5556564 -0.84743816 0.05300991 -0.10991526 -0.20864841 0.42233783 -0.31853738 0.49530965 -0.29992253 0.7163597 -1.4670687 -0.1421114 -0.55088645 -0.12645906 -0.8681273 -0.42954835 -0.40863797 -0.6774546 -1.0262032 -1.298649 1.0012989 -0.85608035 0.19300663 0.15800051 -0.5048823 -1.742981 1.8085608 0.6041948 -0.78156716 1.5462393 -0.0848398 0.4727244 -0.27289736 -0.49554437 1.5553901 0.03684201 -0.13497615 0.013031018 -0.89732444 -0.19434573 1.0101914 0.55074674 0.505 0.27962855 -0.6616678 0.015549861 -0.5735249 -0.13123204 0.6034428 0.4292454 1.7366453 -0.8581573 0.85271823 -0.031737737 -0.068099946 -0.12654823 -0.38514528 -0.09754225 0.36539802 -0.16963173 0.016889848 -1.7010654 -0.3475246 1.571355 -1.1537864 -0.35406888 -1.3708831 0.09155483 -0.17698705 1.2103688 -0.26332787 -0.8045143 0.23555695 0.2388668 -1.4220132 0.26349494
52 -1.5436908 0.30317125 0.4640386 0.81653965 0.91241276 -0.7799491 -1.2738397 -0.64354724 -0.3917327 -0.9343165 -0.61811006 -1.8428112 -0.34997252 -0.7849992 -0.88997394 0.45878983 -0.99075824 0.040000036 0.09110864 -1.1751404 -1.8619571 0.5172332 -0.9144757 0.9078985 -0.5165153 -1.6442925 0.38780203 -1.0588791 0.39802378 -0.9075487 -0.8850826 1.1938248 0.9535311 0.09842758 0.905729 -1.1245811 -1.4777851 1.7591349 -0.19011338 1.048875 2.4394014 1.2172971 -1.1801958 -0.12824209 0.20559455 -1.3474296 -0.56146634 -0.26724735 0.96309346 -1.1231403 -0.6340627 -0.33391374 0.31067896 -2.1899977 0.051766377 0.73508877 -1.1638893 -0.10169168 -0.4895403 -0.42293996 -0.19751625 0.6110669 -0.73060316 0.03153678 -1.475181 0.71545565 -0.91994697 -1.3700207 -0.25285563 -0.47682863 -0.33261773 -0.75959873 -0.01827852 -1.4487951 0.9673536 -0.7498957 0.22321793 -1.5040128 1.4567785 -0.5494619 -0.75881124 0.7145046 0.39226887 -0.20279837 -0.05242971 0.3221319 2.1699173 -0.6480591 0.4345793 0.6139044 -0.53836125 0.21009098 0.099258035 0.869027 0.11505669 0.6213619 -1.2556049 -0.7143263 -0.8444857 -0.7463849 -0.32477704 -0.09387843 2.26022 -1.4225329 -0.34427518 -0.16279422 0.7716777 -0.606872 -0.45108515 1.069734 0.007356596 -0.0885551 0.2868905 -1.1662571 -0.19255789 0.6788944 -1.1240331 -0.23310228 -1.4358046 -0.65618026 -0.29006967 1.6902955 -1.0100012 0.5201904 0.08194973 0.886445 -1.0224895 0.54269856
224 0.1704994 -0.03964456 0.029066823 0.5360914 1.2904238 -1.016769 0.9425328 0.0677289 -0.088560045 0.624967 -1.785812 -0.7748776 1.812928 0.18025838 0.28041995 0.77029806 -2.2026312 -0.94850504 -0.3033942 0.68100876 -1.0645727 -0.857607 -0.67490405 -0.6622156 0.028703919 -1.7157532 -1.0209125 -0.5272115 1.0419004 0.88462627 -0.010344646 0.32026762 -0.9359011 -0.3584095 1.1899542 0.043711543 0.7937496 -2.254404 0.15284231 -0.08780914 1.576336 0.028744297 0.0485572 -0.45085418 0.7007593 -2.346479 -1.1869355 -0.42256767 -1.2106441 0.6105954 1.8780682 -1.0386939 1.1684135 -1.4129238 -1.273761 0.6416269 0.519471 -0.26531532 0.7408922 -1.1498135 -0.8228418 0.9215445 0.7087856 -0.39552397 -0.62671167 -0.5077417 -2.7088413 -0.667423 1.7691272 0.18479761 1.1350017 -0.18276557 0.7628883 0.57440287 0.36683738 -0.55584913 -0.3352187 -0.09836035 -0.8525679 -0.45023856 0.6893888 1.6071725 -0.8980198 -0.26072142 -0.65755486 0.9962337 0.003184886 0.92956996 -2.0859928 0.12052718 0.12064456 -0.870625 0.21259141 1.4586756 -0.9676871 -0.6223998 0.84476095 -0.8267821 -0.83048135 -0.37052536 0.87083405 -1.0639685 1.7239875 -0.22855732 0.23851646 -2.2399318 0.63650537 0.70858145 -0.3344723 0.81040555 2.0879033 -0.76605564 -0.4128872 -1.4240658 -0.9148581 0.49350545 -0.518079 1.0675207 0.7282837 -1.5352367 -1.4762316 0.9321576 -0.6596607 0.7680916 -1.2767642 -0.8588026 -0.81898427 1.1988063
408 0.6305666 -0.80977887 0.7658977 0.70064414 -0.7709521 -1.3080275 -1.4694387 0.7906116 -0.6207004 -0.6263279 0.16658758 -1.5331216 -0.23254283 -0.02936439 1.1888263 0.5065402 -1.7007475 -0.5240784 0.9368817 -0.24864103 -0.5852077 0.21848825 -0.4199409 0.38909718 0.11869317 -1.3583809 -0.4046695 -1.2740873 0.79601663 -0.7140599 -0.35371307 0.039119903 0.35121095 -1.9106244 0.5179555 1.1191586 -0.9171634 1.3056602 0.3351085 -0.72003406 1.6751729 0.9027801 0.40759012 0.96196383 0.4107151 -0.07718744 -0.585766 -0.71898496 1.3502456 -1.2969261 0.69463617 -0.7756453 1.3070998 1.8120948 -0.7930228 0.23686747 -0.2730486 -0.04218272 -0.47471103 0.6760847 0.6540346 0.2542881 0.76490474 0.8515662 0.33103004 -0.9737964 -1.1811454 0.6760071 2.9505327 -1.491955 -1.1415782 0.46816072 -2.7678752 1.0960726 -0.4108601 -0.23433445 0.14001146 -1.5612223 0.37338114 0.72121686 0.65435606 0.0160423 -1.23269 -1.1171576 1.0033277 0.32673123 -0.019822596 0.23147154 -1.8047116 0.4893874 -0.31019494 -1.7996136 -1.0807476 -2.4201016 0.9503767 -1.3372028 0.58643115 -1.2516053 0.32529533 -1.4778842 0.75351286 0.34059674 -0.511322 -1.1334422 0.065976515 -1.4674399 1.6447401 1.231312 -0.09181825 -0.13535331 0.38505635 -0.15778129 0.8842695 1.14842 0.8208837 0.4090596 -0.13075688 -1.4147571 -0.027554514 -2.5128245 -0.32244247 -1.7804781 -1.1482638 0.4571042 -1.0962597 0.5702468 -1.0934856 -0.7433174
244 0.30054423 0.55410665 1.1196572 0.43863085 -1.9324449 -0.8152827 0.3143992 0.36122155 -0.7631659 -0.49765554 -0.0095324265 -1.1551625 0.7539095 0.906589 -0.91919655 -1.2819718 -0.52954257 -0.3382783 -0.25594327 0.559683 -1.9128581 0.5141759 0.38583323 -0.5109352 0.6589456 -1.3246588 -1.1622188 0.61376673 0.97033 0.5508731 0.9955718 -0.6960593 -0.603657 -0.590854 -0.46150348 -0.49609143 -0.9530319 -0.060288984 -0.12332614 -0.38443947 -1.4320061 0.60932374 0.63226664 0.20181413 -0.63890237 -1.0726316 -0.8756352 -0.05187694 0.09417577 -1.1079625 0.081036106 -1.3948612 -1.5597739 -0.20721269 -0.69416994 -0.57604957 -1.1748058 -0.58918124 0.55066705 0.6995846 0.70159984 0.15687585 -0.2239736 0.6407606 0.28981334 -1.6181339 -2.5924945 -0.1348582 2.0787995 -0.10286626 0.3746109 -0.54859966 -1.7526566 0.93541986 -1.4331138 -0.14423867 -0.17013441 -0.50387466 1.2317675 1.4998504 -0.43033874 0.122842886 0.17620192 -2.0310247 -0.24389066 -0.20234081 -0.33300233 -0.46053258 -1.8167372 -0.34289625 -1.17916 -1.2817571 -0.016503233 0.017512158 1.5718967 -0.8188448 -0.5609215 -1.6734444 -1.2932974 -0.592442 1.0283567 -0.65154535 -0.2888029 0.6537888 -0.121152505 -1.4772577 1.0271881 0.64803886 -0.73655605 0.8764849 -1.2449123 -0.49222663 0.012814437 0.45243657 1.0524105 -0.11191996 -1.429314 -0.34256396 -0.07219707 -0.66081595 -0.9951615 0.96050674 0.3632056 1.4155537 0.02037211 -0.5076786 -0.53920543 -0.50399053
98 1.1039686 -0.04403334 0.60216343 -0.40796956 -1.7819582 -1.3743834 -0.6392354 0.8856242 0.32419455 0.9582264 -1.171539 -1.2055675 1.9954069 -0.71127594 -0.70359117 -0.12341661 -1.6255311 0.5964883 -0.029074345 0.30532494 -1.7686679 0.9341827 -0.8022546 -0.63240737 0.574355 -1.281704 1.3404005 -0.6121717 1.1004659 -1.373269 -1.0679649 -1.3366364 1.0918701 -0.72499305 -1.5000466 0.1937563 -0.22097327 0.46980342 -0.13902904 0.29509935 1.2125605 -0.48601818 -1.1209127 -0.54105395 1.1832905 0.54942214 1.0533048 -0.30873013 0.082021914 -0.98973995 0.5474438 0.10528408 -0.6960157 -1.106378 0.8231841 1.2993392 -0.17123856 -0.4090298 0.5168588 1.2861645 0.18282427 -0.69004864 0.3746081 -0.9027304 -0.3288442 -0.6474772 -0.9389074 -1.7627652 -0.24377309 -0.25008142 0.81391656 1.1199156 0.77747697 -2.387214 1.924881 0.19640197 -2.153288 0.17313994 -0.24952497 -0.13536903 -0.14965919 -0.5633675 -0.5323901 -0.18374172 -0.75525314 0.87598026 0.18490301 -0.483467 -1.3883286 0.30179206 -1.1321977 -2.0279036 -0.553932 0.2294233 0.5708742 -0.06686813 2.517825 -0.5525115 0.43830672 -1.8472958 0.06272849 0.7817807 -0.27432072 0.956757 -0.38953003 -2.1670365 -0.021572515 -1.4390075 0.38954216 0.032916944 -0.86079544 -0.44165394 0.5600323 0.39587438 -0.35375175 -0.22356519 -0.87336785 -0.90431416 0.073989004 0.10490422 -0.5986164 -0.23820224 0.9256189 -0.19415098 -0.88487923 -0.23627064 -0.7948782 3.4290757
166 -1.195787 -0.06390799 1.0199208 -0.34668535 0.9465084 -0.40999565 0.5301792 -0.4712868 -1.4937413 -1.363005 -0.7085773 -2.067404 -0.37006196 -0.78672636 1.1544363 0.7516971 -0.1044679 1.248353 0.94683444 0.03378791 0.34081924 1.2888974 -0.8404003 -0.4303134 1.0435666 -0.21073511 0.30708557 0.4309779 2.2798154 0.3490161 1.3091099 -0.63419634 0.67089885 -0.31930837 -0.80683273 0.14339289 -0.47888562 0.42246827 0.45064092 -0.5825084 -0.39990732 0.5992058 -0.11368538 0.112106286 -0.2708423 -0.4728622 -0.9552759 0.065522686 -1.2369511 -1.3246089 -0.50180143 0.1328628 -0.16681705 -0.89585626 -0.7952362 1.3215072 1.0684818 -0.61020684 0.13810882 0.5349491 0.64542556 -0.1947841 0.82698935 -0.5514494 -0.5839695 -1.218244 -0.6572315 1.0056521 1.0413681 -1.0008203 -0.63853985 1.7782398 0.3191174 0.8966738 -0.29438 -1.5751182 -1.6195294 -0.28172806 0.21876071 -0.58717924 -0.30132207 1.9657652 -1.3320227 -0.09830462 -0.040799435 1.1398847 0.29154703 -1.4421982 1.3429129 1.1106552 1.0783647 -0.0137565555 -0.008089708 0.6439822 0.5874806 -0.4810565 0.28123364 0.038336564 -0.17635323 -3.367261 -0.8593302 0.26460746 -0.37014115 -0.6133754 0.2719701 -0.78754246 0.72246796 0.9898235 -0.7430688 0.12120998 0.67515093 0.0708679 -0.74838775 -0.9554299 0.39241418 0.53447723 0.75755787 0.15086366 -0.6101712 0.31777415 -0.803583 0.69627994 -0.4052257 -0.6723864 1.2212179 0.29580256 0.6489354 1.952719
215 0.39153627 0.10942943 -0.106168106 -0.5734462 -1.4075652 -1.590719 -1.2170992 0.4329046 -1.5210222 -0.10113545 -0.07050793 -0.9726542 1.1743996 -0.82584196 -0.36907348 0.4006195 -2.718138 1.2239065 -0.52434677 1.2417257 -1.4934155 0.4697114 -1.5865356 -0.41423115 0.90952605 1.0389075 0.7966133 -0.2813399 0.27646542 -0.38648194 -0.5848987 -0.7977143 0.5469702 -2.9302611 -0.9381978 0.70891464 0.97293776 -0.75858414 0.5806969 -1.3185406 1.484596 -1.8392228 -0.6100976 0.3592139 1.7932806 -0.8102019 0.28728932 -0.69956774 -1.9310327 -0.45506677 1.7794552 0.023510676 0.6082024 1.3928522 1.0995436 0.5400188 0.70295554 -0.16302128 0.46294028 1.3458897 -0.3629976 -0.36541086 0.39365226 -1.0975871 -0.2150521 -0.79970765 -0.22525358 -0.98413277 0.8703697 -0.1188876 0.98952127 1.2834764 0.24231115 -0.6116531 0.5976246 0.40876502 -0.99023134 9.043494e-05 0.49080122 -0.13730152 0.48680195 -0.02928565 0.18900886 -0.67374676 -0.790291 1.478547 -0.18246122 -1.2027037 -0.18487361 0.41413942 0.10929651 -1.526592 -1.4224304 -0.4437222 -1.0668933 0.82025707 2.228826 -0.8659825 0.9206804 -0.71962166 -0.35803655 -0.044193354 -0.8704131 -0.46264592 0.87777984 -0.06885364 -1.6730118 -1.3519226 0.19998477 -0.6897663 0.058214374 -0.7479945 0.40779153 -0.22029504 0.06719415 -0.30593514 -2.2462208 -2.3752854 0.31738257 0.3785089 -1.8754095 -0.5640971 0.7643921 0.18004008 0.606865 -0.032112714 -0.8892337 2.2440057
70 -1.6215484 -0.089419484 -0.53205186 -0.8160811 -1.2996693 0.29477596 -0.48925525 -0.59862083 0.16725355 -1.7683079 -1.4205909 -0.7920907 0.1961468 0.5612553 0.25640595 -0.7128848 -0.934257 0.5673057 -1.404146 1.0738764 -0.0943799 0.9344063 0.7425853 -0.78247225 -1.0470716 -0.45271128 1.4892054 -0.7542411 1.0433346 -0.04812868 -0.8048011 0.8060168 -0.5586812 -0.98748136 -0.16852948 0.4060488 -0.8936405 1.2853006 0.55907494 0.71508217 -0.599317 -2.0469997 0.83052105 1.0772282 -0.5681725 -0.51439047 -0.7067184 0.94585896 -0.3894909 -0.29193017 0.72830933 -0.28672707 -0.17112485 0.051099513 0.21534769 1.3089148 -1.5818697 0.7031912 -0.11673027 -0.1910748 1.4447287 -0.2544402 -0.17409772 -1.092694 -0.35605088 -0.41115385 -0.552619 -0.4193336 0.5309498 -0.59399503 -0.07515791 -0.6612319 -0.30129534 2.9557245 0.098457634 -1.206405 -0.046785332 -0.47425795 0.48214874 0.37582892 1.8975922 1.888653 -1.1209682 -0.29832613 -2.347077 2.5905113 0.53356093 0.6467923 -1.8283818 0.8586272 1.1235698 0.048963286 -0.83584535 0.56548655 -0.73210144 -0.44214228 0.061674453 -0.21423534 0.7899094 -1.5948869 1.0777022 -0.86866117 -0.48689353 1.5438601 -0.83492893 0.88300574 1.7446917 0.7867326 1.0521125 -0.1534398 1.0265119 -1.6349953 -1.1937039 -1.5639486 -2.4284532 0.8168789 0.70507395 -0.96685266 0.43510675 -1.5866543 -1.2094269 0.014406153 -0.6292462 1.7443962 -0.5147588 0.75042593 -0.2574319 0.20629019
27 0.57127005 -2.3617303 -0.2174078 -0.20981544 -0.4464998 -2.1252306 -0.31313983 0.32640395 -0.53840053 -0.9412349 -0.6995747 -0.89056295 -0.17928496 -0.025438359 0.35462222 -1.0434653 -0.08567887 -0.47178313 1.6801878 -0.33174926 -0.6843812 0.761334 0.6201028 0.5360883 -0.44952357 -0.989585 -1.0728303 -0.18232273 2.6221817 0.030463155 -0.51761615 -0.2905986 -1.6548926 -0.22365198 -1.5363413 -1.3863775 -0.59989774 -0.066461675 -0.336387 2.0922542 -1.8841054 0.29471517 -0.9773473 -0.09152596 1.0850519 -0.29111987 0.29030418 1.7559865 0.4304315 0.040741455 0.14625762 1.3442607 1.4559028 -0.07958585 0.92513555 0.2913692 -0.68676674 0.67803365 -0.32557756 0.4715905 -1.3094141 1.3605722 0.7846215 0.57898325 -1.2217556 -1.2127823 -2.0877397 -0.36262777 0.9866676 -1.29051 0.9571027 1.3317977 0.70850337 -0.67039835 -0.8567548 -2.0826747 -1.4282744 -0.44330284 0.81773674 -0.053081304 0.1786425 -0.48671907 -1.0419708 -0.09635123 -0.87382716 0.29250062 0.25972998 -0.31169352 -0.41752374 0.6177815 -0.08218966 -1.0471126 -0.5441134 1.6052848 0.011146308 0.5321954 -1.2623953 -0.17938633 -0.06715863 -0.4066006 -0.5629873 -1.3139802 1.1693085 1.7518559 -0.49767038 1.0875787 -1.1410102 -0.5342109 1.5829884 -0.767178 1.8604292 -0.6906005 -1.3354608 -0.7100445 -0.22974756 -0.24766782 -0.9534087 0.15680033 1.3324156 -0.868436 0.8513082 0.40215275 -0.6151089 0.00075953273 -0.1831233 1.4534143 -0.86060554 -0.002575327
251 -2.2080317 -1.233253 -0.7373141 1.8696276 0.074040085 0.027101925 -0.5496725 -0.5320568 -0.49081504 0.17379095 -0.8396138 -1.1522036 -0.62405163 1.4111198 -0.30326143 2.2290971 -0.15944444 -0.63839203 -1.047716 0.36845988 -1.8360827 1.1461593 -0.6749434 -0.7904837 -0.4667937 -0.5439966 -0.70776445 -0.74391586 1.6821332 -1.176774 0.88369805 0.058288258 0.67280114 -0.58630264 -0.5363449 1.8211546 1.3884326 -0.07170085 -0.21965915 1.0075275 2.0558357 -0.035031494 1.1736898 0.35511774 -1.1488161 -1.9132892 0.5765488 0.7836505 0.11007867 -1.3285872 1.6854382 1.0952464 -1.0158954 1.834698 -0.9888841 1.9572929 -1.0357827 -0.10540717 0.1104729 1.4217491 -1.4768144 -1.0129477 0.098868094 0.33512154 0.18325233 -1.5505763 -0.98991024 -1.6454009 -0.37359962 -0.92070556 -0.4979333 -0.84250575 0.5265287 -0.8163104 1.5205457 -1.6018935 -0.3389007 0.086258456 1.7569557 0.45553553 1.5185832 1.2299931 0.28883335 -1.2152293 -0.30756882 -0.41761395 -1.0823039 0.88651854 -2.33204 -0.8604009 0.51037043 0.54748505 0.19321944 -1.2508935 -0.4303562 -0.76043975 -1.4272758 0.03739909 -0.8864241 -1.6971114 -0.095960155 0.26715732 -0.4939293 -0.5953841 0.3965101 -0.27861202 -0.44029772 0.30424026 -1.2620058 1.0884675 -0.43489316 -0.088068716 0.44558275 -0.032071274 -0.4895705 -0.08811398 0.031714544 0.074590616 1.2435638 0.9254706 0.49384087 -0.67053366 -0.40085337 0.42583296 0.7455421 1.6418995 0.4129414 0.12908441
134 -0.5372026 -0.6880981 0.8111875 0.24334134 -1.9476243 -0.87742794 0.6250315 -0.24690321 -0.05016066 0.09671664 -0.49531564 -1.7932198 -0.30026054 1.0945522 -1.0201675 -0.40740228 0.17432395 -0.2800634 1.2060053 2.095969 -0.89286506 0.4725784 0.18361814 1.7639414 0.15092452 -0.7477215 -0.2653558 1.070365 -0.080735184 -1.1558869 1.6306597 -0.987961 -0.91656536 -0.48319402 -0.32788166 0.25698772 -0.5230209 -0.10737492 1.1699784 -1.7979051 -1.8269517 -0.2890902 1.7831491 0.3015821 -1.6124152 -0.4375021 -0.7542751 0.12683304 1.2452681 -1.3019522 -0.1726728 -1.5318036 0.6549835 1.2445968 0.45801145 0.120247215 -0.71042466 -0.98784614 1.358381 0.52644295 -0.67052525 -0.71664196 1.2107583 0.96424013 -0.15305659 -0.5070412 -1.9787825 1.163138 2.028964 -0.65512735 -0.092593886 0.25077584 -3.2558506 0.26892215 -0.18683551 0.485924 0.5973061 0.6667125 0.83693135 1.2840155 0.2275853 -0.32938758 -0.5015449 -2.2529469 -0.5785894 -0.61979026 -0.18460013 -1.1951616 -1.0104954 -0.2775926 -1.704007 -2.1701965 -0.3497528 -0.6743229 2.5396938 -0.41313127 0.5237249 0.80070865 -0.77432877 -0.67320454 0.21988481 0.5462493 1.9125112 0.7061725 -0.41825435 -0.9282027 1.3927583 0.7172518 -0.4126829 0.49960366 0.7720669 -1.6032212 0.105531044 0.07975314 0.7504241 0.58661467 -0.62008876 -0.6092704 -0.608139 -2.841677 -0.7632008 0.24068742 -0.08880151 0.5884824 0.9767081 1.2183455 -0.38669467 0.20767768
254 -0.8645627 0.1625538 -0.9434668 1.2317964 0.33082423 0.08436407 1.4771271 -1.5698198 0.24863476 -0.6658379 -0.17573105 0.24420735 0.47501838 0.6332398 0.01126346 0.30180737 -0.1645051 -0.88536495 -1.0907973 0.46851835 -1.1735637 0.20931108 -0.23669334 -0.9138739 0.08724465 -0.87624425 1.4769684 1.3379216 0.7761625 -0.53593224 1.3501188 -0.31196406 0.016963966 -0.7210571 -0.69901365 -0.7744512 1.7251253 -0.1849047 -0.040406782 0.48761097 1.2799242 0.021904578 0.46856582 -1.0102602 -0.4791277 -0.70474935 -0.83359003 0.1362852 -0.21865563 -0.6820473 0.08197234 2.0496705 -1.1023091 0.6934957 -0.8104267 1.4318144 -1.3334414 0.37781113 -0.34430456 0.9676834 -0.66697156 -0.30245867 -0.5474428 -0.8342033 -0.4313173 -0.7452297 -0.5749937 -0.81084335 -0.7751151 1.1617043 -0.554149 -0.52857196 0.81642497 -1.283748 -0.019449139 -2.0010996 -0.8772908 -0.693905 1.1128801 -0.62032175 -1.0525228 0.7559397 0.19150631 0.137805 0.46352986 1.3956993 -1.0758278 0.9762829 -1.160443 -0.9209741 1.0815401 -0.62621045 0.27593222 0.20438394 -1.2628634 -0.12749347 -0.22930555 -0.051540803 -1.5147337 0.18576011 -0.6520588 0.559096 -0.5106001 -0.54382294 -0.5547072 0.6496239 -0.09665627 1.0274668 -0.15194243 -0.95798624 0.22536577 -0.70539534 1.4127957 -0.2162263 0.21800764 -0.46818992 -0.05186608 -0.8425614 1.9938182 0.70742786 0.11234381 -0.06624952 -1.0818211 -0.0769319 0.73823184 0.8333592 -0.039908838 -0.6049056
33 -1.5580645 -0.26804453 -0.17714797 0.39917028 1.0167389 -0.8949592 -0.23497038 -0.32986996 0.0887047 -1.5370439 -0.4550706 -1.7553754 -0.3079216 -0.14881845 -0.8364646 0.04004244 -0.5756203 0.9338149 -0.1282704 -0.055839606 -0.5547326 0.4991798 -0.94920814 -0.18793236 -0.95200014 -2.15531 -0.16391516 -1.5122324 0.27067846 -0.68300796 0.14512399 0.5672487 0.54933405 -0.11928194 -0.1805287 -1.9160925 -2.1876903 2.0551107 -0.812657 1.1493754 1.6941873 0.7900226 -0.9134565 0.31701332 -1.1493783 -0.5731715 1.1170121 -0.76492167 1.2977306 -1.0596944 -0.6931601 -1.605095 1.7925591 -0.71006626 0.09755043 -0.12478838 -0.8304489 -1.7022319 -1.8318167 0.13186656 0.045424115 -0.19285005 -0.80064553 -0.16968513 -0.16589253 0.9533606 0.3616356 -0.36566293 -1.083173 -1.5157032 -1.1838245 0.021215381 1.0961877 -0.75820494 0.48790887 -0.48691034 -1.0175967 -1.1621705 0.82833713 0.25245973 -0.03938056 0.56980455 0.2795234 1.4994003 -1.1398014 0.48963138 1.0220535 -1.2973652 0.12391037 1.8084234 -0.72604054 -0.48959395 -0.033371497 0.76379937 0.22358066 -0.7603168 -0.93673533 0.21463545 -1.4481491 -0.24488302 0.9211426 -0.34965503 1.6135978 -0.02220184 0.025140326 -1.4754972 1.5652092 1.2486598 0.21808891 0.6556754 0.9274405 -0.33065844 0.89928347 -1.3747874 -0.4883395 1.3666759 -1.8518068 -2.3215523 -1.5195014 -1.4502983 -0.032386884 -0.069291845 -0.942378 -0.05702829 0.39854702 0.9958339 -1.4597509 1.323691
186 0.120896965 0.89491665 0.8414076 0.33498505 -1.9555768 -0.89385563 0.6994081 0.40125 -0.09583585 -0.16859852 -0.13015507 -1.2004278 -0.05859543 0.646961 -0.2706783 -0.5313305 0.73297715 -0.49956536 0.6412055 0.4835784 -0.6312845 0.3796816 0.5624374 0.47868946 -0.40730757 -1.1285319 -0.6313415 0.088866495 -0.055109356 -0.15883456 1.3857718 -0.8552544 -0.43920135 -0.9076523 0.18649894 0.22244656 -0.47449192 0.3593081 0.5900258 -1.434886 -1.2668803 0.055036347 1.8495557 0.4177841 -0.6936539 -0.67868 -0.3922045 0.018446792 1.0671073 -1.2846167 0.017869363 -1.7970893 -0.3881592 0.35174143 -0.14451161 -0.63484263 -0.35500285 -0.23178695 0.8013335 -0.11374106 0.09877268 0.11579174 0.72869873 0.5177741 0.31162658 -1.0651816 -1.3592551 0.49845016 1.8133811 -0.6987551 -0.22408843 0.58375967 -2.3291957 0.64100343 -0.11612032 0.2815232 0.44980943 -0.20897539 0.062340654 1.1535529 0.5664159 -0.21992813 -0.5575207 -1.5273725 0.3742277 -0.43285155 -0.32751825 -0.4109182 -1.4531097 -0.2761681 -1.6591892 -1.4073125 -0.16592212 -1.4469333 1.7878085 -0.45873228 -0.038194623 -0.33940318 -0.9367865 -0.24146445 0.678626 0.08223557 0.10890193 -0.12698194 -0.07071406 -1.5665357 1.0362118 0.35245195 -0.31353593 0.5191155 -0.7800607 -0.7873605 0.55001956 0.81840533 1.2473325 -0.10495084 -0.93946725 -0.34673196 -0.043623332 -1.6910262 -1.0365533 -0.7079463 0.49555397 1.0703759 0.06618092 0.075570725 -0.5682134 -0.49119085
58 -1.1526737 -0.0981582 0.76240194 0.12708446 1.5925813 -0.79116416 0.3344553 -0.55287427 -1.3712975 -0.91091555 -0.2184716 -0.29064938 0.23595487 1.1330247 1.7433072 -0.04644879 -2.002456 -0.013755821 0.34037733 1.5695648 -0.0890826 -0.5948754 -0.5196355 1.6906061 0.005107678 0.48677045 0.7026608 -0.9767413 0.6405927 -0.87717545 -0.83641595 0.031692855 -1.1018759 -0.7020412 -0.25495964 -0.18600869 0.7943891 -1.3231646 0.8440038 0.6064216 0.4639075 0.3816315 -0.21946384 0.10136099 0.06816092 1.7729707 -0.104051456 -0.24028623 0.57970273 0.08608726 0.8246282 -0.34673646 -0.65073746 0.46796215 0.6673947 0.7909287 1.1510944 -0.6425764 0.08427154 0.14699012 -0.3882009 1.1074159 0.866379 0.35828424 -0.00974818 0.48064712 -0.30769247 -0.9521828 -0.46007535 -0.5793909 0.43815684 0.03875405 0.5301064 0.22365022 0.37444675 -1.0241445 -0.8001535 -0.38458145 0.7202797 -1.3240321 -0.57746935 2.3189127 1.2065313 -0.24727759 -1.0739648 -0.7846005 -0.36166242 -0.40542233 0.22192228 -0.51838076 -0.7963859 -0.67698497 0.13353327 -0.21063583 0.5323116 0.5603522 0.3316476 -0.2245128 0.14038974 -0.8622815 0.9418256 -0.19295199 0.07411837 1.2633332 0.4590452 -0.041720714 -0.77888346 1.0559257 0.7501126 -0.0022601003 1.121378 -1.3852756 0.22698314 0.35181114 -0.2710406 -0.042061843 -0.9801011 -0.63441634 -0.15845804 0.27327815 -0.68345517 1.1660404 -0.60008276 0.747918 1.3496184 -0.3055806 0.20674601 -1.4267938
63 -1.5497698 -0.8874928 0.05630744 -0.7901543 1.2166632 -0.7817897 0.6995864 -0.85866 -1.1835608 -1.2336165 0.14412528 -1.1538032 0.15852351 1.3994615 2.0282726 0.58125556 -1.551699 0.123343915 -0.22503424 1.8297664 -0.30035266 -0.16448244 -0.30845764 2.3915944 -0.019189933 -0.096969835 0.08454148 -1.9461973 0.33818194 -0.6877638 -0.038712062 -0.8664323 -1.1136669 -1.246687 -0.7936995 0.14529921 1.000984 -1.6303021 0.5838224 0.6302915 0.30887398 -0.10704363 0.6876544 0.31015614 -0.76829076 1.9070352 0.14554346 0.14646718 0.96080923 -0.24657622 0.44970486 -0.8122794 -0.11476833 -0.16894756 0.15500239 0.54847574 0.69860125 -0.2967614 0.20887052 -0.05644208 -0.6356525 1.7869462 1.7679076 0.7126859 -0.41515648 0.39437842 -0.78483945 -1.9673704 0.58269423 -0.29386023 0.23724486 0.34152314 0.7489403 -0.10426855 0.25491965 -0.9854497 -1.4587041 -0.58489716 0.15186116 -1.7696238 -0.6601979 2.5318527 1.4390954 -0.5921034 -0.90631944 -0.7849694 0.08892098 0.90852135 0.36947417 -0.77700984 -0.48431826 -0.7510676 0.2635446 0.57827806 0.21654332 0.635937 0.03381874 -0.9557004 -0.1249497 -1.1789144 0.7129767 0.15106088 -0.45771202 1.8540471 0.7286133 -0.4879327 -0.54398125 1.721311 0.54195243 -0.50764364 1.3588345 -1.2449371 0.08678883 0.5450667 -0.83013517 0.6592867 -0.9790552 -0.72485346 -0.16911605 -0.12657763 -0.26067048 0.7984354 -0.91219914 1.416525 0.85892093 0.06293987 -0.096368074 -1.7706208
429 0.98793525 -0.55811256 0.5329281 0.36506972 -0.3816789 -0.46327484 -0.15419038 -0.5082968 -1.4712623 -0.58363855 -0.93629533 -1.3092452 -0.4018201 1.2624797 0.6029032 0.8475314 -0.62121654 -1.178501 0.907647 -0.22170024 -1.22237 0.07209336 -0.20170817 0.6888391 -2.0760221 -1.0683261 -0.536437 0.28511357 0.39088377 -0.069023095 0.24563408 -0.22113863 0.70165336 -1.1687812 -0.482069 1.0528159 -0.8679627 0.48139715 0.96720123 -0.6830961 0.5997123 0.4488236 1.4859356 0.16932045 1.3146217 -0.76034296 -0.7423148 0.4792865 1.463914 -1.5103134 1.3115147 -1.6091244 0.10950667 0.8820687 0.09227011 0.4832393 -0.2434581 -0.30664554 0.40347716 -1.0419047 -0.39388943 0.5184946 0.773152 -0.096983 -0.11712781 -1.4928615 -0.2586751 0.4916416 2.435833 -2.0275319 -0.99682033 0.35717073 -2.4381719 0.026580686 0.8567373 -0.16066682 0.99894714 -1.2611612 0.5419845 0.3680116 0.015534255 0.97709537 -0.97568446 -0.8780468 -0.17790893 1.4581885 0.080719024 0.17382708 -1.3508694 0.24012509 -0.41717666 -0.96790147 -1.4025377 -1.8065125 0.83037454 0.39488697 -0.15361293 -1.3984834 -0.57437843 -0.25093672 -0.4908048 -0.05400034 0.15358116 -0.5255993 1.3421961 -1.2752869 -0.123951815 -0.20282167 0.65852386 0.46472532 -1.0682017 -1.6770161 1.116231 0.22969581 1.3571365 0.5663553 -0.61953473 -0.9779899 -0.029202828 -2.0018578 -0.8646344 -1.3452079 -1.2397335 0.5092068 -0.82434577 -1.290776 -1.2671525 -1.4989469
360 -1.5854748 -0.23050603 0.17540587 -0.4925708 0.22145285 0.64204645 -1.3525804 0.1573559 -1.8149036 -0.32346922 0.08054725 -2.4556293 1.2545631 0.6624695 0.46243042 0.8008412 1.0104401 0.69384044 -0.55238587 -0.035612784 -0.7421197 1.2406267 -0.8879603 1.8441151 0.0054672942 -1.8981217 0.77012426 0.93194133 0.29085767 1.6129731 -0.5571555 -2.2589428 -1.0774987 -0.8299866 1.4226935 0.9896777 -1.3368752 0.94695336 -0.5420113 0.51833206 1.3484037 -0.3887734 -0.8992662 -0.6315555 0.14184196 1.5837449 -0.15308829 -0.34815073 -0.35852522 -0.56161153 0.6461222 -0.013208166 0.7455122 0.73727715 0.6394909 0.21216919 0.061818685 1.3931755 -0.06284514 1.1248697 -0.0062083984 1.5543367 -1.0307155 0.46297106 -1.0358008 -0.5598671 -2.1824894 -0.49217558 1.8843257 -1.495499 0.2019668 0.54581493 0.83344656 -0.76977456 0.703061 -1.3490047 -0.9669171 -0.63841146 1.7014875 0.30280793 -0.44093195 1.7633972 -0.763163 -1.0492252 -0.3579664 0.031243838 0.9863112 1.0797672 -0.47505975 -0.33668873 -0.31208575 -0.14334829 1.0822393 0.22592257 0.17490768 -0.24359618 0.4875677 0.18817265 -1.422035 0.96145356 0.717907 0.8202158 1.6262797 0.058360577 1.6053632 -0.9996612 0.18579786 0.7585287 -0.17829794 -0.57844734 0.13243367 -1.4644278 -0.33953714 -1.2995378 0.19032529 1.540033 -1.3178465 0.27878413 -0.11915911 0.3084922 -0.29084322 0.92335343 0.31611657 -1.3330505 0.6679098 0.3914345 -1.0460604 -0.17503354
201 0.0422272 -0.08360564 2.0564191 -0.6612588 1.1898854 -1.8060552 -1.1873379 -0.94599754 -1.608536 -1.5506285 -0.5896649 0.016885143 0.04683925 0.35173362 -0.3355732 -0.377997 -0.95464665 0.6784268 1.0131977 1.0291184 -0.6451489 2.9465244 -1.2870132 -0.08560756 1.6215786 -0.44687614 -1.4613266 0.8315248 2.0365434 0.53132325 0.26759952 -0.45105052 -1.5398529 -0.44665223 -1.7140481 -2.0876367 -1.3084903 1.236567 0.6498656 2.3746421 -0.8982687 0.33027738 0.44655862 0.96983176 -1.5393766 0.83771634 1.5300121 1.7938128 -0.2564829 0.21203575 -0.07664559 2.0733025 0.24898331 -0.3239349 -0.6154307 1.3920021 -1.0286889 -0.39362603 1.3303102 -0.72468793 -0.16076711 0.13197397 0.499677 0.122885585 -0.0038044772 -1.3864502 -1.5468749 0.1971956 0.13354951 0.99413663 0.604534 0.38046744 -0.8712133 -0.4967761 -0.36268994 -1.2707411 -0.5156046 0.28161025 1.1957229 -0.02218741 0.4602983 0.3011189 0.7100481 -0.965223 -1.8924555 0.8955913 -1.2792624 0.41917142 -1.0404687 0.61592734 0.491119 0.12459587 -1.3462526 0.30078793 0.71890247 -0.5108582 0.82958525 -0.52807236 -0.65324205 0.45743042 0.21385778 -1.4811684 1.5460923 0.73819727 -0.67072815 -0.12821856 1.2475324 -0.5339894 1.5415845 0.59437436 0.0039380845 -0.11630089 -1.6099106 -0.3012027 -1.9380716 0.015588187 0.28027532 0.30859977 1.4138895 -1.3379292 0.5785463 0.76231176 -0.30910888 -1.0413684 -1.0439267 0.83624077 -0.136772 -0.14207897
158 -0.9423602 0.37944737 0.33259162 -0.11879691 0.9650359 -0.7091167 0.7393632 -0.30123124 -1.4253829 -0.9718841 -1.0595675 -1.670926 -0.1930461 -0.55131954 0.81350756 0.54842216 -0.5492665 1.3041849 0.017959379 -0.20966645 0.4258011 1.6527798 -0.9154033 -0.26595944 1.0578563 -0.2916912 -0.43151194 0.5272273 1.6553665 0.7694773 1.5842109 -0.64614826 0.156101 -0.038353007 -0.12135337 -0.06252102 -0.40522388 0.14706063 0.67307127 -0.11858032 -0.28197545 0.41542912 -0.7228206 0.9312156 -0.104422025 -0.71079534 -0.30338615 0.5418677 -0.720586 -1.1620226 -0.37763837 -0.22296304 -0.27586648 -0.71652824 -0.36945385 1.0904988 0.59019625 -1.1118382 -0.57201535 0.7251259 -0.16466545 -0.2785891 0.64134866 -0.101164095 -0.34783274 -1.5609709 0.0018690035 0.7628092 0.8832309 -1.2475799 -0.61818165 1.2793279 0.12762408 1.5320531 0.09282157 -1.5799133 -1.9225357 -0.66122097 0.28625935 -1.0996343 -1.0101057 2.2876744 -1.4259337 0.47901398 -0.16293101 1.3849412 0.7749178 -1.7864864 1.2302452 0.7481046 0.6176905 -0.32294667 -0.24160743 1.2174015 0.22874314 -0.4351693 0.57491076 -0.016243435 -0.14049941 -3.641117 -0.9551668 -0.086724386 -0.062995896 -0.45801857 -0.06293676 -0.3809403 0.51503986 0.86313516 -0.55349404 0.38213924 0.6944222 -0.44305804 -0.6913923 -0.81054217 0.21638763 0.28661364 1.0987257 -0.22668615 -0.8511263 0.0024530534 -0.26054123 0.45027325 -0.16573192 -0.3069786 1.3643734 0.081061624 0.18180832 1.8017216
76 -0.76364106 -0.31425658 0.7593753 -0.800449 0.7354283 -0.4786878 -0.6299794 -0.06208153 0.24121238 -1.4156916 -1.5516119 0.49886778 0.5361635 -0.08455279 1.3655556 0.21847421 -0.72698694 1.2478693 -0.8721249 1.0636815 -0.57707536 0.6706323 0.123692416 0.61405176 0.24879082 0.8324941 0.048323393 -0.24293466 1.0991752 0.868175 -1.1498728 1.2511281 0.4576219 -2.084485 -0.81746495 0.4871606 -0.8684264 1.0616964 0.29631227 1.534284 -0.18043177 -0.7735766 0.70948905 0.5887385 -0.422974 0.58282983 -0.72861457 -0.20884734 -0.1159931 0.48023418 -0.18417719 -0.071154326 -0.71501523 0.9438393 -0.31004888 -0.56740797 -1.3537741 1.065455 1.3024656 0.99902976 0.3692554 -0.60352963 -0.20547283 -1.4450208 -0.8099962 0.01787078 -0.8248863 -0.93570256 0.11309862 -1.7494657 0.20600183 -0.24524178 -0.8333515 2.2713535 0.5277609 -1.4460927 -0.45404208 -0.457471 1.2700747 1.4278613 0.33041734 2.0537987 -0.30511987 -0.7664333 -1.9614838 1.1654478 0.99600905 0.100929104 -1.5678583 0.8536936 0.29273716 0.11687665 -0.7028068 0.48325828 0.02633987 -0.95141923 1.0300181 0.7885363 -0.7377808 -0.5128367 -0.6389862 -0.13807392 -0.71323 1.9943429 0.88388497 -0.8702188 0.63763386 1.616966 0.0073005646 -0.53572845 0.5410189 -2.019862 -0.6639011 -0.18967447 -1.5509248 0.39586434 1.0254996 -0.93636316 -0.25272143 -0.6209546 -0.59044254 -1.1562603 0.50920373 0.6949207 -0.8578563 0.88651365 -0.3693882 -0.04055053
151 -0.94280094 -0.069133885 0.7179555 0.51539594 -0.3181503 -0.21632025 -0.54695183 -0.10513631 -0.32259476 -0.8436089 0.08859713 -0.46323606 0.97062534 -1.2019428 1.8232006 1.4473674 -0.68176407 1.0346849 -1.3576986 0.15789586 0.9243697 -0.9842497 0.68035066 0.5400522 0.4617802 0.107241 0.61681885 -0.5865859 2.9565518 0.10884744 -1.4844085 -0.71307164 -0.033405527 -0.73233664 -0.8155045 0.37930232 1.0446918 0.6644241 -1.5789142 0.20251669 -1.0850607 0.3182851 0.7029311 -0.39049548 -0.7726007 0.2254745 -0.8803139 -1.1332818 -0.28989974 -0.40345767 1.6297002 0.6886705 1.0555261 -0.43555185 1.4760472 0.879177 -0.62774515 0.49047685 0.68690366 0.5567826 -1.0364945 0.43668085 1.3233341 -0.17086996 -0.22082168 -1.3335434 0.045804113 -0.37884003 1.0724425 -0.54898906 -0.70223826 -1.2689583 -1.0029577 -1.2665982 -1.5950952 0.07561709 -2.3196652 0.19545117 -0.7187927 -1.5341605 0.5076819 -0.29812986 -0.7493112 -1.0331764 -0.9161241 0.9510115 2.3522682 -1.0046142 -1.6544688 0.32396194 0.61677337 0.034598038 -2.3230538 -0.30655724 0.5516884 0.10207452 0.95305866 0.8350569 -0.74034035 -1.224111 -1.0549785 1.2406389 0.9476583 -0.2603346 0.45481905 -0.30594972 0.2299171 -0.12456484 -0.47599223 0.43038306 0.4547488 -0.005012505 -0.59629256 0.6159092 0.3908032 1.1690615 0.21775804 -0.58400726 0.4257823 0.70954365 -0.94091284 1.8547341 -0.5936628 -0.22774151 0.2221395 0.84250915 -1.1654764 -0.74283695
85 -1.2309986 0.7858292 0.34039354 -0.2966387 -1.9895684 -1.3773956 -1.2257624 0.72956896 0.26305494 -0.4687504 -0.4232278 -1.0297221 0.2688356 -0.1257863 -0.09465742 1.3283045 -1.1858242 0.95558953 0.77601725 -0.84437793 -1.9802691 0.32548165 -0.18759647 0.038732592 0.972108 1.005985 1.8224014 -0.27004123 -0.08168158 0.074487366 0.48165575 -1.1046829 1.0305535 -1.5947553 -0.18584067 -0.19946925 0.74091727 -0.08660125 1.263598 -0.4659639 3.0675225 -0.54572886 -0.79907155 0.2800193 -0.024957052 0.7400112 0.22433756 0.5330727 -0.09171344 0.19283108 1.107097 -0.8028709 0.24880207 0.0042099385 0.6124897 0.5207263 1.0755789 -0.66546035 -1.0377272 0.51318896 -1.7245682 -0.9443303 -0.90978926 -0.14170879 0.58547974 -0.043094255 -1.226583 -1.6515673 -0.5330206 -0.79080117 0.87787545 0.51839375 1.412018 -0.48318794 1.991425 0.7363171 -0.698816 -0.0361502 0.5006189 -0.65238714 1.9394436 0.16579565 0.34400868 -0.5393118 -1.2648945 1.8933573 -0.9990833 -1.155812 -1.1947823 -0.70109665 0.34538153 -0.7184787 -0.4177883 -0.15814732 0.7098587 0.04690196 2.0893462 0.6851674 0.70125943 -2.2662592 -0.55192095 0.47396538 0.81138915 1.9907488 1.2659239 -1.1809576 -1.8678963 -0.6402497 -0.17434238 -0.6753979 0.03387411 0.18303981 0.23016569 -0.38676944 1.0374556 -1.0500016 -0.9853317 -0.7420876 0.21404831 -1.2004856 -2.0235715 0.022073662 1.493394 0.19433933 -0.5169388 -0.3582581 0.7136369 2.501575
466 1.2766871 0.09298227 0.61017203 0.49633485 -1.0284641 -0.4302479 -0.2594723 0.56665635 -0.5122729 -0.1049826 0.34226614 -0.8157051 -0.48257628 0.6260474 0.6356479 0.24468887 -0.12682192 -0.45255992 0.6553993 -0.046248466 -0.27725416 0.06116983 0.1902431 0.2115719 -0.96905494 -1.0452949 -0.85619515 -0.26774815 -0.03237684 -0.31182703 0.82645446 -0.6598148 -0.014483316 -0.9005654 0.29373536 0.894444 -0.48965886 0.6916791 0.5912972 -1.1597759 -0.2693972 0.43085 1.2560074 0.38521674 0.39358008 -0.19093066 -0.7157606 -0.00994123 1.1298845 -0.97654533 0.48733854 -1.3905863 -0.10799631 0.8859195 -0.49606848 -0.06403708 0.20329608 0.120155215 -0.11447462 -0.20652846 0.4282667 0.12384065 0.49284247 0.6496037 0.08467547 -0.8957395 -0.29601055 0.88183475 2.1894364 -0.87081397 -0.84282863 0.62943965 -2.2185524 0.8214736 0.13558288 0.56968284 0.7391574 -0.5445667 -0.26086488 0.93008167 0.23233515 -0.39884666 -0.89495033 -1.053334 1.123058 0.19233352 -0.30220205 0.3766653 -1.2847457 0.08661762 -0.88929456 -0.92162156 -0.5447855 -2.0888698 0.86816096 -0.61120105 -0.056546833 -0.73282313 -0.025686383 -0.3489977 0.014635977 0.26312357 -0.53244853 -0.32516283 -0.054917317 -0.9702926 0.69492185 -0.047616746 0.2510043 0.12373043 -0.3844353 -0.550933 0.85731155 1.2112145 1.3674463 0.22328317 -0.75004953 -0.550602 -0.12843782 -1.4012003 -0.23228757 -1.3968163 -0.5149643 0.6355673 -0.2282491 -0.179762 -0.9506765 -1.142341
297 -1.310869 0.64977443 0.7573966 0.8981908 0.37504634 -1.0694332 -1.2976477 -0.537846 -0.056864586 -0.82323784 -0.88199085 -0.8321669 -0.39498475 -0.69909614 -0.38824415 0.5602074 -1.5146092 -0.16254099 0.16003305 -1.1767982 -1.8680352 0.38662207 -0.97328025 1.3404598 0.1661675 -0.9813715 0.32955557 -1.348653 0.7317036 -1.4852302 -1.1873001 1.8029916 0.44456947 -0.30051962 0.27727798 -1.3762516 -0.8070652 1.1488292 0.3256455 1.2142804 2.1546433 1.3276054 -0.5832162 -0.38394722 0.195034 -1.7404895 -1.1692214 0.43078437 1.1584895 -1.1856117 -0.17628132 -0.25561416 -0.16657233 -2.0046117 0.13728216 1.2993054 -1.350378 0.10393629 -0.07960315 -0.8665964 -0.2505625 0.4506562 -0.0014655474 -0.014065565 -1.6411728 0.67288333 -0.9504257 -1.3198509 0.16722378 -0.33572304 0.38142303 -0.44561654 -0.47091532 -1.0402155 0.9289152 -1.1225226 0.2962918 -0.8415572 0.9370252 -1.0633483 -0.7040182 0.4129205 0.33735365 -0.91522074 -0.18291056 1.0452857 1.9518871 -0.54550165 -0.05236698 0.3659622 -0.06745516 0.22826459 -0.5495782 0.8060379 0.20676494 0.79766893 -1.0715861 -0.9321775 -1.0322564 -0.70417494 -0.34057596 -0.1762992 1.7462934 -1.3838425 -0.62938565 -0.45413342 0.7854089 -0.7904866 -0.1704862 1.2308623 -0.021300662 -0.44447985 0.33720177 -0.7461203 -0.17241146 0.105729274 -0.8653989 0.0017388461 -0.96916807 -0.47222334 -0.51816446 1.7716953 -1.3628025 0.85046405 -0.29592228 0.7146666 -0.76451474 0.058170605
160 -1.515629 -0.1783297 1.8567638 0.16958572 1.1428225 -0.73352504 -0.028042454 -1.13966 -1.366455 -1.3345498 -0.11855569 -1.2719777 -0.5470954 -0.96494174 1.134489 1.3162656 -0.6749381 0.6924089 1.3080326 1.0794169 -0.35123864 0.7166127 -0.49326387 -0.5360062 0.4663666 0.19635364 1.2662885 0.7977484 2.384039 -0.72507954 1.3606224 -0.30052835 1.6985363 -0.72610444 -0.6466107 0.22659405 0.012240949 0.39657113 -0.013630913 -1.0560218 -0.06893236 0.7379885 0.881823 -0.7307178 -0.21931499 -0.48504233 -1.3927747 -0.5585676 -1.158556 -1.3653244 0.019987542 0.38632816 -0.43575013 -0.43812385 -1.4425385 1.3534976 1.5854857 -0.6656359 1.2657983 -0.05394624 1.4799857 -0.543102 0.77759016 -1.1849768 -1.0605546 -0.9224265 -0.9355228 0.39435014 0.7175069 -1.2888138 0.05538431 1.9121503 -0.054040376 1.0680188 -0.5747331 -1.7288116 -0.7160712 0.55144656 0.5160968 0.3026018 0.18646848 1.7173088 -1.1391524 -0.79047734 -0.48260093 0.23887672 1.0539037 -0.79193014 0.6768535 1.1950421 1.3285377 0.35054868 0.582767 0.7151301 1.1490595 -0.56466424 -0.24677639 -0.3344893 -1.4788022 -3.240011 -0.3904896 0.5136146 -0.44442376 -0.78618324 0.5222086 -0.92334324 0.35100678 0.37317675 -0.8945744 0.06772837 0.21935676 0.11974933 -1.2018838 -0.93857884 0.23502438 0.8158541 0.0888532 0.8013443 -0.6306369 0.2873101 -1.9353802 0.55275995 -1.1126206 -0.8471918 1.4069684 0.03693644 1.0216861 1.5529574
66 -0.79215723 -0.18869741 -1.4138258 -0.36117205 -0.7492357 -0.34620395 -0.5652777 -0.1284592 0.4819036 -1.3025066 -2.095666 -0.83953786 0.7340935 0.7495292 -0.1415348 0.98058444 0.6641874 1.0602334 -1.5739738 0.26641184 -0.1521252 0.657706 1.2343013 0.106791966 -0.019784536 -0.07279506 -0.15043354 0.6582955 0.10630706 0.160259 -0.04781093 0.5036342 -0.129068 -0.43034226 -1.0576355 1.4972342 -0.96426356 -0.17502046 -0.032516167 1.7379414 -0.6885896 -1.1741606 0.48121962 -0.06184942 -0.16115734 -0.21120365 -0.036078792 0.001394625 -0.2830923 -1.6748164 -0.9942171 0.5904554 -0.67863053 -0.2488972 0.46692216 1.776559 -0.88666517 1.7064091 -0.33889884 -0.18581578 1.316008 0.17021565 -0.8904848 -0.7207176 -0.049052782 -0.39629674 -1.5429927 -0.48110852 0.2411109 -1.2711211 -0.30644247 0.5376288 -0.3533187 1.1345272 0.7509127 -1.7727154 -0.69189274 -0.18067107 0.8362183 1.3102839 0.63676476 0.67945457 -0.32776412 -2.0550566 -2.797132 1.9822953 0.6273185 0.83746445 -1.4279706 1.1626586 -0.27982876 1.0447663 -1.140783 -0.08797799 -0.6917854 -1.3610016 0.43406284 0.2849682 -1.5575247 -0.2612437 -0.16606443 -0.31926924 -0.2736774 0.6008003 0.41989475 0.16662773 1.7197767 1.2222296 -0.25321394 0.21781915 1.1800442 -2.008425 -0.573953 0.12296698 -1.4858663 0.84345996 1.045684 0.55088824 0.09055502 -0.18802209 -0.12262093 -0.27653176 -0.60879195 0.22200137 -0.35181305 -0.24494311 -1.2006683 1.0685462
468 -0.8869528 -0.4091087 -0.20938699 0.2980329 1.2481512 -0.49968955 -0.8610693 -0.56804717 -0.32741606 -0.361751 -0.091895685 -1.9151341 -0.47655666 -0.4553465 -0.9869594 -0.21021512 -0.021710642 0.117442355 -0.45908815 -0.71293324 -0.569023 0.14930694 -0.6358193 0.38381243 -0.8728811 -1.3135781 0.30601895 -0.60306203 -0.6673149 -0.7093023 -0.6997747 0.6634359 1.1854174 0.36844438 0.72134805 -0.74803555 -1.6627743 1.2969688 -0.70836455 0.26620993 1.5122446 0.589234 -1.0637544 -0.2932612 0.02609008 -0.31683406 0.6137908 -0.663056 0.6641252 -0.3587118 -0.48754472 -0.75250906 1.0095475 -1.0476676 0.11562192 -0.20119023 -0.48620713 -0.41543233 -0.52556896 -0.035683755 -0.18346629 0.54737157 -1.3190507 -0.024740199 -0.7664972 0.38262656 0.024100237 -0.3773571 -0.88488936 -0.2246571 -0.77504086 -1.109857 0.59734243 -0.5972693 0.41437194 0.5043059 0.035847053 -1.3528074 1.0130467 0.5032355 -0.7273757 0.44652778 0.13049217 1.1406198 -0.2523932 -0.22328864 1.209487 -0.10422362 0.5211124 0.34505928 -0.7400102 0.20816438 0.64045984 0.5071484 0.26846454 0.18190953 -1.229517 -0.2914771 -0.89786696 0.03189575 0.13641429 0.1044408 1.6612579 -0.76881236 0.10762736 0.26264358 0.33288103 -0.38990068 -0.2525483 0.6117362 0.012948417 0.34117183 0.3826024 -1.2027007 -0.5200254 1.1201315 -1.317772 -1.0186026 -1.4853743 -0.19869672 0.4868285 1.1695112 -0.6336899 -0.026433554 0.039642636 0.39765608 -1.2468479 0.41665742
155 -0.53722507 -0.04457983 -1.3949577 0.026167877 -0.27657235 -0.5993368 0.7766857 -0.72338444 -1.6750816 -0.72466636 -0.28056547 -1.0717554 0.5448194 0.22063988 -0.35760045 0.36212295 -1.4702072 -0.059153084 -1.239338 -0.25932038 0.5465974 0.69979316 -0.81032544 -0.46556064 0.39936644 -0.025101483 0.6403454 -1.3578161 0.5527621 0.48029405 -1.0976833 0.005848287 -0.106143825 1.2582607 -0.22055529 -0.8140962 0.06984025 -0.3302169 -0.41220033 0.42671528 0.44615376 -0.0023793809 1.218556 -0.92270404 -0.9203762 -0.132672 0.00050260045 -0.5195466 0.3368968 -1.5148598 1.3108966 0.35454938 1.2056901 -0.6009235 0.84153825 0.23533788 -2.2932196 0.06547562 0.26360586 -1.2573332 -0.81080323 -0.5284722 1.3122903 -0.4353735 -0.28819665 0.368324 -1.1588002 0.7333551 0.6227868 -0.92698705 -0.06816258 -0.6414149 0.38986582 0.7877563 0.39184555 0.36834112 -1.4769746 0.6963894 1.2803214 -0.20195399 0.30423188 -0.7717942 0.46276596 -1.5241485 -1.6051399 -0.79983723 2.0999296 -0.9912769 -2.7776158 1.2005254 0.24339548 -1.8865021 -1.7490536 1.2901747 0.47314674 -0.57144845 0.8704789 0.9308208 0.9590009 -1.2632773 0.8002628 0.34304625 0.69193506 -0.10402587 0.9871267 -1.2938917 -0.25996113 -0.21885675 -0.5271539 0.27937686 -0.13867573 -1.0867709 -0.86652887 -0.7042971 -0.9368267 -0.3956029 0.8642609 -0.97740066 0.9579221 0.61478233 -0.47500333 1.3078926 -0.7779027 -0.07996559 -0.26266664 0.28557634 -0.77865374 -0.67666906
125 -1.5730493 1.3582991 1.2105619 -0.5080404 -1.3903205 -1.5924034 1.6215125 0.73660797 0.85706675 -1.1798553 -0.041349042 -2.5873315 0.5507059 0.35719615 0.50178045 -0.8328076 1.1159724 -0.29932922 0.10550291 0.25372952 -0.2885589 0.5160601 1.3331445 1.409025 0.5706164 -0.8271007 -0.47205988 -0.08711327 0.72645605 0.4768919 1.9934546 -0.49070922 -0.18718837 -1.4479833 0.57232887 -0.7160589 0.39923766 0.9846988 0.34107742 -1.3326238 -0.16606444 -1.1625761 1.3363872 0.8953672 -1.872306 -0.87168956 0.47781408 -0.0838548 1.0607938 -1.9369658 -0.07086751 -0.9704185 0.43563953 -0.6469193 -0.45783943 -0.98522735 -1.2320741 -0.05079488 1.215763 0.015909377 0.40698168 0.3362628 1.1698399 -0.012515349 0.29504162 -1.227295 -0.61576575 -0.10459392 1.0082589 -0.77481425 0.6232442 1.5437615 -1.1037881 1.3639457 0.24290396 -0.9422216 -0.40450737 0.009238146 -0.22233193 -0.005840104 0.91548985 -0.050889637 -0.7303651 -0.75736773 -0.95085764 -0.044829033 -0.47406724 -0.24096192 -2.1937735 -0.55664474 -1.7150681 -1.3718189 0.41299766 -1.5720663 1.2165673 0.07934444 -0.4324897 -0.16712905 -1.306777 -0.2777726 1.567589 -0.47723928 0.08923879 -0.12718327 0.1161086 -1.8747792 1.0184629 0.40212518 -0.31058347 -0.11921912 -0.74859226 -2.100855 0.13081568 -0.12562364 0.8883484 0.22325571 -0.29251418 0.077275194 0.75747085 -2.1495771 -1.7092546 -1.637687 0.39358518 1.2674567 -1.008766 -0.74589896 -0.8031899 0.82570857
107 0.5288429 -0.014213273 0.56871027 1.341605 -1.802033 -1.658619 -0.47677004 -0.25935507 0.874485 -0.9008674 -0.9384126 -2.5924973 1.4050745 0.19334726 -1.6178634 1.219989 -0.8806045 1.5206732 0.86392874 0.0043358207 -1.0063913 1.3698448 -0.50875086 0.1890823 1.6242185 0.4781769 1.4623518 -0.3167106 0.6468535 0.93712395 0.75496906 0.49313018 0.29582638 -0.29974347 -1.6428871 0.042684894 -0.033489875 0.33400485 -0.28869388 -0.19109805 0.95296973 -1.3075798 0.08963891 1.3418555 0.44004682 0.22460714 -0.19999325 -0.02557191 -0.14814639 -0.34041476 0.08337703 -0.9866052 0.093488336 1.192825 2.370364 -0.13079022 0.39018372 -0.5684646 0.17181547 1.1081518 0.1536515 1.60517 0.54548943 -0.3487817 -0.99217296 -0.47844988 0.21991317 -1.5799638 -0.10617724 -2.1020737 0.53104407 0.37286183 0.58729196 -1.0566391 -1.0015349 0.0262031 -1.1337771 1.1678116 -0.14967553 -1.3662031 0.66333497 0.38866302 1.8454442 0.36894596 -0.36476332 -0.15836442 -0.58905643 -1.1902753 -0.6587754 0.44949543 -0.73262435 1.1909627 -1.136223 1.1384562 -0.613502 -0.19025198 1.8401841 -0.9601651 1.5922914 -0.58357847 0.41503945 -0.4059442 0.8192288 0.90030056 -0.0582463 -1.6967431 -0.92662716 0.8379783 -0.8803334 -0.6945578 0.10326512 0.5737784 -0.8062944 -0.05935103 -0.2590571 -0.18601736 -0.80929327 -0.17402817 0.42622694 -0.58397895 -1.4844245 -1.2044662 1.2215437 -0.6579397 -0.7422145 -0.30760628 0.5346674 2.5167105
81 -0.76626384 0.3415078 -0.99836624 -0.48568195 -0.090003714 0.9098989 -0.39060196 -0.41602084 0.30345222 -0.18176681 -2.7004528 -0.8517518 -0.59338504 -0.5865743 -0.30502012 -0.28197312 -1.2465259 1.2395703 -0.10466263 0.6016762 0.50253606 -0.8223389 1.092277 -0.75732255 0.40850297 0.45450443 1.8572192 -0.02660857 0.9592259 -0.62240934 -1.0026307 0.5425521 -0.479819 -2.0817688 -0.46770257 0.52503747 -1.0044599 0.7202262 -0.2531668 1.4977771 0.5687038 -1.1122171 -0.47143665 0.23561971 -0.64612764 -1.418056 -1.3904219 -0.4779447 0.5803519 -1.5632355 0.30406448 0.24483834 0.49207285 0.81424683 -0.08782964 2.5839927 -1.6025888 1.097776 1.0404972 1.2426066 1.6008917 -0.91694534 -0.33325717 -0.8346817 -0.44122174 0.82809246 -0.37628338 0.5334117 0.60023767 -0.7064316 1.1766912 -0.01738168 -0.23124146 2.1862748 0.2583536 0.03507833 -1.0209608 -0.25599745 1.6020107 1.7076529 -0.7980777 1.597655 0.9261551 -1.8074969 -1.0110215 0.5274851 0.7239914 0.3563847 -0.28454974 1.4704744 -0.24790578 0.016217709 -0.9452415 -0.6281754 -0.8555729 -0.4527241 1.6062205 -0.10382603 -0.6150626 -1.5977411 0.59857035 -0.52580196 0.4996599 0.8430823 0.3421287 -0.17197801 0.61204964 1.7469338 0.2981615 0.09609172 0.8448834 -2.1651187 -1.1863883 -0.41543913 -2.7878659 1.5766535 1.317962 -0.22206797 0.5663855 -0.36774644 0.25668672 0.35557005 -0.6586809 0.52970326 0.23975842 0.69179994 -0.80867404 1.0032806
8 0.24777092 0.38747188 -0.7580303 1.2084374 0.8554713 0.6190118 1.2365245 -2.184767 0.7515022 -1.0425272 -0.36719668 -0.74121743 0.9169827 0.7695888 0.43031234 -0.25254014 0.22575054 -0.048774116 -0.48847452 0.027330687 0.03624438 0.6246698 -0.3478861 -0.88822657 -0.503445 -1.494617 1.7435291 1.395044 1.6879022 -0.32772726 1.7188022 -1.0991541 0.06265396 -1.25093 -1.0955168 -0.6893592 1.8442851 0.21089818 -0.68290085 0.87265724 1.3962532 0.45361137 0.22216482 -0.29278174 -0.46335328 -0.26272908 -1.4676683 0.39229482 0.27704972 -1.1454976 0.26098052 1.2532111 -0.41890422 0.56425047 -0.34969744 1.0035337 -1.1737384 1.0948603 -0.51297706 1.1386223 -0.0922015 -0.21074334 0.044134483 -0.58350897 0.046558563 -0.31582963 -0.60793763 -0.98688847 -0.56447804 0.81846565 -0.38314837 -0.28554454 0.702865 -0.9295981 -0.80627376 -2.2895796 -0.6203618 -0.9394166 0.83735675 -0.7614232 -1.1649882 0.24122381 -0.4137951 0.7065482 -0.23579197 2.1619391 -1.2053231 0.32394823 -1.2044497 -0.32537034 1.2921368 -0.88538605 -0.15485162 0.5817419 -1.8676299 0.11085249 0.23709844 -0.55187756 -2.0835605 0.029410642 -0.20712346 0.735369 0.03725031 -0.94461375 -0.30164993 0.7709169 -0.10484508 0.63716245 0.39733225 -0.3242198 0.37716797 -0.006538229 1.0810859 -0.16062924 0.118315384 0.3505641 0.2767508 -1.4476436 1.9037474 0.69939387 -0.4621798 -0.04008008 -0.85987973 1.0317498 0.10717157 0.40115207 -0.8746316 -0.12002314
94 0.14735788 0.03695341 0.9811383 -0.50096875 -2.6476574 -0.92706406 -2.227299 0.6685144 -1.2291998 0.37132123 -0.46130246 -0.59211636 -1.1633251 -0.77718544 -1.2290654 -0.7015306 -1.3690547 -0.16390693 0.78181076 0.78244895 -1.8757505 1.0141239 -1.119217 -0.62382877 0.999445 -0.0109642185 0.97446954 -0.11442567 0.4205122 0.17911288 -0.4929224 -2.0246708 0.9690289 -2.328653 -1.2947121 -1.9609803 0.18636994 -0.99987775 0.24282017 0.82155854 2.082155 -0.5713909 -0.21147318 1.4124769 0.45283717 0.5741291 0.13567339 0.18395878 -1.1544647 -0.93981457 1.4248518 0.21056351 0.4761908 0.3646283 -0.3466702 1.3894745 0.52234095 -1.2711971 -1.4601417 0.41467556 -2.1054235 -0.073387854 -0.5861733 -0.8523588 -1.062254 0.053529806 0.7875868 -1.136278 1.4097402 0.037998725 0.29815245 -0.950188 0.09232004 -0.1833781 1.5685086 -0.00667183 -1.4146141 0.6176782 -0.38885805 -0.13223518 0.13911949 0.43205756 -0.10651978 -1.5786302 -0.7117754 0.40225792 -0.40600488 -0.06879403 -0.39619505 -1.3158693 0.082146384 -1.0274272 -1.4101758 0.44611862 -1.460295 -0.57089216 2.286472 0.40509534 1.4941874 -0.82044965 0.19091304 0.34477308 -0.19160333 0.54692024 -0.0063123987 -0.30501878 -0.92464304 -0.6628773 1.2392368 -1.061463 -0.5318524 0.03936035 0.25633928 0.0126348 -0.7515826 -0.6666988 -0.9023908 1.1040965 0.30037257 -0.18529402 -1.8634682 -0.060053665 0.08874532 -1.0868694 -0.017291028 -0.33417806 -0.06446383 1.8543719
400 -0.6531278 -0.86741287 0.1170291 0.35824537 -0.76529914 0.19369869 0.12826788 0.17238206 -0.24733444 -0.13178246 -0.34622204 -1.6305013 -0.0015117459 0.8705069 -0.72955364 0.009791273 -0.5319878 -0.057643272 0.36152324 1.7647654 -0.727703 0.32491115 -0.59361553 1.2752417 0.98122644 -0.17795423 0.09801081 1.1167994 0.2532358 -1.0126967 0.7301151 -0.39526176 -0.7893733 -0.07228653 -0.1712692 0.51736844 -0.23944314 -0.0077280183 0.6666974 -1.3216488 -0.7980517 -0.22175422 0.3211311 0.66422963 -1.2003826 0.21010526 -0.60574466 0.3004487 0.7878533 -0.24716465 -0.70112854 -0.6627784 1.1868033 1.0887823 0.03585302 0.3990854 -0.684997 -0.51436144 0.7832638 1.0018584 0.1646699 -0.7784144 0.4355047 0.6339175 -0.8975417 0.41683614 -1.5890825 0.7114467 0.9532074 0.07367072 0.28227988 -0.005251349 -1.6042578 -0.46063402 0.41207668 0.18420939 0.057644475 0.7185228 0.6239351 0.5624044 -0.18142116 0.25367737 -0.090688236 -1.653498 -0.9434616 -0.29321134 -0.4682794 -1.023993 -0.24451512 0.0694259 -1.2020614 -1.5986358 0.30141324 -0.26753783 1.9400098 -0.32178766 0.67832816 1.0791034 0.015954154 -0.41533557 -0.40833294 0.20856205 1.8777536 0.40144944 0.049161136 -0.25446907 1.2375228 0.63486534 -0.60243106 0.0040073087 1.3479697 -1.0345852 0.028141 -0.40078992 0.24917111 1.3076118 -0.72450644 -0.2576263 -0.63823485 -1.4591508 -0.59273607 0.4802656 -0.41773388 0.17896138 0.82734543 1.1884831 0.07142083 0.7555315
116 -0.87934756 0.15375796 1.1507583 1.3955405 -0.14184624 -0.47292793 0.65247476 -0.76757175 0.7842778 0.20521939 -0.8402751 -1.953369 0.061930187 -0.010624356 1.4440588 0.5374865 -0.4268467 1.0710872 0.61624306 -1.0990007 -0.5829731 0.13188256 -1.0498792 0.84465307 0.9405048 0.71054596 0.16756828 -0.24554308 -0.12789685 0.90492314 0.023738723 -0.02772631 -1.628059 -0.5310095 -1.4702309 -0.8406907 0.6458482 0.42493263 -0.28563684 0.51169175 1.4961194 -0.6812149 0.36194816 0.018371323 0.3106857 -0.08427181 0.8616565 -1.5156275 1.1689526 -0.8293653 -0.062105585 0.3899792 0.16894497 1.4764013 0.45554054 -0.39842433 -0.06051158 -0.65895545 1.9564834 0.114460066 -0.12315328 0.18859404 0.63777184 -1.6231936 0.5404084 -0.19310978 -2.1761646 -0.34347746 1.0780329 -0.59731525 0.385185 0.5301891 -0.089415506 -0.3957063 -0.65734166 0.03381488 -0.06935629 -0.15948202 1.6565944 -0.39390278 1.2539243 1.6606468 1.3436311 -0.6785007 -0.5700523 0.34839168 0.21921563 -0.08056291 -0.8229197 0.42180166 -0.0911596 -0.23648639 -1.7593153 0.3470644 -0.39054152 1.760259 0.98531884 -0.026741965 1.3320944 -0.4167082 0.15959372 -0.20852318 -0.024990473 -0.8624504 -0.691536 -0.642794 -0.0682811 0.7210223 0.6987466 0.5207583 0.25383657 -1.0884981 -0.995266 -1.7328899 0.9747633 0.97329515 0.45750904 1.9717468 -0.38579124 -1.8426764 -1.1850805 0.6362437 0.33233973 0.5691065 0.15457493 1.0296164 0.6530274 0.5947169
139 -0.34220678 -0.34742957 -0.95003885 -0.3200809 -0.007185338 -0.06750704 1.1264449 0.5772647 0.77036554 -1.0797294 -0.0761108 -0.43217906 0.8849478 -0.11608479 -1.046207 0.08306866 -1.3849967 0.06178294 0.96449095 0.93940175 -0.80620784 1.0774212 -0.703033 0.041373022 0.546079 0.59258336 0.13529716 -1.158996 1.517647 0.70674914 -0.7340156 -0.00070145994 -1.3205491 0.8368346 0.30948934 1.3849947 -0.060611263 -0.819048 -0.6865778 2.0916643 0.11334803 -0.025868852 -0.97894865 0.751364 -0.19948384 -0.24602774 -0.87979525 -0.9952533 -1.6712686 -1.2429031 -1.1392472 0.59293497 0.1756012 -0.6554187 -0.1695476 -0.31604493 -1.8721083 0.0908725 0.5083134 0.5098317 -0.75470096 0.52411586 -0.70658493 0.888653 2.120368 0.91910076 -0.8683573 0.7715951 2.396008 -0.48251292 -0.27282402 -0.20678143 -0.15216303 -0.22477758 -0.6744063 -0.6223834 -0.053370487 -1.3522501 0.7500725 -0.530453 0.5497582 2.6042268 1.9861331 -0.18052724 1.033746 2.132464 0.54841375 0.52849776 -1.1417961 -0.5563813 -1.5124054 0.42835033 -0.13004862 0.8605162 -0.12466214 -0.3221265 0.13910367 1.2853122 -0.121144764 -0.7402465 0.20439476 0.7290884 -0.41181874 -0.46833482 -0.92717576 -0.17470628 0.060146056 1.3076996 -0.8575254 1.4633074 1.0104296 -1.4902959 -0.30553564 -0.7907628 0.090237185 0.67623353 -1.3375434 0.1355071 0.17430687 -1.1876851 -0.8026711 0.09065804 -1.3443799 -0.738667 -0.7045749 -1.3438681 -0.27205083 1.4215184
418 0.5554497 0.41113842 0.4793419 1.1430079 -0.027500104 -0.45226324 0.6432705 0.020445144 -0.1947059 -0.13241385 -0.03404226 -2.7541966 0.27037773 0.37078357 1.5987406 1.0850899 -0.2912579 1.2055266 0.5107994 -0.10827271 -0.22727568 0.84945357 0.40243918 -0.71342367 -1.0629991 -0.5968295 -0.4556269 -0.76100564 1.3841659 1.146542 0.8237295 -1.072137 0.16661155 -1.2416463 -0.038790192 0.058366425 -0.64876384 1.1863458 0.68320876 -0.6252682 -0.062707596 0.44466808 0.881122 -0.44735622 0.6547534 -0.7295233 0.0062478515 0.23414561 0.7947816 -1.3471478 0.9913721 -0.71185553 0.0009175417 0.55997723 -0.50192416 0.9125831 0.4900569 0.36360368 0.4208469 -0.08063022 0.6583871 -0.6204368 0.10597817 0.21922326 -0.47063094 -0.8860117 0.18618904 0.11176996 1.943662 -0.59347713 0.46480075 1.8612337 -0.93388903 -0.19422588 0.5202677 1.2273781 -0.98844105 -1.041183 -0.97972226 0.08583348 0.75706124 1.4409562 0.0059541827 -1.5574476 0.95887506 0.86294025 0.6505443 0.388419 -2.5122461 1.0850462 -1.2349948 -0.43775716 -0.34001112 -1.2488458 -0.8121753 -0.14775313 -0.3055118 -0.28943 0.8583416 -0.9995511 -0.27997503 -0.0067008827 -0.100585215 0.24687283 -0.05800465 -0.8734602 -0.033756837 0.047089472 0.714852 -0.31165794 0.806009 -1.5852928 -0.1570305 0.25827363 1.0948409 0.99435943 -1.6101277 0.5514951 0.49259108 -0.051481057 -0.05795528 -0.8956425 -0.93121606 -0.36977962 0.5011559 -0.3536986 -1.5563952 -0.05306647
206 -1.0856726 -0.32618153 1.3134661 0.6945013 1.5667293 -1.0050793 0.38547215 -0.47321975 -0.81397045 -0.9021629 -0.17004853 -0.10664253 0.20245557 0.3167233 1.6527843 0.2283911 -1.417757 0.23119773 1.1242365 0.90203446 0.10742132 -0.9467346 0.21349882 1.0412462 -0.091712795 0.34007818 0.5636012 -0.75389093 1.1429586 -0.45844942 -1.1794091 0.45453763 -0.815972 -0.43171018 0.8214766 -0.4637013 0.24867919 -0.7307634 1.3066987 1.1373545 0.76425874 0.48314562 0.1768045 0.0397841 0.5784233 1.4143 -0.3869146 -0.5998179 0.87817866 -0.4379242 0.14934017 0.1988433 -0.11295495 0.8861248 0.32442036 0.97345716 1.5196849 -0.47077194 0.18711463 -0.48225275 -0.7770835 0.7760103 1.1006842 -0.1892706 0.10850814 0.4627529 -0.8529629 -0.71396273 -1.5534865 -1.4064934 0.16167599 0.40165636 0.12351665 0.5423987 0.011788105 -1.6901743 -1.3197107 -0.8771999 1.2008183 -0.32722253 -0.9627267 1.9683348 0.55300856 -0.110220104 -1.436847 -0.71367115 -0.046380356 -0.104833454 -0.32719302 -0.42618918 -0.6629492 0.2172952 -0.79556 -0.59488916 0.62399906 -0.056477457 0.7831652 0.2063182 0.4383624 -0.36996916 0.43328673 -0.30617 0.7440155 0.51424176 1.3912972 0.34505773 -1.3340662 1.5700173 0.418479 0.08179716 0.82231504 -1.6583424 0.1756383 0.15589245 0.4732458 -0.09247282 -0.50504404 -0.72510695 0.1295998 0.5873459 -0.6759897 0.6065263 -0.55361867 0.6989851 1.2722583 0.61071384 0.51214767 -0.24655035
11 0.24263622 0.19056249 -0.473391 0.9747977 0.8744191 0.5954626 0.7762491 -2.2197156 0.76979244 -1.2035848 -0.47762302 -1.3030612 0.8948159 0.5550428 0.6179122 -0.43974534 0.32824668 0.440446 0.03828261 -0.04459732 0.57679445 0.8393649 -0.41107956 -0.6414323 -0.7338548 -1.3555423 1.8189491 1.0907805 2.0109918 -0.17288049 1.4367648 -1.1941408 0.1823841 -1.2388349 -0.9793785 -0.6204263 1.4094223 0.4086296 -0.80919105 0.8711194 1.2402285 0.428889 0.11644236 0.14117724 -0.46503302 0.17308357 -1.6433153 0.2670537 0.4164857 -1.1361364 0.30076605 0.7362307 0.1732541 0.26564455 -0.16218634 0.65254146 -0.8399556 1.1019887 -0.36924356 1.0132239 0.11990075 0.013728349 0.20992969 -0.5073537 0.44032943 -0.19774559 -0.79258573 -0.8721814 -0.25834775 0.27220735 -0.2308136 -0.44077808 0.39217737 -0.6061864 -1.1960756 -2.1461308 -0.5313861 -1.1082312 0.7543582 -0.6566718 -0.7919336 0.24490073 -0.3578955 0.9014496 -0.8777492 2.2592506 -0.99130136 0.029454462 -1.2100755 0.044042394 1.0850136 -0.9190635 -0.5461057 0.6692629 -1.7403376 -0.021603938 0.3472395 -0.64664537 -1.954333 -0.18525371 -0.14846875 0.65739745 0.4246674 -0.90868735 0.025880061 0.5885205 -0.039039075 0.25482062 0.38490692 0.43290094 0.2625387 0.13503072 0.50866836 -0.34399226 -0.30371305 1.0300233 0.05375774 -1.6266704 1.5392785 0.41189647 -0.72624123 0.12685685 -0.89026356 1.068048 -0.30679503 0.07257202 -1.2233045 0.17031418
272 0.21541584 -1.3911387 -1.1752703 1.1118634 0.07246158 0.9425791 0.15026517 -0.9868392 -0.3974194 -0.38163048 -1.9733913 -0.0123503795 -0.54256076 0.3309358 0.37967774 0.24492207 -1.2831974 -0.5557665 -1.415707 -0.013887194 -1.5028791 -0.23739202 -1.304399 -0.27590865 1.6594282 -0.13594472 0.24998328 0.8172378 2.000617 -0.08185981 -0.7150597 -0.17200136 0.6574222 -0.043994594 -0.2517793 1.9769871 1.5787635 0.28519806 -0.4187159 0.107051045 1.8783809 -0.13340484 0.8790862 0.017368166 -1.368182 -1.2158344 0.34219807 -0.31295773 -0.7292257 -0.49401647 1.5387231 0.5830178 0.017289218 1.5151969 0.016118916 1.3336214 0.25623557 -1.6081674 0.3978096 -0.020026298 -0.9675169 -0.2652277 0.50834954 0.20561777 -1.0661716 -1.2547863 -0.5726345 0.21798195 1.0746173 1.3530848 0.15471475 0.42465764 -0.22411154 -1.2807362 1.4610301 -2.0509174 -0.56396383 -1.4487088 0.67326456 0.1208679 -1.1661943 1.8293118 -0.21970525 -1.5058736 -0.18645398 -0.43418646 1.4745438 0.5639523 -2.1651802 -0.5286371 -0.6033105 -0.5319556 -1.2249285 -0.7534236 -0.21479315 0.30983564 -0.12999924 0.42933953 -0.6724496 -0.49662355 1.023437 0.99768823 0.18452454 0.17729045 0.04965561 -0.83137697 0.2384872 1.5786568 -0.37370977 -0.7383181 -0.18584774 -0.30729443 -0.11427534 -0.9890735 0.098714925 -0.53281975 0.70959014 0.308176 -0.5052563 -1.3805081 -0.23145165 0.0005899317 -1.0951185 -0.3127434 1.133964 0.41953957 -0.12783767 -0.18488218
425 1.3618349 -0.43066886 0.633082 1.0238488 -0.8528519 -1.2934989 -0.6710585 0.30407727 -1.2068937 -0.930482 0.87289494 -0.74144554 -1.1549319 0.7657958 1.0526068 0.5478171 -1.1433493 0.38317388 0.35742247 0.7476171 -0.7005981 0.06611022 -0.61385304 0.56841063 -1.2657653 -1.3377676 -1.0808392 -0.25680807 0.79885 -1.3032953 1.1631801 -1.8071914 -1.3604375 -0.43146962 -0.13925637 1.0461231 0.67158425 0.18507507 0.27451116 -0.48888522 -0.11794423 -0.39788848 1.8490418 0.41803327 -0.4987066 0.9160934 -1.7724245 -0.5135704 0.35039404 -1.0827633 0.756019 -1.311361 -0.6004862 0.24503653 -0.4418308 0.7230339 0.92753005 0.042632565 -0.6894832 0.26399648 0.0008400094 1.0380592 0.5369394 0.5391027 -0.6128262 -1.0152214 -1.1634339 0.82942086 2.870306 -0.6773552 -1.2828437 0.3268975 -1.2623435 2.3412766 0.36410677 -0.28366554 0.19222395 0.1704025 0.49998373 0.2311433 -0.6021562 -0.80595005 -0.8810981 -1.0917395 0.61496603 1.0731372 -0.47982264 1.2759621 -2.2900815 -0.21301343 -0.9527259 -0.4567825 -1.6431292 -1.5517492 0.29563254 -0.83898395 0.26710716 -0.4130066 -0.03903132 -0.9491362 -0.6232637 1.0599722 -0.91005784 0.7164662 -1.2489258 -0.7322502 -0.17484863 -0.6377671 0.66009367 0.60097647 0.23336057 -1.5207115 0.29152176 1.0605015 1.2783966 0.35204253 -1.1007102 -0.7960403 -0.38945898 -1.463248 -0.6173311 -0.75951207 -1.4957355 1.4906938 0.7992417 0.29612616 -1.2517967 -0.8171005
198 -1.1657482 0.3808895 1.4474514 0.03815138 0.395416 -2.112991 -0.4354692 -1.5254678 -1.6059649 -1.8258923 0.46864104 -0.82151645 0.35123536 0.82356775 0.9366424 -1.0667276 -0.32188055 1.0974896 1.0371902 1.5923406 -0.4975637 1.9443582 -1.291566 -0.28473812 1.0451752 -0.32776845 -0.36703584 1.0821583 2.8504138 0.47727758 0.19532423 -0.886139 -1.92474 -0.51916677 -0.77474046 -1.5925602 -0.51768893 1.4502678 1.5534227 1.7634854 -0.46032307 2.0474248 -0.2087403 1.1477503 -0.35488278 1.0341259 0.7625887 1.0172532 0.26268527 0.012300032 0.3685271 0.68507344 0.28475747 -0.033583015 0.035598923 2.1856394 -0.7776876 -1.0407708 -0.38051412 -0.6898118 -0.483624 0.6780611 0.42662218 -0.008349403 0.3294409 -1.6138196 -0.43082166 -0.5288766 0.502175 -0.17943038 0.7993234 -0.0056602536 0.10555939 -1.9746728 -1.3552374 -0.8051208 -1.4566758 -0.95046115 0.21013919 -1.1109518 -0.6273732 0.42142734 0.30114105 -0.20627937 0.014170888 -0.55709743 -1.0966038 -0.49665096 0.19302025 1.3654686 0.17628172 -0.84927833 -2.0240016 -0.40008947 1.165554 1.2227087 0.018424107 1.0038881 0.81528145 -0.57878125 -0.8257233 -0.64247483 0.12934516 0.4889144 0.36552247 -0.31613475 0.16580741 -0.75508004 1.756412 0.5867783 0.2213936 0.656234 -0.31584725 -0.4945831 -1.4811734 0.21722321 0.06685883 0.68243927 0.68128985 -0.06090112 0.05768614 0.17447361 -0.41280583 -0.21124399 0.38003215 0.24005729 -0.90901315 -0.26615146
278 -1.6325595 0.2350192 -0.15453573 1.4975994 0.3842839 -0.65639627 1.0579569 -1.3080533 0.18248762 -0.5040285 -0.18411815 0.5442979 1.3333391 0.069333196 1.5168208 0.10787213 -0.73946106 0.04248315 -0.6552415 1.0592322 -1.7744701 0.5983797 -0.46523678 -0.6442238 0.48217437 -0.44984576 2.4057364 1.9639388 -0.06481485 0.7155712 0.44206768 -0.23313728 -0.92921877 -0.1960027 -0.30367288 -1.6645455 1.3564599 -0.318625 0.42691335 0.20424977 1.256422 -0.117794104 0.8466697 -0.5533858 0.1400916 0.06856598 -0.7993888 -1.01259 0.79987466 -0.28556105 -0.55250424 2.5582602 -1.0174601 0.67946786 -1.1010982 0.6040309 -1.1889755 0.43630794 -1.3176732 0.7006258 -0.8306944 0.1616155 -0.23754473 -1.2985901 -1.1475551 -1.4308842 -1.5719161 -1.0034697 0.62993103 1.2980579 -0.76535785 -0.49214116 0.14845954 -1.4263504 -0.5719332 -2.0121415 -1.2807425 -0.5249808 0.6630757 -0.52921724 -1.9514638 0.99050885 0.58949125 0.25437567 0.4816316 1.4393338 -0.83170134 1.0124804 -0.9127014 -0.20077111 0.87841314 -0.3539299 -0.44657174 0.99717236 -0.958251 -0.38388234 -0.14777452 -0.6344794 -0.52030903 0.29236382 -1.469895 -0.21987487 -0.027267411 0.100220375 -0.33805832 0.91372377 0.7211657 1.1274608 -0.621491 -1.2167019 0.24365345 -1.6579078 1.1784348 -0.82615876 -0.30690643 -0.23709546 -0.96127117 -0.73126143 2.387953 -0.046003025 -0.24687926 0.20531482 -1.4239022 -0.9644039 0.15816127 0.34750685 0.19458051 -0.9971166
23 -0.27113944 -0.58248574 0.7646925 0.49522442 0.04009193 -1.0917331 -0.75216526 0.45775118 -0.108320855 -0.7972505 -0.85923433 -1.3432101 -1.0607107 -1.1419708 1.6918719 -1.879778 0.54133487 1.0899662 1.6278744 0.9640715 -0.622525 1.1779106 0.55787253 0.3825322 -1.4576684 -1.4828063 -1.0194377 0.7964007 2.90977 0.2809803 -0.96824306 -0.026018728 -0.95016915 -0.23066044 -2.630885 -0.87747586 -0.25428054 -0.20376474 -0.15048966 2.2044637 -1.1086862 -0.39695042 0.08447421 0.6558131 0.06533752 0.58181185 1.3271697 -0.28075156 -1.4536731 -0.024756582 -0.32292828 1.5396968 1.6871119 -0.22900869 -0.1086769 0.06926815 0.8173353 0.28222784 -0.0657211 -0.99525195 -0.60338104 -0.10558609 1.2329065 -0.17617244 -1.5363113 -1.6333202 -1.3011464 -0.8765091 0.65962446 -0.014277792 -0.47959313 0.4758081 -0.49823132 -1.1309384 -0.63053215 -1.3569964 -0.80951864 -0.690128 -0.10780825 0.14759752 0.3824494 0.3555789 -0.4375389 -0.75654936 -1.679946 -0.4483467 -0.8225817 0.08808483 -0.8755077 0.569114 0.7615679 0.23345615 -1.558043 1.4304271 0.052051824 0.98915446 -0.78805476 0.596997 0.6394346 0.09021114 0.11176319 -0.9417195 0.60219955 0.34570062 0.3228018 0.45574012 0.2600278 -1.0145499 0.8678487 -0.053668685 1.9352865 0.35425076 -0.5100542 -1.3625371 -0.604042 0.10486816 -0.44668972 0.20462063 1.4003588 -0.20501445 -0.47042328 -1.5133713 -1.5243556 -0.42860553 0.10807456 0.5586195 -1.2151538 -0.100680165
469 0.28425434 0.13614811 0.13625607 0.8889149 -1.7676241 -0.8536582 -0.082990184 -0.2668584 1.0054364 0.19316702 -0.35067675 -1.2239408 0.33609247 0.31084895 -0.93448365 0.7201191 -0.7099689 1.8066587 1.2583699 -0.69177175 -1.0164778 0.4357735 -0.7468681 0.25999448 0.8533593 1.2466737 1.5954729 -0.19623633 -0.31071186 0.8066964 -0.098608315 -0.6660594 -0.11276578 -0.13471879 -1.4405167 -0.2742365 0.37131357 0.14989589 -0.048956454 -0.16295339 1.176702 -1.099894 0.21959774 0.1555726 0.58216673 0.2161785 0.4979334 -0.23778856 -0.03744936 0.18263277 0.023069976 -0.25377223 -0.33348036 0.9730762 1.0755154 -0.50277317 0.42978916 -0.5699197 0.6014969 0.69966114 -0.11655737 0.20285562 0.25503793 -1.0652245 -0.35440284 0.23184189 -0.46449694 -1.1714541 0.113457166 -0.18056294 0.67447424 0.33346495 1.1271744 -0.56349814 -0.16999415 1.2235904 0.094279505 1.0497986 -0.033545453 -1.0789157 0.5232426 -0.06088637 1.0835707 0.3166782 0.11721619 0.4176749 -0.22884929 -0.74118876 0.4016995 0.32109302 -0.6069613 0.5802238 -1.5678897 0.25740945 -0.684611 0.8441632 2.0517461 -0.63841355 1.7559528 -0.25818542 -0.24893992 -0.22024581 -0.28301167 0.34001055 -0.27462867 -1.0436672 -1.1605815 -0.35181984 -0.56114763 -0.5624053 -0.87739235 0.13891445 -0.3120031 -0.41558045 0.63154644 -0.31634668 -0.07024998 0.6013116 -0.027874606 -0.748653 -1.1862866 -0.5517483 1.5374076 -0.33630386 -0.5273283 -0.4107632 0.7046436 2.0431201
178 -0.26742837 -1.8363696 0.33901015 -0.23650892 0.013805937 -0.48049402 -0.8785111 0.10678586 -0.78320557 -1.8040931 -0.6367658 -0.31923673 -1.5645578 0.6488745 0.95153147 -0.60380524 -0.75773877 -0.15182379 1.6906382 0.27071404 0.59227526 1.9504753 -0.20612858 -0.56813914 -0.6824901 -0.58646363 -0.6548076 0.7694405 2.8357625 -0.654137 -0.41582137 1.2573322 -0.5110185 -0.58745605 -2.0255644 -1.9461029 -0.5879621 0.67282337 1.1233274 1.3009324 -0.93682617 0.47706497 0.3693354 0.04752515 -0.3655188 -0.9895081 0.27184114 1.3497846 -0.9998758 -0.11686022 0.1896902 1.2119735 1.6345154 0.50416625 0.91269386 0.014066183 1.3950794 0.31591147 0.7383731 -0.33749625 -1.1338416 1.1259594 1.1882918 -1.4803704 -0.666174 -1.6067971 -0.013140562 0.112905845 0.47525746 0.29221362 -0.067113526 1.8028197 0.46498573 -0.07732087 0.17397428 -1.6193936 -0.9743513 -0.7442587 -0.44744086 -0.24046125 -0.97208923 0.123432726 -0.56285495 -0.32133093 -0.9561508 -0.4888992 -0.3189061 -0.0075527993 -1.7940837 0.9314381 0.94673365 0.8607436 -0.84219426 1.3854059 0.94441813 0.98477656 -0.40894687 0.11152451 0.2680622 0.39547005 -0.42746758 -0.491841 1.2759402 0.33194897 1.1708045 0.2596801 -0.46750897 -1.5327653 1.4284929 -1.1857176 1.0847062 -0.415443 -1.1938587 0.30107927 -0.41809827 -0.24636774 -0.7829274 -0.32758993 1.3295063 -1.3288485 0.21723995 0.7377338 -2.0571382 0.08506413 0.14107947 1.032975 -0.8847588 -0.24673304
193 -0.39781523 -1.7033138 1.4089116 0.87165594 -0.99163115 -0.65283895 -1.252495 1.4206485 -1.667851 -0.715779 -0.6198649 -2.0923526 -0.68685055 -0.33379635 -0.52274275 -1.3439648 -0.8499629 -0.28022775 0.98003227 1.4333793 -0.03441308 0.95572984 0.7191339 0.87617725 -0.93174475 -0.6154971 -1.3424504 0.55659807 2.4407675 -0.7183961 -0.34490705 0.63965815 -0.6825439 0.004071246 -0.5591293 -2.0968206 -1.5134616 -0.03778564 -0.39543048 1.469333 -0.8811454 0.90468603 -0.2220309 -0.02710414 -0.054477915 -0.83210075 1.0719533 0.23115776 0.33955067 0.09579995 -0.42631382 0.6767802 0.74740624 0.059983935 -0.47787473 -0.6964798 0.20178537 0.50388396 -1.3358854 -0.40503728 -0.44421986 -0.14924955 0.6858405 -0.43396157 -1.5518839 -1.1918178 -1.0995833 0.05316266 1.0325743 0.114002354 0.99235153 0.33890072 -0.19607878 -1.3480768 -1.3655689 -0.41522136 -0.4308511 -1.3984091 -0.03849519 -0.04128012 -1.8724881 0.016728887 -0.598127 -0.21484247 -1.2197025 0.53266674 -0.59002966 -0.1267997 -0.257687 0.8591972 0.3874669 0.07822615 -1.697264 1.2584754 0.99555427 0.28089535 -1.3736457 0.5824775 -0.37923968 -0.11639571 -1.6349446 -2.12055 1.6214936 1.1342508 0.41766807 -0.42109317 -0.12815431 -0.92860854 0.5340684 -1.0443076 1.1790384 -0.81602895 -0.11812094 -1.1523749 -0.17973499 0.15796341 0.8867027 -0.48722404 1.5419062 0.24326368 0.18273294 -1.0498788 -1.876835 0.11295317 0.5870787 0.79945487 -1.1711223 1.2489003
136 0.122774504 -1.0420675 -0.12596336 -0.15756972 -1.2725924 0.25974992 0.43964663 -0.44748047 0.7752102 -0.48388577 0.136877 -0.7737164 0.3429296 -0.13967213 -0.056293342 -0.33242354 -1.023685 0.35527775 0.94987935 0.33469388 -0.22356175 0.45709473 -0.58192635 -0.6380101 -0.061269585 -0.41338474 -0.9092457 0.14934053 1.1595879 0.9152495 -1.1447985 -0.5437772 0.31771576 1.0243715 -0.46678042 0.78559196 0.6550068 0.86385834 0.035805255 0.99008405 0.22806908 -0.45772475 0.38218248 -0.31081817 -1.4921639 0.15457723 -0.49015725 -1.486846 -1.093025 -1.6514568 -1.7929382 0.332764 1.9426817 -1.3155384 -1.4006418 0.023105692 -1.5401717 -0.69368905 1.6712558 0.9240179 -0.8054889 0.25721237 -1.3469733 1.2962878 0.4909237 -0.53749967 -1.1890076 -0.2879584 2.3228216 -1.6396118 1.1019617 0.55947965 0.123449445 -0.55464375 -0.71685904 -0.43105894 -1.1468425 -0.31905845 0.62580675 -1.6413836 -0.45761782 1.8724838 0.4029365 -0.71663547 0.1720683 1.8468492 0.07936416 0.044038065 -1.0919502 0.9418306 -0.7396093 0.2057038 0.681357 1.0865568 0.06829361 0.008845434 -0.9802365 0.8915956 0.20324852 -0.17587672 0.010608601 1.3760524 0.6061545 -0.7473991 -0.56826454 -0.69289446 0.38434145 0.09654093 -0.4758877 1.9290544 0.53173864 0.010110562 -0.2933786 -0.35229337 -0.35723865 1.5131152 -1.0961734 0.44135183 1.1954706 -0.44690245 -0.052073885 -0.063412264 -2.210148 -2.4360924 -0.7304639 0.2372572 -1.4460182 1.2495824
440 -0.12618886 -0.7132391 0.61155176 0.54002804 1.2123641 -0.8417778 0.45499325 0.564911 0.24763854 0.41423726 -0.6962183 -0.07696057 1.3221998 -0.5543659 -0.08824228 0.6294997 -1.3064667 -1.2009144 -0.789016 0.9635719 -0.86114824 -0.748587 -0.38895887 -0.5376916 -0.10309215 -0.90908355 -1.046224 0.27481946 0.07359589 0.8198329 -0.16830464 -0.13988172 -0.8339444 -1.0266956 0.9854189 0.087718464 0.15209481 -1.8758354 -0.31732425 0.265736 0.8597003 0.5203626 -0.5909526 -0.077369995 0.45974436 -2.097738 -0.3531534 -0.32999736 -0.26798958 0.7634693 0.9538669 -0.38867483 1.3525226 -0.7406892 -1.0435922 0.31026876 0.02138791 0.26789385 -0.14665884 -0.018469153 -0.32910565 0.96936065 0.22260228 -0.3031174 -0.94161665 0.3832941 -1.440578 -0.4669312 0.71622086 0.13187125 1.0168715 0.53895855 0.717187 0.30736506 0.104750946 0.07276222 -0.25451246 -0.09183659 -1.4612341 -0.61885124 0.33784547 -0.15978073 -0.79401594 -0.8311 -1.2089974 0.6677372 0.09700353 0.7072614 -1.6425248 0.35250384 0.46723998 -0.37260512 0.50672203 1.1708299 -0.8143257 -0.09388042 0.49803746 -1.0520818 -0.5075879 -0.2223431 1.3618783 -0.4907161 0.99880755 -0.08919727 0.30482793 -1.0960854 -0.19075227 0.946315 0.08840264 0.3907326 1.2672969 -1.2704946 -0.9953996 -0.89928424 -0.009366469 0.14165819 -0.06920085 1.3665514 0.5395896 -0.53945106 -0.8758715 0.6371809 -0.41603178 1.2265235 -0.7867905 -0.9597124 0.36944473 0.6192954
13 -1.4818451 -0.5274282 -0.71321934 1.3421184 -0.078102574 -0.6668269 1.6709138 -0.7594587 -0.16487715 -0.4817249 0.19030198 -0.8470352 -0.0022708834 -0.26090792 -0.39813322 0.3786976 0.064691484 -0.73130673 -0.36306927 0.6916769 -1.0957662 -0.27387324 -0.0043222466 -0.56628895 -0.25799397 -1.2068985 1.0428936 0.5567907 0.9289886 -0.45917463 1.8126352 0.1376895 -0.3821494 -0.4171701 -0.09806705 -1.4188901 0.99943656 -0.48988986 0.5990335 -0.10266133 -0.06734068 0.009281092 -0.3035194 -1.425824 -0.10036797 -0.6357906 -0.9924072 0.18685344 -0.50898105 -0.7284528 0.5290052 2.099009 -0.91943556 0.19527347 -0.40738344 1.7408333 -1.7361784 0.7097046 0.026044568 0.9781503 -0.6775396 -0.6422164 -1.3169665 -0.869215 -0.0247529 -0.8074625 -0.5241558 -0.40799475 -1.1436411 0.77649224 -0.44208246 0.2630196 0.8783963 -0.74487096 0.052460372 -1.3661454 -2.2048998 -0.57953006 0.69821024 -1.0955106 -0.68192166 0.66665006 -0.26814783 0.10577022 0.29158676 1.5080351 -0.030985177 0.90169674 -1.3224616 -0.23622753 0.5582638 -0.6743924 -0.27952707 0.90520597 -0.85494536 0.012614965 0.47097197 0.66892207 -1.4109671 -0.17305112 -0.57223755 0.7565922 -0.9428042 -0.3008495 -0.46850747 0.02009964 -0.23558146 0.9659039 -0.13597372 -0.88848746 1.529713 -0.9077782 1.0065432 -0.93169177 0.3284397 0.062485415 -0.31623343 -0.76960874 1.8284069 0.6741147 0.12821059 0.42027158 -0.7566659 0.47613433 1.1039425 2.1272366 -0.69602835 0.023396438
188 -1.66898 -1.431738 -1.0509684 1.407158 -0.25358075 -1.1616215 1.0060678 -1.7993147 -0.36627316 -0.7287842 -0.49454266 -1.2839259 -1.1176877 2.3418856 -1.1297057 0.5793134 -0.7294035 2.0858681 0.91902703 0.7606042 -1.5320725 0.30721864 -0.60770816 0.43849656 -0.99218595 0.99193436 1.8890357 0.70680994 1.7280419 0.8313254 -0.47660214 -1.2296739 0.5687455 0.07158888 -1.0010624 -0.21770225 -0.67093134 -0.113472104 0.66181636 -0.26212764 -0.5033639 -0.35545668 1.4392192 -1.0003288 -0.9144126 -0.15911709 0.05089395 0.72537076 -0.12503368 -0.05189448 -0.06694736 -0.13394038 0.26845706 0.29437912 -0.012291588 0.29221645 -0.568827 -0.7186514 0.726326 0.49235275 -0.48855048 -0.38688037 0.18782201 -0.44989878 -1.0281202 0.33712584 -0.9802225 -1.2396145 1.109074 0.8912892 0.5048085 -1.0949937 1.0842471 1.112047 -0.6622397 0.50627583 0.49776125 0.10154025 -0.29141432 -1.3197875 -1.5002111 0.51255816 -0.28050894 0.11451401 -0.060250074 1.0785825 0.9858761 -0.22750476 -0.039706904 0.8597399 -0.88565475 -0.4036129 -2.1941185 0.49109662 -0.8714867 0.41067967 1.3986756 -1.0486373 0.24597815 0.25467524 -1.0670552 -0.39818662 0.19855875 0.8827823 -0.009333901 -0.90432745 -1.0088003 0.37225354 -1.5791646 0.19692598 -0.45705086 -1.5140069 -0.21675354 -0.62087387 0.88335156 -0.03503725 -0.036228616 -0.88424635 0.14273754 -1.2810822 -0.5338035 0.3107764 0.024980206 -0.033180777 0.10020488 -0.6982965 -0.49141663 0.8457097
275 -0.28897122 -0.21712443 -0.68752456 1.2899165 0.016295604 -0.10241394 1.5655429 -1.6125032 -0.8918926 -0.54240125 -1.106423 -0.050265614 -0.12169915 -1.0599109 0.5236674 0.032857258 -1.1790125 -0.87694645 -0.6758691 0.9545222 -0.8515097 0.11555138 -0.92656916 -0.27133617 0.51613027 -0.055413254 0.32977322 0.5327645 1.4365586 -1.1851469 0.35383725 -1.1554282 1.0953778 -0.4808759 -0.09943121 0.87210554 0.2078478 -0.16227113 0.18175706 0.62072265 1.0140712 -0.103460066 0.82175595 -0.17210424 -0.8443598 -0.6354843 -0.11034718 0.529697 -1.1672368 -0.69365686 0.90867186 1.4306047 -0.7131735 1.0989867 -0.14750437 0.96305513 0.47956818 -0.26359794 1.8145518 0.86201876 -0.15149142 -0.30402836 -0.49398303 -0.032330677 -0.5514629 0.8212821 -0.19551066 0.08305862 -0.32551596 0.98307776 0.40843865 -0.65104955 -0.13895892 -1.0845407 1.14909 -1.5767331 -0.19547686 -1.0401295 1.7301303 -0.528402 -0.06153707 1.399824 -0.4952288 -1.752581 -0.97446805 0.064915426 1.1926771 0.14515594 -2.730947 -0.6808911 0.9454837 -0.8489761 0.2988665 0.00089121296 0.3233505 0.7130329 -0.6390032 -0.00798946 -1.1003066 0.5006236 1.4285736 0.19066487 1.5370119 0.1864432 0.08715918 0.8593503 -0.03874235 0.91148967 0.5886554 -1.089071 -0.1391121 -0.663762 0.50962883 -1.0301468 -0.28250238 -0.8700784 -0.015280947 0.5451192 -1.18257 -1.7585326 -0.97331685 -0.0577965 -1.2969489 -0.77038735 0.19206311 -0.76837033 -0.47818625 0.06850166
470 0.32022563 -0.6241007 1.2647225 -0.22737168 0.55449665 -1.2810045 -0.79787505 -0.52811915 -0.9195789 -0.8281943 0.122019835 0.1042544 -0.15331234 0.43499324 0.33976242 -1.1065588 -0.3170765 0.08591308 0.8997405 0.8364638 -0.13760838 1.6466365 -0.506665 -0.37292397 0.620577 -0.47094458 -1.3251033 0.8453821 1.959247 0.10247433 0.104575455 -0.021493446 -1.5856876 -0.18724059 -1.1558359 -1.395576 -0.62569505 1.0900147 0.74873114 1.8255863 -1.1649151 1.1545788 -0.11897589 0.8665145 -0.2887946 0.40387163 1.3659322 1.26964 0.06654604 0.245416 0.07837404 1.2846426 0.8583238 -0.22628012 -0.20062794 0.9332037 -0.40385062 -0.07157875 -0.14059767 -1.0003004 -0.11037067 0.83511853 0.26370096 -0.004684767 -0.37776226 -1.2563167 -0.5194167 -0.22679695 0.12923016 0.44151872 0.6034355 0.45257986 0.0322302 -0.9831133 -0.94877124 -0.5012941 -0.368508 -0.20212868 0.22946873 -0.27429134 -0.29133087 -0.44429645 0.31514898 -0.13793522 -0.68518627 -0.2723632 -1.0369058 0.33520538 0.17530434 0.794974 0.6221998 -0.09267682 -1.3717179 0.14710261 0.8435415 0.40109235 -0.304718 0.38718837 0.418693 0.11603117 -0.65514266 -1.0288278 0.6153193 0.7486235 -0.31397513 0.16863748 0.18352167 -0.8709579 1.3710428 0.16130063 0.54471624 0.55018115 -0.6546724 -0.09410774 -1.1930412 -0.11668118 0.20494318 0.7340079 1.3642312 -0.2487884 0.71562743 0.10078041 -0.44976798 -0.467914 -0.48194978 0.21753426 -0.65799266 -0.47965822
